{"learner":{"attributes":{"scikit_learn":"{\"_estimator_type\": \"classifier\"}"},"feature_names":["loan_amnt","installment","annual_inc","dti","delinq_2yrs","fico_range_low","fico_range_high","inq_last_6mths","mths_since_last_delinq","open_acc","pub_rec","revol_bal","total_acc","collections_12_mths_ex_med","mths_since_last_major_derog","policy_code","acc_now_delinq","tot_coll_amt","tot_cur_bal","open_acc_6m","open_act_il","open_il_12m","open_il_24m","mths_since_rcnt_il","total_bal_il","il_util","open_rv_12m","open_rv_24m","max_bal_bc","all_util","total_rev_hi_lim","inq_fi","total_cu_tl","inq_last_12m","acc_open_past_24mths","avg_cur_bal","bc_open_to_buy","bc_util","chargeoff_within_12_mths","delinq_amnt","mo_sin_old_il_acct","mo_sin_old_rev_tl_op","mo_sin_rcnt_rev_tl_op","mo_sin_rcnt_tl","mort_acc","mths_since_recent_bc","mths_since_recent_bc_dlq","mths_since_recent_inq","mths_since_recent_revol_delinq","num_accts_ever_120_pd","num_actv_bc_tl","num_actv_rev_tl","num_bc_sats","num_bc_tl","num_il_tl","num_op_rev_tl","num_rev_accts","num_rev_tl_bal_gt_0","num_sats","num_tl_120dpd_2m","num_tl_30dpd","num_tl_90g_dpd_24m","num_tl_op_past_12m","pct_tl_nvr_dlq","percent_bc_gt_75","pub_rec_bankruptcies","tax_liens","tot_hi_cred_lim","total_bal_ex_mort","total_bc_limit","total_il_high_credit_limit","credit_history_days","int_rate_cleaned","revol_util_cleaned","emp_length_numeric","term_ 60 months","grade_B","grade_C","grade_D","grade_E","grade_F","grade_G","sub_grade_A2","sub_grade_A3","sub_grade_A4","sub_grade_A5","sub_grade_B1","sub_grade_B2","sub_grade_B3","sub_grade_B4","sub_grade_B5","sub_grade_C1","sub_grade_C2","sub_grade_C3","sub_grade_C4","sub_grade_C5","sub_grade_D1","sub_grade_D2","sub_grade_D3","sub_grade_D4","sub_grade_D5","sub_grade_E1","sub_grade_E2","sub_grade_E3","sub_grade_E4","sub_grade_E5","sub_grade_F1","sub_grade_F2","sub_grade_F3","sub_grade_F4","sub_grade_F5","sub_grade_G1","sub_grade_G2","sub_grade_G3","sub_grade_G4","sub_grade_G5","home_ownership_MORTGAGE","home_ownership_OWN","home_ownership_RENT","verification_status_Source Verified","verification_status_Verified","purpose_credit_card","purpose_debt_consolidation","purpose_home_improvement","purpose_house","purpose_major_purchase","purpose_medical","purpose_moving","purpose_other","purpose_renewable_energy","purpose_small_business","purpose_vacation","purpose_wedding","initial_list_status_w","application_type_Joint App"],"feature_types":["float","float","float","float","float","float","float","float","float","float","float","float","float","float","float","float","float","float","float","float","float","float","float","float","float","float","float","float","float","float","float","float","float","float","float","float","float","float","float","float","float","float","float","float","float","float","float","float","float","float","float","float","float","float","float","float","float","float","float","float","float","float","float","float","float","float","float","float","float","float","float","int","float","float","float","i","i","i","i","i","i","i","i","i","i","i","i","i","i","i","i","i","i","i","i","i","i","i","i","i","i","i","i","i","i","i","i","i","i","i","i","i","i","i","i","i","i","i","i","i","i","i","i","i","i","i","i","i","i","i","i","i","i","i","i"],"gradient_booster":{"model":{"gbtree_model_param":{"num_parallel_tree":"1","num_trees":"466"},"iteration_indptr":[0,1,2,3,4,5,6,7,8,9,10,11,12,13,14,15,16,17,18,19,20,21,22,23,24,25,26,27,28,29,30,31,32,33,34,35,36,37,38,39,40,41,42,43,44,45,46,47,48,49,50,51,52,53,54,55,56,57,58,59,60,61,62,63,64,65,66,67,68,69,70,71,72,73,74,75,76,77,78,79,80,81,82,83,84,85,86,87,88,89,90,91,92,93,94,95,96,97,98,99,100,101,102,103,104,105,106,107,108,109,110,111,112,113,114,115,116,117,118,119,120,121,122,123,124,125,126,127,128,129,130,131,132,133,134,135,136,137,138,139,140,141,142,143,144,145,146,147,148,149,150,151,152,153,154,155,156,157,158,159,160,161,162,163,164,165,166,167,168,169,170,171,172,173,174,175,176,177,178,179,180,181,182,183,184,185,186,187,188,189,190,191,192,193,194,195,196,197,198,199,200,201,202,203,204,205,206,207,208,209,210,211,212,213,214,215,216,217,218,219,220,221,222,223,224,225,226,227,228,229,230,231,232,233,234,235,236,237,238,239,240,241,242,243,244,245,246,247,248,249,250,251,252,253,254,255,256,257,258,259,260,261,262,263,264,265,266,267,268,269,270,271,272,273,274,275,276,277,278,279,280,281,282,283,284,285,286,287,288,289,290,291,292,293,294,295,296,297,298,299,300,301,302,303,304,305,306,307,308,309,310,311,312,313,314,315,316,317,318,319,320,321,322,323,324,325,326,327,328,329,330,331,332,333,334,335,336,337,338,339,340,341,342,343,344,345,346,347,348,349,350,351,352,353,354,355,356,357,358,359,360,361,362,363,364,365,366,367,368,369,370,371,372,373,374,375,376,377,378,379,380,381,382,383,384,385,386,387,388,389,390,391,392,393,394,395,396,397,398,399,400,401,402,403,404,405,406,407,408,409,410,411,412,413,414,415,416,417,418,419,420,421,422,423,424,425,426,427,428,429,430,431,432,433,434,435,436,437,438,439,440,441,442,443,444,445,446,447,448,449,450,451,452,453,454,455,456,457,458,459,460,461,462,463,464,465,466],"tree_info":[0,0,0,0,0,0,0,0,0,0,0,0,0,0,0,0,0,0,0,0,0,0,0,0,0,0,0,0,0,0,0,0,0,0,0,0,0,0,0,0,0,0,0,0,0,0,0,0,0,0,0,0,0,0,0,0,0,0,0,0,0,0,0,0,0,0,0,0,0,0,0,0,0,0,0,0,0,0,0,0,0,0,0,0,0,0,0,0,0,0,0,0,0,0,0,0,0,0,0,0,0,0,0,0,0,0,0,0,0,0,0,0,0,0,0,0,0,0,0,0,0,0,0,0,0,0,0,0,0,0,0,0,0,0,0,0,0,0,0,0,0,0,0,0,0,0,0,0,0,0,0,0,0,0,0,0,0,0,0,0,0,0,0,0,0,0,0,0,0,0,0,0,0,0,0,0,0,0,0,0,0,0,0,0,0,0,0,0,0,0,0,0,0,0,0,0,0,0,0,0,0,0,0,0,0,0,0,0,0,0,0,0,0,0,0,0,0,0,0,0,0,0,0,0,0,0,0,0,0,0,0,0,0,0,0,0,0,0,0,0,0,0,0,0,0,0,0,0,0,0,0,0,0,0,0,0,0,0,0,0,0,0,0,0,0,0,0,0,0,0,0,0,0,0,0,0,0,0,0,0,0,0,0,0,0,0,0,0,0,0,0,0,0,0,0,0,0,0,0,0,0,0,0,0,0,0,0,0,0,0,0,0,0,0,0,0,0,0,0,0,0,0,0,0,0,0,0,0,0,0,0,0,0,0,0,0,0,0,0,0,0,0,0,0,0,0,0,0,0,0,0,0,0,0,0,0,0,0,0,0,0,0,0,0,0,0,0,0,0,0,0,0,0,0,0,0,0,0,0,0,0,0,0,0,0,0,0,0,0,0,0,0,0,0,0,0,0,0,0,0,0,0,0,0,0,0,0,0,0,0,0,0,0,0,0,0,0,0,0,0,0,0,0,0,0,0,0,0,0,0,0,0,0,0,0,0,0,0,0,0,0,0,0,0,0,0,0,0,0,0,0,0,0,0,0,0,0,0,0,0,0,0,0,0,0,0],"trees":[{"base_weights":[7.560894E-3,-7.188951E-1,4.026961E-1,-1.0944048E0,-3.864884E-1,6.3108796E-1,1.0257447E-1,-1.2383053E0,-7.2199553E-1,-5.96626E-1,-6.3102166E-3,1.6983543E-1,7.813286E-1,-4.3018287E-1,2.1099561E-1,-4.7758815E-1,-1.3088682E0,-3.4104443E-1,-1.07079E0,-1.7601877E-1,-7.654144E-1,2.7852568E-1,-3.99139E-1,-1.726196E-1,3.6526543E-1,4.7154716E-1,9.284804E-1,-1.4841399E-1,-7.706863E-1,-1.08276375E-1,3.973309E-1,-6.457655E-1,3.1405595E-1,-1.47024E0,-1.0278037E0,-5.753179E-1,1.7199999E-1,-1.2099128E0,-5.147227E-1,1.4060397E-2,-5.889167E-1,-9.19727E-1,-4.8968524E-1,6.454822E-1,-2.0226602E-2,-4.988892E-1,1.6582708E-1,5.0654493E-2,-5.108496E-1,-6.5340295E-2,5.811956E-1,8.029606E-1,1.9448598E-1,1.0753388E0,7.6508576E-1,-3.2055753E-1,4.1937837E-1,-1.1538887E0,-5.563077E-1,2.082727E-1,-2.2211123E-1,5.808175E-1,2.5884774E-1,-2.7816743E-2,-3.027133E-3,1.8399484E-2,-1.4785416E-2,-4.550991E-2,-2.1872368E-2,-2.5924291E-2,-4.274065E-2,-1.9359166E-2,2.0466713E-2,3.4363277E-2,7.308604E-4,-2.4080152E-2,-4.2262997E-2,-2.618057E-2,4.697893E-3,-3.863815E-3,2.8204769E-2,-1.1426372E-2,-3.1351563E-2,-2.0741472E-2,-3.2369636E-2,1.4412866E-2,-1.618109E-2,2.7011098E-2,9.984499E-3,1.8247414E-2,-5.790212E-3,-2.3451863E-2,-6.6162357E-3,1.7711822E-2,-1.5104898E-2,-7.020177E-4,2.88645E-2,1.085278E-2,-1.816671E-2,-9.354594E-3,1.3307999E-2,2.4083007E-2,1.0100242E-2,1.8867554E-2,3.2989845E-2,2.2689851E-2,3.617623E-3,2.7790327E-2,3.7834976E-2,1.8736586E-2,2.7203133E-2,1.5574538E-2,-1.2987261E-2,-3.1165414E-2,1.453972E-2,-3.7423763E-2,-4.7883473E-4,-2.0146387E-2,1.0341135E-2,2.4025798E-2,3.329991E-3,-1.1346642E-2,1.635284E-3,2.5910327E-2,1.2600706E-2,5.54815E-3,1.703059E-2],"categories":[],"categories_nodes":[],"categories_segments":[],"categories_sizes":[],"default_left":[0,0,0,0,0,0,0,0,0,0,0,0,0,0,0,0,0,0,0,0,0,0,0,0,0,0,0,0,0,0,0,0,0,0,0,0,0,0,0,0,0,0,0,0,0,0,0,0,0,0,0,0,0,0,0,0,0,0,0,0,0,0,0,0,0,0,0,0,0,0,0,0,0,0,0,0,0,0,0,0,0,0,0,0,0,0,0,0,0,0,0,0,0,0,0,0,0,0,0,0,0,0,0,0,0,0,0,0,0,0,0,0,0,0,0,0,0,0,0,0,0,0,0,0,0,0,0],"id":0,"left_children":[1,3,5,7,9,11,13,15,17,19,21,23,25,27,29,31,33,35,37,39,41,43,45,47,49,51,53,55,57,59,61,63,65,67,69,71,73,75,77,79,81,83,85,87,89,91,93,95,97,99,101,103,105,107,109,111,113,115,117,119,121,123,125,-1,-1,-1,-1,-1,-1,-1,-1,-1,-1,-1,-1,-1,-1,-1,-1,-1,-1,-1,-1,-1,-1,-1,-1,-1,-1,-1,-1,-1,-1,-1,-1,-1,-1,-1,-1,-1,-1,-1,-1,-1,-1,-1,-1,-1,-1,-1,-1,-1,-1,-1,-1,-1,-1,-1,-1,-1,-1,-1,-1,-1,-1,-1,-1],"loss_changes":[4.935655E3,7.5569946E2,7.63317E2,1.5150708E2,2.5682288E2,4.3811353E2,2.781515E2,1.0940674E2,1.0526999E2,1.4684906E2,1.2827043E2,1.041364E2,2.17E2,7.8016266E1,2.3804227E2,2.3578121E1,8.3542725E1,4.5946903E1,3.1447632E1,4.664341E1,6.2401184E1,7.28667E1,2.7237022E1,4.2744637E1,9.212378E1,1.4108014E2,7.675098E1,4.38095E1,2.9630554E1,5.3201874E1,6.404526E1,2.3248745E1,8.223644E0,6.016919E1,4.197278E1,2.7101456E1,1.7542583E1,2.7692688E1,2.135528E1,5.5727295E1,1.7476807E1,3.548889E1,3.0543297E1,2.4363174E1,4.1325417E1,3.306846E1,2.1774326E1,2.358565E1,2.0830723E1,4.31606E1,3.6684723E1,3.5368988E1,3.4568733E1,4.579419E1,3.0679626E1,3.493702E1,1.17441025E1,1.6889816E1,2.7410233E1,2.2494444E1,4.8836147E1,4.9257538E1,3.2415077E1,0E0,0E0,0E0,0E0,0E0,0E0,0E0,0E0,0E0,0E0,0E0,0E0,0E0,0E0,0E0,0E0,0E0,0E0,0E0,0E0,0E0,0E0,0E0,0E0,0E0,0E0,0E0,0E0,0E0,0E0,0E0,0E0,0E0,0E0,0E0,0E0,0E0,0E0,0E0,0E0,0E0,0E0,0E0,0E0,0E0,0E0,0E0,0E0,0E0,0E0,0E0,0E0,0E0,0E0,0E0,0E0,0E0,0E0,0E0,0E0,0E0,0E0,0E0,0E0],"parents":[2147483647,0,0,1,1,2,2,3,3,4,4,5,5,6,6,7,7,8,8,9,9,10,10,11,11,12,12,13,13,14,14,15,15,16,16,17,17,18,18,19,19,20,20,21,21,22,22,23,23,24,24,25,25,26,26,27,27,28,28,29,29,30,30,31,31,32,32,33,33,34,34,35,35,36,36,37,37,38,38,39,39,40,40,41,41,42,42,43,43,44,44,45,45,46,46,47,47,48,48,49,49,50,50,51,51,52,52,53,53,54,54,55,55,56,56,57,57,58,58,59,59,60,60,61,61,62,62],"right_children":[2,4,6,8,10,12,14,16,18,20,22,24,26,28,30,32,34,36,38,40,42,44,46,48,50,52,54,56,58,60,62,64,66,68,70,72,74,76,78,80,82,84,86,88,90,92,94,96,98,100,102,104,106,108,110,112,114,116,118,120,122,124,126,-1,-1,-1,-1,-1,-1,-1,-1,-1,-1,-1,-1,-1,-1,-1,-1,-1,-1,-1,-1,-1,-1,-1,-1,-1,-1,-1,-1,-1,-1,-1,-1,-1,-1,-1,-1,-1,-1,-1,-1,-1,-1,-1,-1,-1,-1,-1,-1,-1,-1,-1,-1,-1,-1,-1,-1,-1,-1,-1,-1,-1,-1,-1,-1],"split_conditions":[1.198E1,9.43E0,1E0,1.9075E4,4.8647E2,8E3,7.7E3,3.1E4,7E0,4E0,2.25286E5,1.504E1,1.504E1,6.1E4,1.504E1,5.2E1,2.85E1,1E0,2.421E1,1E0,2.097E1,5E0,2E0,1.9615E4,1.3687E2,5E0,4.036E3,3.108E1,1.5246E2,1.484E5,2E0,7.96E0,2E0,1E0,2.3614E4,3.1E1,1E0,2.35141E5,4.64E1,1E0,6.6E4,2E0,3.96E4,3.929E3,2E0,7.7063E2,6.31E4,7.6E1,2E0,2.322E1,1.6236E4,6.0797E2,1E0,1.95E4,2E1,2.44E4,3.4E1,1E0,1.4E1,8.6E3,2.5E4,9.8E3,9.085E2,-2.7816743E-2,-3.027133E-3,1.8399484E-2,-1.4785416E-2,-4.550991E-2,-2.1872368E-2,-2.5924291E-2,-4.274065E-2,-1.9359166E-2,2.0466713E-2,3.4363277E-2,7.308604E-4,-2.4080152E-2,-4.2262997E-2,-2.618057E-2,4.697893E-3,-3.863815E-3,2.8204769E-2,-1.1426372E-2,-3.1351563E-2,-2.0741472E-2,-3.2369636E-2,1.4412866E-2,-1.618109E-2,2.7011098E-2,9.984499E-3,1.8247414E-2,-5.790212E-3,-2.3451863E-2,-6.6162357E-3,1.7711822E-2,-1.5104898E-2,-7.020177E-4,2.88645E-2,1.085278E-2,-1.816671E-2,-9.354594E-3,1.3307999E-2,2.4083007E-2,1.0100242E-2,1.8867554E-2,3.2989845E-2,2.2689851E-2,3.617623E-3,2.7790327E-2,3.7834976E-2,1.8736586E-2,2.7203133E-2,1.5574538E-2,-1.2987261E-2,-3.1165414E-2,1.453972E-2,-3.7423763E-2,-4.7883473E-4,-2.0146387E-2,1.0341135E-2,2.4025798E-2,3.329991E-3,-1.1346642E-2,1.635284E-3,2.5910327E-2,1.2600706E-2,5.54815E-3,1.703059E-2],"split_indices":[72,72,116,0,1,0,0,2,54,54,67,72,72,2,72,45,73,118,3,116,3,54,7,24,1,54,28,3,1,67,44,72,44,134,35,43,47,67,37,134,2,22,67,28,47,1,30,45,42,3,24,1,47,0,72,67,25,97,53,30,0,69,1,0,0,0,0,0,0,0,0,0,0,0,0,0,0,0,0,0,0,0,0,0,0,0,0,0,0,0,0,0,0,0,0,0,0,0,0,0,0,0,0,0,0,0,0,0,0,0,0,0,0,0,0,0,0,0,0,0,0,0,0,0,0,0,0],"split_type":[0,0,0,0,0,0,0,0,0,0,0,0,0,0,0,0,0,0,0,0,0,0,0,0,0,0,0,0,0,0,0,0,0,0,0,0,0,0,0,0,0,0,0,0,0,0,0,0,0,0,0,0,0,0,0,0,0,0,0,0,0,0,0,0,0,0,0,0,0,0,0,0,0,0,0,0,0,0,0,0,0,0,0,0,0,0,0,0,0,0,0,0,0,0,0,0,0,0,0,0,0,0,0,0,0,0,0,0,0,0,0,0,0,0,0,0,0,0,0,0,0,0,0,0,0,0,0],"sum_hessian":[1.71925E4,6.056608E3,1.1135892E4,2.8428425E3,3.2137651E3,6.323E3,4.812891E3,2.0488376E3,7.9400494E2,2.0693792E3,1.1443862E3,1.5540514E3,4.7689487E3,8.1334204E2,3.999549E3,1.7457397E2,1.8742635E3,3.8045367E2,4.135513E2,5.932044E2,1.4761747E3,6.6354663E2,4.8083954E2,5.646766E2,9.893748E2,1.5371567E3,3.231792E3,4.4584125E2,3.6750076E2,1.4741387E3,2.5254104E3,1.4413759E2,3.0436394E1,1.1879668E3,6.862969E2,2.6110358E2,1.19350105E2,3.298501E2,8.370119E1,4.068674E2,1.8633704E2,9.449788E2,5.311958E2,2.9726114E2,3.6628552E2,4.0878207E2,7.205745E1,3.4065314E2,2.2402344E2,3.3066446E2,6.587104E2,6.990605E2,8.3809625E2,1.6990823E3,1.5327097E3,3.4245193E2,1.0338931E2,1.3026653E2,2.3723424E2,3.8968445E2,1.0844542E3,1.0848364E3,1.4405741E3,9.2818794E1,5.131879E1,2.223866E1,8.197732E0,1.0820548E3,1.0591199E2,5.077281E2,1.7856879E2,2.460365E2,1.5067062E1,1.4540929E1,1.0480918E2,1.2012279E2,2.0972733E2,5.3738663E1,2.9962526E1,3.53323E2,5.3544384E1,1.3180917E2,5.4527863E1,4.253065E2,5.1967236E2,2.9423326E1,5.0177246E2,1.5746156E2,1.3979958E2,7.858531E1,2.8770023E2,1.9620465E2,2.1257742E2,4.399039E1,2.8067062E1,3.162298E2,2.4423326E1,2.3501728E1,2.0052171E2,2.225905E2,1.08073975E2,3.316078E2,3.271026E2,4.6110336E2,2.3795712E2,9.2363174E1,7.4573303E2,1.0310541E3,6.680282E2,8.3672595E2,6.959838E2,4.177959E1,3.0067236E2,4.236933E0,9.9152374E1,1.18371056E2,1.1895464E1,2.0853477E2,2.8699461E1,5.2096653E1,3.375878E2,6.843499E2,4.001043E2,3.6953284E2,7.153036E2,1.1788164E3,2.6175766E2],"tree_param":{"num_deleted":"0","num_feature":"135","num_nodes":"127","size_leaf_vector":"1"}},{"base_weights":[1.0343635E-3,-7.008278E-1,3.8264942E-1,-1.0802454E0,-3.683224E-1,6.098143E-1,1.2258914E-1,-8.2276165E-1,-1.2733958E0,-5.617494E-1,-1.5917124E-2,-7.3591396E-2,7.1084476E-1,-2.0014793E-1,3.054965E-1,-1.00355E0,-2.92814E-1,-1.3666886E0,-9.015813E-1,-3.6631894E-1,-8.47305E-1,3.9770445E-1,-2.5270575E-1,2.8197116E-1,-3.4365103E-1,4.1454715E-1,8.5352004E-1,-1.0019419E0,-1.4563113E-1,-2.412964E-1,4.1128123E-1,-1.115681E0,-2.0021218E-1,-2.8122531E-2,-6.9029963E-1,-1.567537E0,-1.2213099E0,-7.010095E-1,-1.2961845E0,-4.5798796E-1,4.6081692E-1,-7.194935E-1,-1.1276172E0,7.5421613E-1,1.0789125E-1,3.687043E-2,-4.360002E-1,5.899838E-2,5.8769673E-1,-4.8720533E-1,2.60142E-1,2.1892507E-1,7.5507826E-1,7.624619E-1,1.0546266E0,-1.1251688E0,2.9683205E-1,-2.123648E-1,2.6901764E-1,-2.6944181E-2,-5.065682E-1,3.4636799E-1,7.596232E-1,-1.8487342E-2,-3.7431657E-2,2.8936632E-3,-3.5685603E-2,-4.00356E-3,2.3217985E-2,2.660191E-2,-2.96688E-2,-4.7739558E-2,-2.8396387E-2,-2.6626699E-2,-4.0800042E-2,-2.6768735E-2,-6.3344096E-3,-4.1973278E-2,1.0753242E-2,-2.9664122E-2,-9.310284E-3,1.8345805E-2,-2.759581E-2,-1.3389208E-2,-2.5913198E-2,-3.5333876E-2,1.1505873E-3,3.679191E-2,1.5271731E-2,5.8153067E-3,-2.3220344E-2,5.9088194E-3,-1.4702859E-2,-4.404751E-3,-2.0658461E-2,-5.478679E-3,2.1714834E-2,-2.4330921E-2,1.9320624E-2,-1.2217141E-2,-3.8508777E-2,1.8294407E-2,-1.67348E-2,2.5621219E-2,3.8720702E-3,2.9048994E-2,1.462944E-2,1.9409614E-2,2.8054124E-2,1.7725792E-2,3.234149E-2,-4.5784026E-2,-2.3767466E-2,-2.0100616E-2,3.528705E-2,-1.0843413E-2,-9.776308E-4,2.1899417E-3,2.5516551E-2,-1.3892666E-2,3.4082222E-3,-8.804137E-3,-3.0065695E-2,5.4429434E-3,1.4245561E-2,3.626394E-2,1.9722778E-2],"categories":[],"categories_nodes":[],"categories_segments":[],"categories_sizes":[],"default_left":[0,0,0,0,0,0,0,0,0,0,0,0,0,0,0,0,0,0,0,0,0,0,0,0,0,0,0,0,0,0,0,0,0,0,0,0,0,0,0,0,0,0,0,0,0,0,0,0,0,0,0,0,0,0,0,0,0,0,0,0,0,0,0,0,0,0,0,0,0,0,0,0,0,0,0,0,0,0,0,0,0,0,0,0,0,0,0,0,0,0,0,0,0,0,0,0,0,0,0,0,0,0,0,0,0,0,0,0,0,0,0,0,0,0,0,0,0,0,0,0,0,0,0,0,0,0,0],"id":1,"left_children":[1,3,5,7,9,11,13,15,17,19,21,23,25,27,29,31,33,35,37,39,41,43,45,47,49,51,53,55,57,59,61,63,65,67,69,71,73,75,77,79,81,83,85,87,89,91,93,95,97,99,101,103,105,107,109,111,113,115,117,119,121,123,125,-1,-1,-1,-1,-1,-1,-1,-1,-1,-1,-1,-1,-1,-1,-1,-1,-1,-1,-1,-1,-1,-1,-1,-1,-1,-1,-1,-1,-1,-1,-1,-1,-1,-1,-1,-1,-1,-1,-1,-1,-1,-1,-1,-1,-1,-1,-1,-1,-1,-1,-1,-1,-1,-1,-1,-1,-1,-1,-1,-1,-1,-1,-1,-1],"loss_changes":[4.604506E3,7.634868E2,6.578147E2,1.3957104E2,2.2006033E2,4.1043994E2,3.0663412E2,1.1608771E2,5.474463E1,1.1601123E2,1.12253914E2,7.369181E1,2.1855835E2,8.1997444E1,1.91858E2,8.1328E1,3.2638206E1,3.5697266E1,2.4942688E1,9.417317E1,2.9503723E1,4.303264E1,3.8700928E1,2.2555712E1,3.7921314E1,1.1208298E2,6.318579E1,1.9454498E1,4.8779087E1,3.0579788E1,6.2556732E1,5.821393E1,3.381706E1,1.6497082E1,6.2918575E1,1.43602295E1,3.724768E1,2.165889E1,2.3113144E1,8.6739746E1,2.8351835E1,2.4141174E1,2.115622E1,2.1144745E1,1.8565193E1,2.4831707E1,3.3634354E1,3.200441E1,1.3642471E1,2.0640724E1,2.5423912E1,6.0925232E1,3.5975433E1,4.6904175E1,1.9298706E1,1.3641708E1,1.0594058E1,4.2085373E1,2.8286093E1,1.8904316E1,2.5327065E1,5.155841E1,1.7908386E1,0E0,0E0,0E0,0E0,0E0,0E0,0E0,0E0,0E0,0E0,0E0,0E0,0E0,0E0,0E0,0E0,0E0,0E0,0E0,0E0,0E0,0E0,0E0,0E0,0E0,0E0,0E0,0E0,0E0,0E0,0E0,0E0,0E0,0E0,0E0,0E0,0E0,0E0,0E0,0E0,0E0,0E0,0E0,0E0,0E0,0E0,0E0,0E0,0E0,0E0,0E0,0E0,0E0,0E0,0E0,0E0,0E0,0E0,0E0,0E0,0E0,0E0,0E0,0E0],"parents":[2147483647,0,0,1,1,2,2,3,3,4,4,5,5,6,6,7,7,8,8,9,9,10,10,11,11,12,12,13,13,14,14,15,15,16,16,17,17,18,18,19,19,20,20,21,21,22,22,23,23,24,24,25,25,26,26,27,27,28,28,29,29,30,30,31,31,32,32,33,33,34,34,35,35,36,36,37,37,38,38,39,39,40,40,41,41,42,42,43,43,44,44,45,45,46,46,47,47,48,48,49,49,50,50,51,51,52,52,53,53,54,54,55,55,56,56,57,57,58,58,59,59,60,60,61,61,62,62],"right_children":[2,4,6,8,10,12,14,16,18,20,22,24,26,28,30,32,34,36,38,40,42,44,46,48,50,52,54,56,58,60,62,64,66,68,70,72,74,76,78,80,82,84,86,88,90,92,94,96,98,100,102,104,106,108,110,112,114,116,118,120,122,124,126,-1,-1,-1,-1,-1,-1,-1,-1,-1,-1,-1,-1,-1,-1,-1,-1,-1,-1,-1,-1,-1,-1,-1,-1,-1,-1,-1,-1,-1,-1,-1,-1,-1,-1,-1,-1,-1,-1,-1,-1,-1,-1,-1,-1,-1,-1,-1,-1,-1,-1,-1,-1,-1,-1,-1,-1,-1,-1,-1,-1,-1,-1,-1,-1],"split_conditions":[1.198E1,9.43E0,7.1886E4,6E0,4.8647E2,1.7216E2,1.504E1,1.9075E4,4.6E1,1.04244E5,1E0,4E0,1.504E1,1.5246E2,7.7E3,1E0,4.91E4,3.0454E2,2.4838E4,1E0,8.72E4,3.623E3,2E0,1.709E1,1.1877E4,1.9075E4,2.145E1,1E0,1E0,6.6E4,1E0,3.6984E4,2.74E5,6.48E4,1E0,1E0,7.25E4,1.3056E4,8.6E1,1.5375E2,3E0,9.55E1,1.3E1,2E0,1.7E1,3.84441E5,5E0,7.307E3,6.5E1,7.6E4,9E0,5.877E3,5E0,1.9075E4,2.5348E2,5.113E3,2.7E3,1.9075E4,8E0,2E0,2.4E1,1.88E4,4.864E3,-1.8487342E-2,-3.7431657E-2,2.8936632E-3,-3.5685603E-2,-4.00356E-3,2.3217985E-2,2.660191E-2,-2.96688E-2,-4.7739558E-2,-2.8396387E-2,-2.6626699E-2,-4.0800042E-2,-2.6768735E-2,-6.3344096E-3,-4.1973278E-2,1.0753242E-2,-2.9664122E-2,-9.310284E-3,1.8345805E-2,-2.759581E-2,-1.3389208E-2,-2.5913198E-2,-3.5333876E-2,1.1505873E-3,3.679191E-2,1.5271731E-2,5.8153067E-3,-2.3220344E-2,5.9088194E-3,-1.4702859E-2,-4.404751E-3,-2.0658461E-2,-5.478679E-3,2.1714834E-2,-2.4330921E-2,1.9320624E-2,-1.2217141E-2,-3.8508777E-2,1.8294407E-2,-1.67348E-2,2.5621219E-2,3.8720702E-3,2.9048994E-2,1.462944E-2,1.9409614E-2,2.8054124E-2,1.7725792E-2,3.234149E-2,-4.5784026E-2,-2.3767466E-2,-2.0100616E-2,3.528705E-2,-1.0843413E-2,-9.776308E-4,2.1899417E-3,2.5516551E-2,-1.3892666E-2,3.4082222E-3,-8.804137E-3,-3.0065695E-2,5.4429434E-3,1.4245561E-2,3.626394E-2,1.9722778E-2],"split_indices":[72,72,18,54,1,1,72,0,37,18,44,54,72,1,0,134,69,1,35,134,2,28,20,72,11,0,72,134,118,2,118,67,67,30,47,134,2,36,29,1,22,63,57,47,54,67,47,11,36,2,74,68,54,0,1,71,36,0,51,50,45,0,11,0,0,0,0,0,0,0,0,0,0,0,0,0,0,0,0,0,0,0,0,0,0,0,0,0,0,0,0,0,0,0,0,0,0,0,0,0,0,0,0,0,0,0,0,0,0,0,0,0,0,0,0,0,0,0,0,0,0,0,0,0,0,0,0],"split_type":[0,0,0,0,0,0,0,0,0,0,0,0,0,0,0,0,0,0,0,0,0,0,0,0,0,0,0,0,0,0,0,0,0,0,0,0,0,0,0,0,0,0,0,0,0,0,0,0,0,0,0,0,0,0,0,0,0,0,0,0,0,0,0,0,0,0,0,0,0,0,0,0,0,0,0,0,0,0,0,0,0,0,0,0,0,0,0,0,0,0,0,0,0,0,0,0,0,0,0,0,0,0,0,0,0,0,0,0,0,0,0,0,0,0,0,0,0,0,0,0,0,0,0,0,0,0,0],"sum_hessian":[1.7189182E4,6.0539634E3,1.1135218E4,2.8264683E3,3.2274949E3,5.942793E3,5.192425E3,1.2137327E3,1.6127355E3,2.0833818E3,1.1441133E3,7.654293E2,5.177364E3,1.8782279E3,3.314197E3,9.043317E2,3.09401E2,1.2871084E3,3.2562704E2,1.2382339E3,8.451478E2,4.16279E2,7.278343E2,3.3039053E2,4.350388E2,1.68402E3,3.4933435E3,1.1847046E2,1.7597574E3,5.370333E2,2.7771636E3,7.9322375E2,1.1110797E2,1.8636716E2,1.2303384E2,5.36342E2,7.507665E2,2.1773274E2,1.078943E2,1.1150972E3,1.2313666E2,5.8292395E2,2.6222388E2,1.8594168E2,2.3033731E2,2.8243326E2,4.45401E2,1.9174176E2,1.3864877E2,3.516303E2,8.340848E1,1.0706282E3,6.1339185E2,2.4078809E3,1.0854628E3,1.0832621E2,1.014425E1,1.516224E3,2.4353352E2,2.9763318E2,2.3940015E2,2.3426138E3,4.3454987E2,1.8882372E2,6.044001E2,8.644113E1,2.4666838E1,1.6538033E2,2.0986822E1,1.998519E1,1.0304865E2,4.9478107E2,4.1560905E1,2.5272798E2,4.9803845E2,1.5250377E2,6.522897E1,1.0047491E2,7.4193983E0,2.2973277E2,8.8536444E2,1.10940834E2,1.2195825E1,2.1849614E2,3.6442783E2,2.4760709E2,1.4616798E1,5.9129364E1,1.26812325E2,2.1019244E2,2.0144869E1,2.1686804E2,6.556522E1,2.13985E2,2.31416E2,1.4135825E2,5.038351E1,5.7236767E0,1.329251E2,3.2396103E2,2.7669277E1,5.831668E1,2.5091795E1,1.2662198E2,9.4400616E2,3.2484866E2,2.8854318E2,1.5446997E3,8.6318115E2,8.9946915E1,9.9551587E2,4.4913975E1,6.341223E1,4.973094E0,5.171156E0,8.1311426E2,7.031097E2,1.8429402E2,5.9239502E1,7.176291E1,2.2587027E2,1.7119756E2,6.820259E1,1.0697825E3,1.2728313E3,6.922482E1,3.6532504E2],"tree_param":{"num_deleted":"0","num_feature":"135","num_nodes":"127","size_leaf_vector":"1"}},{"base_weights":[3.7402639E-3,-6.76993E-1,3.7259048E-1,-1.03499E0,-3.6359772E-1,5.9113663E-1,8.688011E-2,-1.2914141E0,-8.2957715E-1,-5.544088E-1,-3.0793877E-2,1.5834486E-1,7.319239E-1,-4.074556E-1,1.8665974E-1,-1.3792752E0,-4.5913172E-1,-4.388423E-1,-1.0156883E0,-1.830402E-1,-6.995239E-1,3.9518514E-1,-2.8167945E-1,-1.9762579E-1,3.430381E-1,4.4875312E-1,8.6656696E-1,-5.472882E-1,1.4360176E-1,-1.0780815E-1,3.570238E-1,-1.5309575E0,-1.032718E0,-1.1789672E-2,-9.9956805E-1,2.7784386E-1,-5.7906175E-1,-7.4302405E-1,-1.1904247E0,7.472771E-3,-5.9526706E-1,-8.3758104E-1,-4.0983126E-1,6.341736E-1,9.947246E-3,3.895331E-3,-4.6902844E-1,2.1830569E-1,-4.6163252E-1,-4.2398456E-2,5.4814416E-1,7.5815856E-1,1.9912013E-1,1.0084428E0,7.08624E-1,-1.2014451E-1,-6.8468267E-1,4.0760893E-1,-5.973582E-1,-4.764838E-3,-3.805487E-1,5.6282485E-1,1.9793175E-1,-2.5814898E-2,-4.8092585E-2,-2.4180453E-2,-4.9858436E-2,-9.742678E-3,2.1878362E-2,-4.070059E-2,-1.9131474E-4,4.9400893E-3,4.002753E-2,-2.6046906E-2,-9.23126E-3,-2.6826827E-2,-7.589215E-3,-3.0426254E-2,-4.1752312E-2,-4.0023085E-3,2.737589E-2,-2.0046556E-2,1.8667424E-2,-2.7064338E-2,-7.0172045E-3,-2.4614638E-2,-6.1304066E-3,1.348319E-2,3.230454E-2,-2.8482879E-2,9.695891E-3,4.230011E-3,-1.6914178E-2,-1.5409562E-3,-1.7803311E-2,1.3829881E-4,2.5142666E-2,-2.2387518E-2,-2.9775226E-3,5.677169E-3,-1.5512009E-2,2.9323244E-2,1.3189331E-2,1.7691178E-2,3.1736866E-2,6.1990885E-4,1.2889148E-2,2.6014931E-2,3.549971E-2,2.1154705E-2,-4.8695512E-2,1.9780947E-2,-8.04813E-3,-3.2506157E-2,-1.3385568E-2,-5.1377397E-3,2.0131892E-2,2.023104E-2,-2.893266E-2,6.933408E-3,-3.2595545E-3,-1.6494544E-2,7.241056E-3,2.5676556E-2,1.2468081E-2,2.446135E-3,1.2586643E-2],"categories":[],"categories_nodes":[],"categories_segments":[],"categories_sizes":[],"default_left":[0,0,0,0,0,0,0,0,0,0,0,0,0,0,0,0,0,0,0,0,0,0,0,0,0,0,0,0,0,0,0,0,0,0,0,0,0,0,0,0,0,0,0,0,0,0,0,0,0,0,0,0,0,0,0,0,0,0,0,0,0,0,0,0,0,0,0,0,0,0,0,0,0,0,0,0,0,0,0,0,0,0,0,0,0,0,0,0,0,0,0,0,0,0,0,0,0,0,0,0,0,0,0,0,0,0,0,0,0,0,0,0,0,0,0,0,0,0,0,0,0,0,0,0,0,0,0],"id":2,"left_children":[1,3,5,7,9,11,13,15,17,19,21,23,25,27,29,31,33,35,37,39,41,43,45,47,49,51,53,55,57,59,61,63,65,67,69,71,73,75,77,79,81,83,85,87,89,91,93,95,97,99,101,103,105,107,109,111,113,115,117,119,121,123,125,-1,-1,-1,-1,-1,-1,-1,-1,-1,-1,-1,-1,-1,-1,-1,-1,-1,-1,-1,-1,-1,-1,-1,-1,-1,-1,-1,-1,-1,-1,-1,-1,-1,-1,-1,-1,-1,-1,-1,-1,-1,-1,-1,-1,-1,-1,-1,-1,-1,-1,-1,-1,-1,-1,-1,-1,-1,-1,-1,-1,-1,-1,-1,-1],"loss_changes":[4.3101304E3,6.764363E2,6.951207E2,1.4721997E2,2.043447E2,3.842351E2,2.381348E2,9.080151E1,1.1342969E2,1.10099304E2,1.2555684E2,1.0194545E2,1.8107031E2,6.256201E1,2.0153221E2,5.7845215E1,2.921549E1,5.1109962E1,4.961621E1,4.5243217E1,5.8461487E1,4.0088326E1,3.9555973E1,5.829696E1,8.070727E1,1.18470795E2,7.154175E1,3.7886856E1,3.2503223E1,4.1390877E1,8.320361E1,4.8754517E1,4.7321136E1,1.6320103E1,2.0566547E1,9.737928E0,3.3974533E1,3.324156E1,2.1592407E1,5.204885E1,1.9086052E1,4.6807312E1,4.06529E1,2.1443985E1,5.2347576E1,2.3689692E1,2.486287E1,2.791386E1,3.462751E1,4.0360607E1,2.9647842E1,3.3874542E1,3.5976795E1,4.083435E1,2.8755005E1,1.9277857E1,4.6608505E1,1.9590685E1,2.2106693E1,2.7089457E1,4.510138E1,4.7452576E1,3.771053E1,0E0,0E0,0E0,0E0,0E0,0E0,0E0,0E0,0E0,0E0,0E0,0E0,0E0,0E0,0E0,0E0,0E0,0E0,0E0,0E0,0E0,0E0,0E0,0E0,0E0,0E0,0E0,0E0,0E0,0E0,0E0,0E0,0E0,0E0,0E0,0E0,0E0,0E0,0E0,0E0,0E0,0E0,0E0,0E0,0E0,0E0,0E0,0E0,0E0,0E0,0E0,0E0,0E0,0E0,0E0,0E0,0E0,0E0,0E0,0E0,0E0,0E0,0E0,0E0],"parents":[2147483647,0,0,1,1,2,2,3,3,4,4,5,5,6,6,7,7,8,8,9,9,10,10,11,11,12,12,13,13,14,14,15,15,16,16,17,17,18,18,19,19,20,20,21,21,22,22,23,23,24,24,25,25,26,26,27,27,28,28,29,29,30,30,31,31,32,32,33,33,34,34,35,35,36,36,37,37,38,38,39,39,40,40,41,41,42,42,43,43,44,44,45,45,46,46,47,47,48,48,49,49,50,50,51,51,52,52,53,53,54,54,55,55,56,56,57,57,58,58,59,59,60,60,61,61,62,62],"right_children":[2,4,6,8,10,12,14,16,18,20,22,24,26,28,30,32,34,36,38,40,42,44,46,48,50,52,54,56,58,60,62,64,66,68,70,72,74,76,78,80,82,84,86,88,90,92,94,96,98,100,102,104,106,108,110,112,114,116,118,120,122,124,126,-1,-1,-1,-1,-1,-1,-1,-1,-1,-1,-1,-1,-1,-1,-1,-1,-1,-1,-1,-1,-1,-1,-1,-1,-1,-1,-1,-1,-1,-1,-1,-1,-1,-1,-1,-1,-1,-1,-1,-1,-1,-1,-1,-1,-1,-1,-1,-1,-1,-1,-1,-1,-1,-1,-1,-1,-1,-1,-1,-1,-1,-1,-1,-1],"split_conditions":[1.198E1,9.43E0,1E0,3.0887E2,4.8345E2,8E3,7.7E3,1E0,5E0,4E0,1E0,1.3687E2,1.504E1,2.981E1,1.504E1,2.85E1,1.3408E4,3.83E4,9.041E3,1E0,6E0,1.2849E4,2E0,4E0,1.504E1,5E0,4.036E3,4.4E4,7.02E1,3.2E1,2E0,3.4E4,2.3614E4,1E0,1E0,1.4E2,1.9075E4,7.5163E2,2.9933E4,1E0,2.9E1,1E0,2.98E1,1E0,5E0,4.55E1,7.1E4,2.037E1,2.084E1,2.4204E4,2E0,6.5049E2,5.3412E2,1.95E4,7.77554E5,1.619E3,1.5246E2,6.997E3,7.75E1,1.1123E4,3.075E4,9E3,7.2758E2,-2.5814898E-2,-4.8092585E-2,-2.4180453E-2,-4.9858436E-2,-9.742678E-3,2.1878362E-2,-4.070059E-2,-1.9131474E-4,4.9400893E-3,4.002753E-2,-2.6046906E-2,-9.23126E-3,-2.6826827E-2,-7.589215E-3,-3.0426254E-2,-4.1752312E-2,-4.0023085E-3,2.737589E-2,-2.0046556E-2,1.8667424E-2,-2.7064338E-2,-7.0172045E-3,-2.4614638E-2,-6.1304066E-3,1.348319E-2,3.230454E-2,-2.8482879E-2,9.695891E-3,4.230011E-3,-1.6914178E-2,-1.5409562E-3,-1.7803311E-2,1.3829881E-4,2.5142666E-2,-2.2387518E-2,-2.9775226E-3,5.677169E-3,-1.5512009E-2,2.9323244E-2,1.3189331E-2,1.7691178E-2,3.1736866E-2,6.1990885E-4,1.2889148E-2,2.6014931E-2,3.549971E-2,2.1154705E-2,-4.8695512E-2,1.9780947E-2,-8.04813E-3,-3.2506157E-2,-1.3385568E-2,-5.1377397E-3,2.0131892E-2,2.023104E-2,-2.893266E-2,6.933408E-3,-3.2595545E-3,-1.6494544E-2,7.241056E-3,2.5676556E-2,1.2468081E-2,2.446135E-3,1.2586643E-2],"split_indices":[72,72,116,1,1,0,0,134,54,54,44,1,72,3,72,73,35,67,35,116,51,11,20,54,72,54,28,2,73,12,44,2,35,117,120,45,0,1,36,134,56,134,37,120,51,64,2,3,3,24,54,1,1,0,67,35,1,11,37,35,0,69,1,0,0,0,0,0,0,0,0,0,0,0,0,0,0,0,0,0,0,0,0,0,0,0,0,0,0,0,0,0,0,0,0,0,0,0,0,0,0,0,0,0,0,0,0,0,0,0,0,0,0,0,0,0,0,0,0,0,0,0,0,0,0,0,0],"split_type":[0,0,0,0,0,0,0,0,0,0,0,0,0,0,0,0,0,0,0,0,0,0,0,0,0,0,0,0,0,0,0,0,0,0,0,0,0,0,0,0,0,0,0,0,0,0,0,0,0,0,0,0,0,0,0,0,0,0,0,0,0,0,0,0,0,0,0,0,0,0,0,0,0,0,0,0,0,0,0,0,0,0,0,0,0,0,0,0,0,0,0,0,0,0,0,0,0,0,0,0,0,0,0,0,0,0,0,0,0,0,0,0,0,0,0,0,0,0,0,0,0,0,0,0,0,0,0],"sum_hessian":[1.716377E4,6.03149E3,1.113228E4,2.814329E3,3.2171611E3,6.3069146E3,4.8253657E3,1.2493878E3,1.5649414E3,2.0443687E3,1.1727924E3,1.5485791E3,4.7583354E3,8.098857E2,4.01548E3,1.1294939E3,1.19893814E2,5.059895E2,1.0589519E3,5.7503644E2,1.4693323E3,4.344922E2,7.3830023E2,5.289777E2,1.0196014E3,1.5347991E3,3.2235364E3,6.459744E2,1.6391127E2,1.4718352E3,2.5436448E3,7.8325757E2,3.462364E2,6.615573E1,5.3738087E1,8.263681E1,4.233527E2,4.1563458E2,6.433173E2,3.9395145E2,1.81085E2,9.9382135E2,4.7551083E2,2.6774573E2,1.6674646E2,2.928659E2,4.454343E2,2.0545895E2,3.235188E2,3.544014E2,6.6519995E2,6.844394E2,8.503597E2,1.6953055E3,1.5282308E3,1.5767023E2,4.8830417E2,1.21183105E2,4.2728157E1,1.0689833E3,4.0285202E2,1.1079133E3,1.4357313E3,1.02427124E2,6.8083044E2,2.627107E2,8.3525696E1,4.689594E1,1.925979E1,3.8627865E1,1.5110223E1,7.599286E1,6.6439533E0,1.9708023E2,2.2627245E2,3.095083E2,1.0612628E2,3.7779514E2,2.6552222E2,3.4166962E2,5.2281807E1,1.6997023E2,1.11147785E1,8.7800275E2,1.1581861E2,1.5266684E2,3.22844E2,1.9454483E2,7.32009E1,4.056409E1,1.2618237E2,2.3647531E2,5.639061E1,1.0855286E2,3.3688144E2,1.5436966E2,5.1089283E1,1.7701479E2,1.4650401E2,2.3890845E2,1.15492935E2,1.2204963E2,5.431503E2,4.573065E2,2.271329E2,4.8635135E2,3.6400833E2,1.025009E3,6.702965E2,1.5239823E3,4.2485623E0,2.4944857E1,1.3272537E2,1.7323973E2,3.1506445E2,3.892968E1,8.2253426E1,9.630299E0,3.309786E1,3.2671167E2,7.4227155E2,3.137409E2,8.911111E1,3.4685645E2,7.6105695E2,9.552999E2,4.8043146E2],"tree_param":{"num_deleted":"0","num_feature":"135","num_nodes":"127","size_leaf_vector":"1"}},{"base_weights":[-1.6970561E-3,-6.698545E-1,3.6050993E-1,-1.0115417E0,-3.6759752E-1,5.7458985E-1,8.0818556E-2,-5.40549E-1,-1.1098225E0,3.1729363E-2,-5.22952E-1,-3.8952567E-2,6.650087E-1,-2.1783222E-1,2.559753E-1,-7.088964E-1,2.871264E-1,-1.2225623E0,-7.451698E-1,-1.8999173E-1,4.3890813E-1,-8.266017E-1,-3.6290845E-1,3.0789945E-1,-2.593545E-1,3.7237126E-1,8.019221E-1,-1.0085402E0,-1.6266984E-1,-4.6159247E-1,3.2082477E-1,-9.634879E-1,-4.26741E-1,-9.690524E-3,8.964348E-1,-1.365975E0,-1.0010456E0,-2.041082E-1,-9.065648E-1,-2.7240148E-1,6.5251076E-1,7.9651433E-1,1.6380636E-1,-9.1067547E-1,-6.748077E-2,-4.3177783E-2,-5.155789E-1,1.4970756E-1,7.5625354E-1,-4.898283E-1,-7.324206E-3,6.4550585E-1,1.4807793E-1,1.039379E0,7.260491E-1,-1.3102854E0,2.5184307E-1,-5.239732E-2,-4.265513E-1,-1.6081227E-1,-8.489056E-1,5.038961E-1,1.8105029E-1,-3.2406393E-2,1.1893197E-2,5.9425214E-4,-1.9519717E-2,-3.1781465E-2,8.286486E-3,3.5960678E-2,-3.7723961E-3,-4.2071097E-2,-2.2175629E-2,-2.4608098E-2,-4.087818E-2,3.216369E-2,-1.2124324E-2,-1.42923305E-2,-3.2886244E-2,-4.1930284E-3,-2.0008137E-2,3.934421E-2,5.612264E-3,3.7398256E-2,1.6414206E-2,8.892151E-3,-1.401592E-2,-3.257118E-2,-1.8466229E-2,8.490013E-3,-2.3171673E-2,-7.9379035E-3,7.0014973E-3,-8.430671E-3,-1.9556751E-2,6.4729373E-3,-3.7903685E-2,2.7647406E-2,-1.4709003E-2,-1.0726887E-2,-3.8776226E-2,-1.3300631E-2,7.435391E-3,1.486957E-2,2.9789202E-2,-6.1855675E-4,1.2674735E-2,4.3537255E-2,2.9198576E-2,1.459712E-2,2.3313515E-2,-4.822638E-2,-2.3593072E-2,2.5344947E-2,-1.8028073E-2,1.1466634E-2,-3.5865416E-3,-1.659351E-2,2.3967426E-3,-1.0845674E-3,-4.072714E-2,-2.845551E-2,1.5365008E-2,2.3860032E-2,1.1607816E-2,-2.1701981E-3,7.836045E-3],"categories":[],"categories_nodes":[],"categories_segments":[],"categories_sizes":[],"default_left":[0,0,0,0,0,0,0,0,0,0,0,0,0,0,0,0,0,0,0,0,0,0,0,0,0,0,0,0,0,0,0,0,0,0,0,0,0,0,0,0,0,0,0,0,0,0,0,0,0,0,0,0,0,0,0,0,0,0,0,0,0,0,0,0,0,0,0,0,0,0,0,0,0,0,0,0,0,0,0,0,0,0,0,0,0,0,0,0,0,0,0,0,0,0,0,0,0,0,0,0,0,0,0,0,0,0,0,0,0,0,0,0,0,0,0,0,0,0,0,0,0,0,0,0,0,0,0],"id":3,"left_children":[1,3,5,7,9,11,13,15,17,19,21,23,25,27,29,31,33,35,37,39,41,43,45,47,49,51,53,55,57,59,61,63,65,67,69,71,73,75,77,79,81,83,85,87,89,91,93,95,97,99,101,103,105,107,109,111,113,115,117,119,121,123,125,-1,-1,-1,-1,-1,-1,-1,-1,-1,-1,-1,-1,-1,-1,-1,-1,-1,-1,-1,-1,-1,-1,-1,-1,-1,-1,-1,-1,-1,-1,-1,-1,-1,-1,-1,-1,-1,-1,-1,-1,-1,-1,-1,-1,-1,-1,-1,-1,-1,-1,-1,-1,-1,-1,-1,-1,-1,-1,-1,-1,-1,-1,-1,-1],"loss_changes":[4.15024E3,6.222273E2,6.658104E2,1.3035645E2,1.9855734E2,3.494651E2,2.5232896E2,6.852995E1,9.527661E1,8.1091064E1,1.11670654E2,6.200176E1,2.1966113E2,7.762101E1,1.4162233E2,2.8881042E1,1.5126831E1,5.5358154E1,4.8288788E1,4.0561703E1,3.1020557E1,5.0642822E1,7.3714966E1,2.2240942E1,2.8797E1,1.0721811E2,6.661328E1,4.4487106E1,4.852171E1,2.9266628E1,7.127173E1,3.946634E1,2.044085E1,1.8007242E1,9.165426E0,3.7836792E1,4.4201965E1,3.4832977E1,3.6828125E1,2.7932053E1,1.6129124E1,1.4837074E1,1.5936104E1,3.8533325E1,2.0662415E1,3.0995993E1,3.4297638E1,2.3595621E1,1.8953949E1,2.6514965E1,2.7413052E1,4.021579E1,4.57658E1,1.8468872E1,4.1252075E1,1.4178848E1,1.2687187E1,3.5874847E1,3.380629E1,2.1611115E1,1.776995E1,4.035547E1,3.397298E1,0E0,0E0,0E0,0E0,0E0,0E0,0E0,0E0,0E0,0E0,0E0,0E0,0E0,0E0,0E0,0E0,0E0,0E0,0E0,0E0,0E0,0E0,0E0,0E0,0E0,0E0,0E0,0E0,0E0,0E0,0E0,0E0,0E0,0E0,0E0,0E0,0E0,0E0,0E0,0E0,0E0,0E0,0E0,0E0,0E0,0E0,0E0,0E0,0E0,0E0,0E0,0E0,0E0,0E0,0E0,0E0,0E0,0E0,0E0,0E0,0E0,0E0,0E0,0E0],"parents":[2147483647,0,0,1,1,2,2,3,3,4,4,5,5,6,6,7,7,8,8,9,9,10,10,11,11,12,12,13,13,14,14,15,15,16,16,17,17,18,18,19,19,20,20,21,21,22,22,23,23,24,24,25,25,26,26,27,27,28,28,29,29,30,30,31,31,32,32,33,33,34,34,35,35,36,36,37,37,38,38,39,39,40,40,41,41,42,42,43,43,44,44,45,45,46,46,47,47,48,48,49,49,50,50,51,51,52,52,53,53,54,54,55,55,56,56,57,57,58,58,59,59,60,60,61,61,62,62],"right_children":[2,4,6,8,10,12,14,16,18,20,22,24,26,28,30,32,34,36,38,40,42,44,46,48,50,52,54,56,58,60,62,64,66,68,70,72,74,76,78,80,82,84,86,88,90,92,94,96,98,100,102,104,106,108,110,112,114,116,118,120,122,124,126,-1,-1,-1,-1,-1,-1,-1,-1,-1,-1,-1,-1,-1,-1,-1,-1,-1,-1,-1,-1,-1,-1,-1,-1,-1,-1,-1,-1,-1,-1,-1,-1,-1,-1,-1,-1,-1,-1,-1,-1,-1,-1,-1,-1,-1,-1,-1,-1,-1,-1,-1,-1,-1,-1,-1,-1,-1,-1,-1,-1,-1,-1,-1,-1],"split_conditions":[1.198E1,9.43E0,1E0,3E0,4E0,1.7216E2,1.504E1,1E0,6.2066E2,4.8345E2,2.7934E2,4E0,1.504E1,1.5246E2,1.7727E2,3.0887E2,7.8E2,2.91E1,1.35E2,7E1,3.218E3,1E0,1E0,1.947E1,2.485E3,5E0,3E0,2.981E1,3E0,6.24E4,2E0,6.23E1,2.189E3,4E0,1E0,2.818E1,8.72E4,6.3195E4,1.28209E5,1E0,2.136E3,2E0,2.78E2,1.928E1,1.1E1,5.2235E2,4E0,5.6E1,4E0,1.7E1,1E0,6.5049E2,5.3412E2,1.6E1,3.0125E2,1.928E1,1E1,6.49E4,7.7063E2,8.64E1,1.7799E4,7.2E3,1.477E1,-3.2406393E-2,1.1893197E-2,5.9425214E-4,-1.9519717E-2,-3.1781465E-2,8.286486E-3,3.5960678E-2,-3.7723961E-3,-4.2071097E-2,-2.2175629E-2,-2.4608098E-2,-4.087818E-2,3.216369E-2,-1.2124324E-2,-1.42923305E-2,-3.2886244E-2,-4.1930284E-3,-2.0008137E-2,3.934421E-2,5.612264E-3,3.7398256E-2,1.6414206E-2,8.892151E-3,-1.401592E-2,-3.257118E-2,-1.8466229E-2,8.490013E-3,-2.3171673E-2,-7.9379035E-3,7.0014973E-3,-8.430671E-3,-1.9556751E-2,6.4729373E-3,-3.7903685E-2,2.7647406E-2,-1.4709003E-2,-1.0726887E-2,-3.8776226E-2,-1.3300631E-2,7.435391E-3,1.486957E-2,2.9789202E-2,-6.1855675E-4,1.2674735E-2,4.3537255E-2,2.9198576E-2,1.459712E-2,2.3313515E-2,-4.822638E-2,-2.3593072E-2,2.5344947E-2,-1.8028073E-2,1.1466634E-2,-3.5865416E-3,-1.659351E-2,2.3967426E-3,-1.0845674E-3,-4.072714E-2,-2.845551E-2,1.5365008E-2,2.3860032E-2,1.1607816E-2,-2.1701981E-3,7.836045E-3],"split_indices":[72,72,116,54,54,1,72,120,1,1,1,54,72,1,1,1,5,37,41,45,35,134,44,3,28,54,54,3,22,2,44,37,28,55,32,3,2,67,18,21,11,47,41,3,54,1,47,14,33,54,26,1,1,29,1,3,54,67,1,73,28,69,3,0,0,0,0,0,0,0,0,0,0,0,0,0,0,0,0,0,0,0,0,0,0,0,0,0,0,0,0,0,0,0,0,0,0,0,0,0,0,0,0,0,0,0,0,0,0,0,0,0,0,0,0,0,0,0,0,0,0,0,0,0,0,0,0],"split_type":[0,0,0,0,0,0,0,0,0,0,0,0,0,0,0,0,0,0,0,0,0,0,0,0,0,0,0,0,0,0,0,0,0,0,0,0,0,0,0,0,0,0,0,0,0,0,0,0,0,0,0,0,0,0,0,0,0,0,0,0,0,0,0,0,0,0,0,0,0,0,0,0,0,0,0,0,0,0,0,0,0,0,0,0,0,0,0,0,0,0,0,0,0,0,0,0,0,0,0,0,0,0,0,0,0,0,0,0,0,0,0,0,0,0,0,0,0,0,0,0,0,0,0,0,0,0,0],"sum_hessian":[1.7146955E4,6.02742E3,1.1119535E4,2.8280723E3,3.199348E3,6.297942E3,4.821593E3,4.893679E2,2.3387043E3,8.962925E2,2.3030554E3,8.089994E2,5.4889424E3,1.782352E3,3.0392407E3,4.0677435E2,8.259353E1,1.7846049E3,5.5409937E2,5.806464E2,3.1564606E2,7.9346136E2,1.5095939E3,3.1417593E2,4.9482346E2,1.7507094E3,3.7382332E3,1.15106804E2,1.6672452E3,2.5139586E2,2.787845E3,2.1256248E2,1.9421188E2,5.620034E1,2.6393188E1,1.0801415E3,7.044634E2,1.2782901E2,4.262704E2,5.2952716E2,5.111926E1,1.3641898E2,1.792271E2,7.141667E2,7.929467E1,4.8828473E2,1.0213092E3,2.3322243E2,8.09535E1,2.5797232E2,2.368511E2,7.8855896E2,9.6215045E2,9.0213965E2,2.8360935E3,9.284049E1,2.226631E1,1.1767118E3,4.9053342E2,1.4230199E2,1.0909387E2,1.2058557E3,1.5819891E3,1.9378691E2,1.8775562E1,6.709385E1,1.27118034E2,1.1445041E1,4.47553E1,1.994889E1,6.4442973E0,9.851357E2,9.500581E1,4.9203372E2,2.1242967E2,1.7006668E1,1.1082234E2,1.4120224E2,2.8506815E2,4.0156824E2,1.2795895E2,1.9938564E1,3.1180695E1,4.47818E1,9.163718E1,1.479427E2,3.1284395E1,4.2512137E2,2.8904532E2,5.3441372E1,2.5853294E1,2.705422E2,2.1774252E2,3.9856284E2,6.2274634E2,2.232491E2,9.973333E0,7.1023026E1,9.930476E0,2.2482515E2,3.314719E1,8.712695E1,1.4972415E2,5.6854895E2,2.2000996E2,6.014176E2,3.6073285E2,9.137274E1,8.107669E2,6.103631E2,2.2257305E3,5.5586395E1,3.72541E1,1.3076275E1,9.190035E0,1.5876434E2,1.01794745E3,3.8724066E2,1.0329278E2,1.3008118E2,1.22208185E1,1.0094368E2,8.15019E0,3.2059073E2,8.85265E2,3.9351617E2,1.188473E3],"tree_param":{"num_deleted":"0","num_feature":"135","num_nodes":"127","size_leaf_vector":"1"}},{"base_weights":[2.9025858E-3,-6.3440365E-1,3.5070622E-1,-9.799765E-1,-3.3635834E-1,5.613652E-1,7.4495114E-2,-1.2008581E0,-7.9854625E-1,-5.174721E-1,-2.4478836E-2,1.3746907E-1,6.990977E-1,-1.1580435E-1,3.2513106E-1,-1.2883579E0,-3.8849217E-1,-5.030366E-1,-1.0024875E0,-1.3868378E-1,-6.587606E-1,3.7111235E-1,-2.6018557E-1,4.3083572E-1,-4.5128886E-2,4.6347085E-1,8.498567E-1,-2.9233843E-1,1.3334808E-1,9.018711E-2,4.974097E-1,-8.286719E-2,-1.3197262E0,3.233292E-2,-8.838266E-1,3.620738E-1,-5.834907E-1,-6.0846746E-1,-1.117827E0,-2.4202427E-1,7.4364626E-1,-7.905195E-1,-4.0614548E-1,6.0449046E-1,1.2277256E-2,3.0924875E-2,-4.5274556E-1,8.79393E-2,6.3034225E-1,-4.822198E-1,1.4369269E-1,7.4012226E-1,2.392257E-1,1.0332152E0,7.3880655E-1,-8.649088E-1,-2.1587852E-1,-1.988406E-1,2.5811523E-1,6.577967E-1,-1.2144938E-2,7.261529E-1,3.2838035E-1,-3.7587043E-2,9.32707E-3,-4.2825576E-2,-3.0376323E-2,-1.0821211E-2,1.9644089E-2,-3.9098963E-2,5.3304336E-3,4.2110674E-2,-3.4892473E-3,5.9608947E-3,-2.091115E-2,-3.594844E-2,-1.1356432E-2,-3.5606854E-2,-1.5251662E-2,-1.2790987E-2,3.9004104E-3,2.8266078E-2,-7.557801E-3,-2.6196107E-2,-5.602089E-3,-1.9774579E-2,-6.01465E-3,3.17202E-2,1.2277822E-2,-2.5803171E-2,9.017161E-3,4.905119E-3,-1.5576276E-2,-5.7342625E-3,-2.0368114E-2,5.9799072E-3,-2.3196202E-2,1.2199678E-2,2.8058654E-2,-1.6162494E-2,2.9007655E-2,-5.2739475E-3,1.2568212E-2,1.5996456E-2,2.950324E-2,2.6270526E-3,1.550012E-2,3.420217E-2,2.5871295E-2,1.8430317E-2,2.5717216E-2,-3.0766044E-2,1.9275172E-3,-1.072703E-2,8.877285E-4,-1.0272754E-2,1.8535662E-2,1.2679849E-2,2.2995777E-3,2.2173384E-2,-1.05873635E-2,2.2468788E-3,-1.3311089E-2,3.2939557E-2,1.6578803E-2,3.9351936E-3,1.5095082E-2],"categories":[],"categories_nodes":[],"categories_segments":[],"categories_sizes":[],"default_left":[0,0,0,0,0,0,0,0,0,0,0,0,0,0,0,0,0,0,0,0,0,0,0,0,0,0,0,0,0,0,0,0,0,0,0,0,0,0,0,0,0,0,0,0,0,0,0,0,0,0,0,0,0,0,0,0,0,0,0,0,0,0,0,0,0,0,0,0,0,0,0,0,0,0,0,0,0,0,0,0,0,0,0,0,0,0,0,0,0,0,0,0,0,0,0,0,0,0,0,0,0,0,0,0,0,0,0,0,0,0,0,0,0,0,0,0,0,0,0,0,0,0,0,0,0,0,0],"id":4,"left_children":[1,3,5,7,9,11,13,15,17,19,21,23,25,27,29,31,33,35,37,39,41,43,45,47,49,51,53,55,57,59,61,63,65,67,69,71,73,75,77,79,81,83,85,87,89,91,93,95,97,99,101,103,105,107,109,111,113,115,117,119,121,123,125,-1,-1,-1,-1,-1,-1,-1,-1,-1,-1,-1,-1,-1,-1,-1,-1,-1,-1,-1,-1,-1,-1,-1,-1,-1,-1,-1,-1,-1,-1,-1,-1,-1,-1,-1,-1,-1,-1,-1,-1,-1,-1,-1,-1,-1,-1,-1,-1,-1,-1,-1,-1,-1,-1,-1,-1,-1,-1,-1,-1,-1,-1,-1,-1],"loss_changes":[3.8009092E3,6.23228E2,6.4544836E2,1.1137134E2,1.836868E2,3.6733997E2,2.2902982E2,8.9211426E1,9.242291E1,1.10013916E2,1.1159788E2,8.276219E1,1.6833228E2,1.2010472E2,8.383411E1,4.2959106E1,2.5908243E1,4.41736E1,4.073517E1,5.1257393E1,4.9543823E1,3.7416965E1,4.2051613E1,4.0489273E1,7.8718704E1,1.14931335E2,5.8190918E1,6.977309E1,4.6998833E1,5.1002434E1,4.598044E1,1.4609125E1,4.0627075E1,1.742353E1,2.6962528E1,2.7936733E1,5.6697617E1,2.79618E1,3.653003E1,3.5951836E1,1.2825264E1,5.6828857E1,2.7364655E1,2.355217E1,4.6251423E1,2.2687641E1,2.7519646E1,2.2080515E1,2.5621582E1,2.7932884E1,6.059098E1,4.2111115E1,4.3998287E1,2.0373047E1,2.6818909E1,3.0971924E1,5.1139168E1,3.836792E1,2.53927E1,1.2940849E1,2.8850933E1,3.1900116E1,2.450772E1,0E0,0E0,0E0,0E0,0E0,0E0,0E0,0E0,0E0,0E0,0E0,0E0,0E0,0E0,0E0,0E0,0E0,0E0,0E0,0E0,0E0,0E0,0E0,0E0,0E0,0E0,0E0,0E0,0E0,0E0,0E0,0E0,0E0,0E0,0E0,0E0,0E0,0E0,0E0,0E0,0E0,0E0,0E0,0E0,0E0,0E0,0E0,0E0,0E0,0E0,0E0,0E0,0E0,0E0,0E0,0E0,0E0,0E0,0E0,0E0,0E0,0E0,0E0,0E0],"parents":[2147483647,0,0,1,1,2,2,3,3,4,4,5,5,6,6,7,7,8,8,9,9,10,10,11,11,12,12,13,13,14,14,15,15,16,16,17,17,18,18,19,19,20,20,21,21,22,22,23,23,24,24,25,25,26,26,27,27,28,28,29,29,30,30,31,31,32,32,33,33,34,34,35,35,36,36,37,37,38,38,39,39,40,40,41,41,42,42,43,43,44,44,45,45,46,46,47,47,48,48,49,49,50,50,51,51,52,52,53,53,54,54,55,55,56,56,57,57,58,58,59,59,60,60,61,61,62,62],"right_children":[2,4,6,8,10,12,14,16,18,20,22,24,26,28,30,32,34,36,38,40,42,44,46,48,50,52,54,56,58,60,62,64,66,68,70,72,74,76,78,80,82,84,86,88,90,92,94,96,98,100,102,104,106,108,110,112,114,116,118,120,122,124,126,-1,-1,-1,-1,-1,-1,-1,-1,-1,-1,-1,-1,-1,-1,-1,-1,-1,-1,-1,-1,-1,-1,-1,-1,-1,-1,-1,-1,-1,-1,-1,-1,-1,-1,-1,-1,-1,-1,-1,-1,-1,-1,-1,-1,-1,-1,-1,-1,-1,-1,-1,-1,-1,-1,-1,-1,-1,-1,-1,-1,-1,-1,-1,-1],"split_conditions":[1.198E1,9.43E0,1E0,3.0887E2,4.8345E2,8E3,1.9075E4,1E0,6E0,4.6032E4,1E0,4E0,1.601E1,1.747E1,1.601E1,2.1E4,1.3408E4,1E0,1.32E2,1E0,6E0,1.2849E4,2E0,1.504E1,1.2986E2,5E0,6.917E3,1.6212E2,7.7E3,1.56E4,2E0,6E0,2.85E1,2.7E1,1E0,1.5E1,3.6984E4,6.72E0,4.21E1,6.08E3,2.27E1,1E0,2.7065E2,2E0,5E0,4.55E1,5E0,6.35E4,1.686E1,3.79E2,1.969E1,1.95E4,6.0982E2,9E0,2.039E1,3.055E1,2.239E1,3.524E1,1.2E1,5.7E1,2.1E1,7.307E3,3E0,-3.7587043E-2,9.32707E-3,-4.2825576E-2,-3.0376323E-2,-1.0821211E-2,1.9644089E-2,-3.9098963E-2,5.3304336E-3,4.2110674E-2,-3.4892473E-3,5.9608947E-3,-2.091115E-2,-3.594844E-2,-1.1356432E-2,-3.5606854E-2,-1.5251662E-2,-1.2790987E-2,3.9004104E-3,2.8266078E-2,-7.557801E-3,-2.6196107E-2,-5.602089E-3,-1.9774579E-2,-6.01465E-3,3.17202E-2,1.2277822E-2,-2.5803171E-2,9.017161E-3,4.905119E-3,-1.5576276E-2,-5.7342625E-3,-2.0368114E-2,5.9799072E-3,-2.3196202E-2,1.2199678E-2,2.8058654E-2,-1.6162494E-2,2.9007655E-2,-5.2739475E-3,1.2568212E-2,1.5996456E-2,2.950324E-2,2.6270526E-3,1.550012E-2,3.420217E-2,2.5871295E-2,1.8430317E-2,2.5717216E-2,-3.0766044E-2,1.9275172E-3,-1.072703E-2,8.877285E-4,-1.0272754E-2,1.8535662E-2,1.2679849E-2,2.2995777E-3,2.2173384E-2,-1.05873635E-2,2.2468788E-3,-1.3311089E-2,3.2939557E-2,1.6578803E-2,3.9351936E-3,1.5095082E-2],"split_indices":[72,72,116,1,1,0,0,134,54,67,44,54,72,72,72,2,35,47,41,134,51,11,20,72,1,54,11,1,0,30,44,43,73,45,120,29,67,72,64,11,64,134,1,47,51,64,47,2,3,41,3,0,1,56,72,3,3,3,56,14,42,11,33,0,0,0,0,0,0,0,0,0,0,0,0,0,0,0,0,0,0,0,0,0,0,0,0,0,0,0,0,0,0,0,0,0,0,0,0,0,0,0,0,0,0,0,0,0,0,0,0,0,0,0,0,0,0,0,0,0,0,0,0,0,0,0,0],"split_type":[0,0,0,0,0,0,0,0,0,0,0,0,0,0,0,0,0,0,0,0,0,0,0,0,0,0,0,0,0,0,0,0,0,0,0,0,0,0,0,0,0,0,0,0,0,0,0,0,0,0,0,0,0,0,0,0,0,0,0,0,0,0,0,0,0,0,0,0,0,0,0,0,0,0,0,0,0,0,0,0,0,0,0,0,0,0,0,0,0,0,0,0,0,0,0,0,0,0,0,0,0,0,0,0,0,0,0,0,0,0,0,0,0,0,0,0,0,0,0,0,0,0,0,0,0,0,0],"sum_hessian":[1.714567E4,6.0531724E3,1.1092498E4,2.8020305E3,3.251142E3,6.2924097E3,4.8000884E3,1.2610955E3,1.540935E3,2.0563342E3,1.1948077E3,1.543626E3,4.7487837E3,2.7287659E3,2.0713225E3,1.1379421E3,1.2315337E2,6.3062714E2,9.103079E2,5.5917957E2,1.4971547E3,4.4588907E2,7.489187E2,5.916715E2,9.519544E2,1.8544578E3,2.894326E3,1.5970332E3,1.1317328E3,8.769333E2,1.1943892E3,2.8952044E1,1.10899E3,6.7089966E1,5.6063408E1,5.3359596E1,5.772675E2,2.0755125E2,7.0275665E2,5.0120322E2,5.797636E1,9.825482E2,5.1460645E2,2.6975925E2,1.7612982E2,2.984954E2,4.504233E2,2.1815845E2,3.7351306E2,2.8671124E2,6.6524316E2,8.291877E2,1.02527E3,1.0885997E3,1.8057263E3,1.8692593E2,1.4101072E3,3.0884604E2,8.228868E2,1.3312042E2,7.4381287E2,5.061428E2,6.8824634E2,6.7161756E0,2.2235867E1,7.634382E2,3.4555188E2,4.1415077E1,2.567489E1,3.9492264E1,1.6571142E1,1.5983918E1,3.737568E1,7.892804E1,4.9833948E2,5.4630463E1,1.5292079E2,6.1237555E2,9.038109E1,3.3165466E2,1.6954854E2,4.781093E1,1.0165432E1,8.4623157E2,1.3631668E2,2.2266635E2,2.919401E2,7.601364E1,1.937456E2,4.328441E1,1.3284541E2,2.4088503E2,5.7610363E1,2.1622012E2,2.3420317E2,1.9354431E2,2.4614132E1,2.2374074E2,1.4977232E2,2.7512137E2,1.1589876E1,3.1054285E2,3.5470035E2,4.7102844E2,3.5815924E2,6.726396E2,3.526305E2,6.033016E2,4.8529816E2,9.6875586E2,8.369704E2,1.569714E2,2.9954536E1,8.8154706E2,5.285601E2,2.621645E2,4.668155E1,4.2132346E2,4.0156332E2,1.2220271E2,1.0917703E1,6.199308E2,1.2388205E2,1.4887338E2,3.572694E2,3.336497E2,3.5459665E2],"tree_param":{"num_deleted":"0","num_feature":"135","num_nodes":"127","size_leaf_vector":"1"}},{"base_weights":[-1.5672457E-3,2.7952385E-1,-2.3460622E-1,-1.4154102E-1,5.211641E-1,-5.2480537E-1,-3.929402E-3,-4.378622E-1,1.445979E-1,8.5032994E-1,3.9389977E-1,-8.032054E-1,-2.1660708E-1,2.1554793E-1,-2.8111142E-1,-5.3484553E-1,5.736624E-1,3.6882532E-3,4.901107E-1,6.3001794E-1,1.0290241E0,2.695388E-1,7.530755E-1,-6.040562E-1,-1.2375675E0,3.2158807E-2,-5.022616E-1,3.966496E-1,4.4579554E-2,-3.6710685E-1,4.691102E-1,-9.6472144E-2,-7.263021E-1,3.2940218E-1,1.1284157E0,3.0535784E-1,-2.8053236E-1,2.757555E-1,8.502865E-1,4.7706908E-1,9.3715966E-1,1.0747718E0,5.352985E-1,1.1496271E-1,6.562866E-1,8.7109834E-1,4.8338777E-1,-8.5086304E-1,-4.2893896E-1,-1.360942E0,-4.254226E-1,1.3127136E-1,-3.4700748E-1,-6.8861324E-1,-1.3140163E-1,5.779371E-1,2.4095199E-1,-1.0180974E-1,2.864478E-1,-5.199348E-1,1.0680258E-1,5.768276E-1,-2.1758966E-1,6.8502305E-3,-1.0053742E-2,-1.6061231E-2,-3.4268938E-2,1.3114611E-2,-3.5847403E-2,4.1463673E-2,1.0039691E-2,2.467553E-2,5.5719404E-3,-3.5635724E-3,-2.3347447E-2,1.248089E-2,-9.07817E-3,1.4890403E-3,2.941831E-2,2.0352352E-2,6.2461053E-3,3.187493E-2,1.1703271E-2,3.5829667E-2,2.8074453E-2,-8.756499E-3,2.4188602E-2,1.8250758E-2,-5.877927E-4,2.0048304E-2,-3.253605E-2,2.6275283E-2,-2.087841E-2,6.7057703E-3,2.0834427E-2,-1.888716E-2,-3.1563785E-2,-7.4620587E-3,-2.4141017E-2,-2.6135432E-2,-4.3386433E-2,5.5441E-3,-2.6578747E-2,6.6923057E-3,-6.9772666E-3,-4.972113E-3,-2.5250606E-2,-2.175187E-2,1.894856E-2,-9.52363E-3,9.082959E-3,1.2497807E-2,2.410394E-2,5.3292797E-3,2.2440163E-2,-1.844331E-2,-4.946349E-4,1.305892E-2,1.3999472E-3,-2.1635923E-3,-1.9006021E-2,1.8737616E-2,-2.7890669E-3,2.090153E-2,-8.78375E-3,-2.6876919E-2,4.951123E-3],"categories":[],"categories_nodes":[],"categories_segments":[],"categories_sizes":[],"default_left":[0,0,0,0,0,0,0,0,0,0,0,0,0,0,0,0,0,0,0,0,0,0,0,0,0,0,0,0,0,0,0,0,0,0,0,0,0,0,0,0,0,0,0,0,0,0,0,0,0,0,0,0,0,0,0,0,0,0,0,0,0,0,0,0,0,0,0,0,0,0,0,0,0,0,0,0,0,0,0,0,0,0,0,0,0,0,0,0,0,0,0,0,0,0,0,0,0,0,0,0,0,0,0,0,0,0,0,0,0,0,0,0,0,0,0,0,0,0,0,0,0,0,0,0,0,0,0],"id":5,"left_children":[1,3,5,7,9,11,13,15,17,19,21,23,25,27,29,31,33,35,37,39,41,43,45,47,49,51,53,55,57,59,61,63,65,67,69,71,73,75,77,79,81,83,85,87,89,91,93,95,97,99,101,103,105,107,109,111,113,115,117,119,121,123,125,-1,-1,-1,-1,-1,-1,-1,-1,-1,-1,-1,-1,-1,-1,-1,-1,-1,-1,-1,-1,-1,-1,-1,-1,-1,-1,-1,-1,-1,-1,-1,-1,-1,-1,-1,-1,-1,-1,-1,-1,-1,-1,-1,-1,-1,-1,-1,-1,-1,-1,-1,-1,-1,-1,-1,-1,-1,-1,-1,-1,-1,-1,-1,-1],"loss_changes":[1.121887E3,7.899287E2,6.268246E2,2.4013358E2,2.0629736E2,3.5563416E2,3.1749045E2,1.3678412E2,7.0164185E1,5.3462585E1,1.5877448E2,1.8768774E2,1.3996799E2,9.0164795E1,1.4896121E2,1.0651984E2,1.6186607E1,8.7944756E1,3.1997719E1,2.8591003E1,1.6530518E1,1.5806677E2,2.869696E1,6.427234E1,6.793982E1,3.9641495E1,6.3271103E1,3.9779922E1,5.311661E1,1.4995227E2,1.7701431E1,3.1098738E1,6.9365204E1,1.579824E1,7.547825E0,3.0624733E1,4.296505E1,2.2666021E1,1.8056671E1,2.3206573E1,1.52854E1,1.0742432E1,1.5867949E1,1.2829877E2,3.0649872E1,1.922049E1,1.5818108E1,2.7851105E1,5.9836334E1,2.9216919E1,2.682955E1,2.934116E1,1.9695356E1,3.9319916E1,2.5916466E1,2.3718307E1,2.380291E1,4.154797E1,2.1031319E1,8.635321E1,5.373372E1,2.37415E1,8.940278E0,0E0,0E0,0E0,0E0,0E0,0E0,0E0,0E0,0E0,0E0,0E0,0E0,0E0,0E0,0E0,0E0,0E0,0E0,0E0,0E0,0E0,0E0,0E0,0E0,0E0,0E0,0E0,0E0,0E0,0E0,0E0,0E0,0E0,0E0,0E0,0E0,0E0,0E0,0E0,0E0,0E0,0E0,0E0,0E0,0E0,0E0,0E0,0E0,0E0,0E0,0E0,0E0,0E0,0E0,0E0,0E0,0E0,0E0,0E0,0E0,0E0,0E0,0E0,0E0],"parents":[2147483647,0,0,1,1,2,2,3,3,4,4,5,5,6,6,7,7,8,8,9,9,10,10,11,11,12,12,13,13,14,14,15,15,16,16,17,17,18,18,19,19,20,20,21,21,22,22,23,23,24,24,25,25,26,26,27,27,28,28,29,29,30,30,31,31,32,32,33,33,34,34,35,35,36,36,37,37,38,38,39,39,40,40,41,41,42,42,43,43,44,44,45,45,46,46,47,47,48,48,49,49,50,50,51,51,52,52,53,53,54,54,55,55,56,56,57,57,58,58,59,59,60,60,61,61,62,62],"right_children":[2,4,6,8,10,12,14,16,18,20,22,24,26,28,30,32,34,36,38,40,42,44,46,48,50,52,54,56,58,60,62,64,66,68,70,72,74,76,78,80,82,84,86,88,90,92,94,96,98,100,102,104,106,108,110,112,114,116,118,120,122,124,126,-1,-1,-1,-1,-1,-1,-1,-1,-1,-1,-1,-1,-1,-1,-1,-1,-1,-1,-1,-1,-1,-1,-1,-1,-1,-1,-1,-1,-1,-1,-1,-1,-1,-1,-1,-1,-1,-1,-1,-1,-1,-1,-1,-1,-1,-1,-1,-1,-1,-1,-1,-1,-1,-1,-1,-1,-1,-1,-1,-1,-1,-1,-1,-1],"split_conditions":[9.2746E4,9.6E3,1.4575E4,4.12E1,1.39E4,1.947E1,7.1E2,1E0,2.28E1,1.44E4,2.5E4,7.25E2,7.05E2,2.5481E5,1E0,3.283E4,2.9E1,4E0,1.167E4,1E0,5.7E1,2.307E1,1.6012E4,7.7E3,1E0,1E0,3.055E1,5E0,4E0,1E0,1E0,7.05E2,7.3E2,4.56E1,5.5687E4,7E3,3.1198E4,7.05E2,1E0,9.4E3,1.8E1,4E0,1.665E4,2E0,1E0,1.8E1,1E1,1.88371E5,1.0394E4,1.6E1,1.49103E5,3.8E1,8.3E1,1E0,1.57E2,2.362E1,1E0,1E0,1E0,1.32E2,2.514E3,3.5E1,5.5E1,6.8502305E-3,-1.0053742E-2,-1.6061231E-2,-3.4268938E-2,1.3114611E-2,-3.5847403E-2,4.1463673E-2,1.0039691E-2,2.467553E-2,5.5719404E-3,-3.5635724E-3,-2.3347447E-2,1.248089E-2,-9.07817E-3,1.4890403E-3,2.941831E-2,2.0352352E-2,6.2461053E-3,3.187493E-2,1.1703271E-2,3.5829667E-2,2.8074453E-2,-8.756499E-3,2.4188602E-2,1.8250758E-2,-5.877927E-4,2.0048304E-2,-3.253605E-2,2.6275283E-2,-2.087841E-2,6.7057703E-3,2.0834427E-2,-1.888716E-2,-3.1563785E-2,-7.4620587E-3,-2.4141017E-2,-2.6135432E-2,-4.3386433E-2,5.5441E-3,-2.6578747E-2,6.6923057E-3,-6.9772666E-3,-4.972113E-3,-2.5250606E-2,-2.175187E-2,1.894856E-2,-9.52363E-3,9.082959E-3,1.2497807E-2,2.410394E-2,5.3292797E-3,2.2440163E-2,-1.844331E-2,-4.946349E-4,1.305892E-2,1.3999472E-3,-2.1635923E-3,-1.9006021E-2,1.8737616E-2,-2.7890669E-3,2.090153E-2,-8.78375E-3,-2.6876919E-2,4.951123E-3],"split_indices":[67,0,0,37,30,3,5,134,3,0,0,5,5,67,78,2,45,54,11,78,8,3,11,0,134,76,3,47,33,77,121,5,5,3,67,67,24,5,27,30,12,54,0,54,84,53,9,18,36,12,18,12,25,79,40,3,79,62,119,41,28,8,29,0,0,0,0,0,0,0,0,0,0,0,0,0,0,0,0,0,0,0,0,0,0,0,0,0,0,0,0,0,0,0,0,0,0,0,0,0,0,0,0,0,0,0,0,0,0,0,0,0,0,0,0,0,0,0,0,0,0,0,0,0,0,0,0],"split_type":[0,0,0,0,0,0,0,0,0,0,0,0,0,0,0,0,0,0,0,0,0,0,0,0,0,0,0,0,0,0,0,0,0,0,0,0,0,0,0,0,0,0,0,0,0,0,0,0,0,0,0,0,0,0,0,0,0,0,0,0,0,0,0,0,0,0,0,0,0,0,0,0,0,0,0,0,0,0,0,0,0,0,0,0,0,0,0,0,0,0,0,0,0,0,0,0,0,0,0,0,0,0,0,0,0,0,0,0,0,0,0,0,0,0,0,0,0,0,0,0,0,0,0,0,0,0,0],"sum_hessian":[1.712469E4,7.7619917E3,9.362697E3,2.8303835E3,4.9316084E3,4.1458296E3,5.2168677E3,1.3901917E3,1.4401919E3,1.3734735E3,3.5581348E3,2.1773718E3,1.9684578E3,2.9116204E3,2.3052473E3,1.2689939E3,1.2119778E2,1.0237067E3,4.164852E2,6.171344E2,7.563391E2,2.644317E3,9.138179E2,1.4945374E3,6.828346E2,1.0526401E3,9.158177E2,1.4132681E3,1.4983523E3,2.0686367E3,2.3661037E2,3.8620764E2,8.8278625E2,8.52539E1,3.594388E1,4.9657327E2,5.271334E2,2.622031E2,1.5428209E2,4.1368356E2,2.034508E2,6.91124E2,6.521505E1,1.8901539E3,7.5416296E2,6.340916E2,2.7972626E2,6.1869763E2,8.7583966E2,5.921971E2,9.063753E1,8.350224E2,2.1761772E2,6.08965E2,3.068527E2,6.517207E2,7.6154736E2,9.3377167E2,5.645806E2,1.5641328E3,5.0450397E2,2.0466597E2,3.1944395E1,1.6462311E2,2.2158455E2,6.2305786E2,2.597284E2,8.002126E1,5.2326345E0,2.6058561E1,9.885318E0,8.847941E1,4.0809387E2,4.022647E2,1.2486873E2,2.0968082E2,5.2522285E1,2.399168E1,1.3029042E2,2.2914426E2,1.8453932E2,1.6033722E2,4.3113594E1,3.2276315E2,3.683609E2,1.6574564E1,4.8640484E1,3.988895E2,1.4912644E3,7.4522797E2,8.935031E0,6.27155E2,6.9365754E0,1.3077434E2,1.489519E2,3.1601822E2,3.0267944E2,6.035779E2,2.7226178E2,1.112689E2,4.8092816E2,3.9805832E1,5.0831696E1,6.63352E2,1.7167041E2,1.6197762E2,5.5640106E1,5.882383E2,2.0726755E1,2.1397939E2,9.2873314E1,3.9671457E2,2.5500616E2,6.8321674E2,7.833066E1,1.2981145E2,8.039602E2,3.413688E2,2.2321182E2,3.3931992E2,1.224813E3,1.3869691E2,3.6580707E2,1.7818251E2,2.6483454E1,1.0932127E1,2.1012268E1],"tree_param":{"num_deleted":"0","num_feature":"135","num_nodes":"127","size_leaf_vector":"1"}},{"base_weights":[4.387435E-3,-6.0688883E-1,3.354465E-1,-9.410674E-1,-3.1677574E-1,5.320583E-1,7.951683E-2,-4.8756656E-1,-1.03492E0,-4.9898648E-1,6.22232E-3,-1.1203218E-1,6.092328E-1,-1.8698813E-1,2.3548862E-1,-6.2478954E-1,2.066632E-1,-1.1531192E0,-6.546465E-1,-1.8786868E-1,-6.7549944E-1,3.9186174E-1,-2.1525854E-1,2.1948394E-1,-3.6164775E-1,3.2859096E-1,7.4734867E-1,-5.1929903E-1,-8.954351E-2,-2.4550164E-1,3.3002377E-1,-1.3804413E0,-5.2008516E-1,3.345228E-1,-2.8211227E-2,-1.2614685E0,-8.3245164E-1,-4.2540395E-1,-1.0856224E0,-2.8720096E-1,6.79954E-1,-8.1944096E-1,-4.0141755E-1,9.035051E-1,2.2859775E-1,5.740608E-2,-3.9491346E-1,-3.5720803E-2,1.0556854E0,-6.311105E-1,-1.7805515E-1,5.664524E-1,1.3236769E-1,9.9631447E-1,6.657725E-1,-8.357454E-1,-2.0302749E-1,2.3319287E-2,-3.7198806E-1,2.2401361E-1,-4.4661093E-1,5.7745236E-1,2.4832915E-1,-4.4963628E-2,-6.4790156E-3,-8.8596735E-3,-2.7331697E-2,7.8314333E-4,2.736658E-2,-3.027811E-2,-4.1282997E-2,-4.537676E-3,-2.6770085E-2,-4.566325E-3,-2.1309277E-2,1.6072365E-2,-3.464178E-2,-1.3387045E-2,2.629217E-3,2.4622142E-2,-2.7167687E-2,-6.5682074E-3,-2.6790394E-2,-2.1734582E-2,-5.817174E-3,2.9961152E-2,-3.3693235E-2,1.5363632E-2,-1.433171E-3,-3.7455182E-3,1.3748364E-2,-3.4430572E-3,-1.91772E-2,-1.1389098E-2,1.14285275E-2,2.3567362E-2,4.739464E-2,-1.5133192E-2,-4.460282E-2,-1.34675745E-2,4.460342E-3,8.86596E-3,2.42501E-2,2.285866E-6,1.0899593E-2,3.9094858E-2,2.7793847E-2,1.6130779E-2,2.4198435E-2,2.1308942E-2,-2.8184932E-2,-2.4991613E-3,-3.7188865E-2,1.3343856E-2,-2.0032655E-3,-1.4928868E-2,8.169928E-3,1.1233902E-2,-1.9037966E-2,1.6688418E-3,-1.7762206E-2,9.328555E-3,2.537062E-2,3.3353742E-3,1.3305142E-2],"categories":[],"categories_nodes":[],"categories_segments":[],"categories_sizes":[],"default_left":[0,0,0,0,0,0,0,0,0,0,0,0,0,0,0,0,0,0,0,0,0,0,0,0,0,0,0,0,0,0,0,0,0,0,0,0,0,0,0,0,0,0,0,0,0,0,0,0,0,0,0,0,0,0,0,0,0,0,0,0,0,0,0,0,0,0,0,0,0,0,0,0,0,0,0,0,0,0,0,0,0,0,0,0,0,0,0,0,0,0,0,0,0,0,0,0,0,0,0,0,0,0,0,0,0,0,0,0,0,0,0,0,0,0,0,0,0,0,0,0,0,0,0,0,0],"id":6,"left_children":[1,3,5,7,9,11,13,15,17,19,21,23,25,27,29,31,33,35,37,39,41,43,45,47,49,51,53,55,57,59,61,63,65,67,-1,69,71,73,75,77,79,81,83,85,87,89,91,93,95,97,99,101,103,105,107,109,111,113,115,117,119,121,123,-1,-1,-1,-1,-1,-1,-1,-1,-1,-1,-1,-1,-1,-1,-1,-1,-1,-1,-1,-1,-1,-1,-1,-1,-1,-1,-1,-1,-1,-1,-1,-1,-1,-1,-1,-1,-1,-1,-1,-1,-1,-1,-1,-1,-1,-1,-1,-1,-1,-1,-1,-1,-1,-1,-1,-1,-1,-1,-1,-1,-1,-1],"loss_changes":[3.4614382E3,5.8228784E2,5.582678E2,1.1832861E2,1.8940411E2,3.1196863E2,2.004699E2,4.5915375E1,1.03181885E2,1.128634E2,9.930417E1,5.5707813E1,2.169524E2,5.7614754E1,1.3840508E2,3.105272E1,1.2214872E1,6.0194824E1,5.3939255E1,6.451642E1,5.144513E1,3.5222816E1,3.6199883E1,6.1789898E1,1.8877937E1,8.626936E1,7.559033E1,4.0218475E1,4.3939537E1,4.7336456E1,5.1255768E1,7.621834E0,3.1330688E1,1.3265332E1,0E0,4.0945557E1,2.235614E1,2.8841026E1,2.775177E1,4.1915382E1,1.9686543E1,4.4776306E1,3.0892899E1,2.4350761E1,2.6116077E1,2.217792E1,3.1457375E1,3.308142E1,8.298531E0,1.5419487E1,2.107843E1,5.6428314E1,3.178013E1,1.5478149E1,5.1546143E1,3.7872482E1,2.5298721E1,3.852363E1,3.4210888E1,2.0709864E1,2.733677E1,4.6163574E1,5.2323982E1,0E0,0E0,0E0,0E0,0E0,0E0,0E0,0E0,0E0,0E0,0E0,0E0,0E0,0E0,0E0,0E0,0E0,0E0,0E0,0E0,0E0,0E0,0E0,0E0,0E0,0E0,0E0,0E0,0E0,0E0,0E0,0E0,0E0,0E0,0E0,0E0,0E0,0E0,0E0,0E0,0E0,0E0,0E0,0E0,0E0,0E0,0E0,0E0,0E0,0E0,0E0,0E0,0E0,0E0,0E0,0E0,0E0,0E0,0E0,0E0,0E0,0E0],"parents":[2147483647,0,0,1,1,2,2,3,3,4,4,5,5,6,6,7,7,8,8,9,9,10,10,11,11,12,12,13,13,14,14,15,15,16,16,17,17,18,18,19,19,20,20,21,21,22,22,23,23,24,24,25,25,26,26,27,27,28,28,29,29,30,30,31,31,32,32,33,33,35,35,36,36,37,37,38,38,39,39,40,40,41,41,42,42,43,43,44,44,45,45,46,46,47,47,48,48,49,49,50,50,51,51,52,52,53,53,54,54,55,55,56,56,57,57,58,58,59,59,60,60,61,61,62,62],"right_children":[2,4,6,8,10,12,14,16,18,20,22,24,26,28,30,32,34,36,38,40,42,44,46,48,50,52,54,56,58,60,62,64,66,68,-1,70,72,74,76,78,80,82,84,86,88,90,92,94,96,98,100,102,104,106,108,110,112,114,116,118,120,122,124,-1,-1,-1,-1,-1,-1,-1,-1,-1,-1,-1,-1,-1,-1,-1,-1,-1,-1,-1,-1,-1,-1,-1,-1,-1,-1,-1,-1,-1,-1,-1,-1,-1,-1,-1,-1,-1,-1,-1,-1,-1,-1,-1,-1,-1,-1,-1,-1,-1,-1,-1,-1,-1,-1,-1,-1,-1,-1,-1,-1,-1,-1],"split_conditions":[1.198E1,9.43E0,1E0,3E0,4.8647E2,1.6603E2,1.504E1,1E0,6.2066E2,3.1446E4,1E0,1.5485E4,1.504E1,9.5E3,7.7E3,3.6E3,2E0,2.131E1,1.1E1,1E0,6E0,2E0,2E0,1.928E1,1.601E1,5E0,3E0,1.937E1,3E0,4.4E4,2.433E3,5.9E1,4.8201E4,7.8E2,-2.8211227E-2,7.25E2,3.1E4,2.9933E4,2.312E3,1E0,6.48E1,2E0,8.6E3,1.372E4,5E0,8.6688E2,5E0,1.709E1,7.976E3,2.62E4,2.28E1,1.4E4,5.3412E2,1.005E3,1.75E4,1.326E3,5E0,4.791E3,3.4525E4,3E0,6E0,1.75E4,2.039E1,-4.4963628E-2,-6.4790156E-3,-8.8596735E-3,-2.7331697E-2,7.8314333E-4,2.736658E-2,-3.027811E-2,-4.1282997E-2,-4.537676E-3,-2.6770085E-2,-4.566325E-3,-2.1309277E-2,1.6072365E-2,-3.464178E-2,-1.3387045E-2,2.629217E-3,2.4622142E-2,-2.7167687E-2,-6.5682074E-3,-2.6790394E-2,-2.1734582E-2,-5.817174E-3,2.9961152E-2,-3.3693235E-2,1.5363632E-2,-1.433171E-3,-3.7455182E-3,1.3748364E-2,-3.4430572E-3,-1.91772E-2,-1.1389098E-2,1.14285275E-2,2.3567362E-2,4.739464E-2,-1.5133192E-2,-4.460282E-2,-1.34675745E-2,4.460342E-3,8.86596E-3,2.42501E-2,2.285866E-6,1.0899593E-2,3.9094858E-2,2.7793847E-2,1.6130779E-2,2.4198435E-2,2.1308942E-2,-2.8184932E-2,-2.4991613E-3,-3.7188865E-2,1.3343856E-2,-2.0032655E-3,-1.4928868E-2,8.169928E-3,1.1233902E-2,-1.9037966E-2,1.6688418E-3,-1.7762206E-2,9.328555E-3,2.537062E-2,3.3353742E-3,1.3305142E-2],"split_indices":[72,72,116,54,1,1,72,120,1,18,44,70,72,0,0,0,32,3,54,134,51,47,20,3,72,54,54,3,22,2,28,45,18,5,0,5,2,36,35,89,37,34,0,28,54,1,47,72,71,69,3,0,1,11,0,35,22,11,0,32,45,0,72,0,0,0,0,0,0,0,0,0,0,0,0,0,0,0,0,0,0,0,0,0,0,0,0,0,0,0,0,0,0,0,0,0,0,0,0,0,0,0,0,0,0,0,0,0,0,0,0,0,0,0,0,0,0,0,0,0,0,0,0,0,0],"split_type":[0,0,0,0,0,0,0,0,0,0,0,0,0,0,0,0,0,0,0,0,0,0,0,0,0,0,0,0,0,0,0,0,0,0,0,0,0,0,0,0,0,0,0,0,0,0,0,0,0,0,0,0,0,0,0,0,0,0,0,0,0,0,0,0,0,0,0,0,0,0,0,0,0,0,0,0,0,0,0,0,0,0,0,0,0,0,0,0,0,0,0,0,0,0,0,0,0,0,0,0,0,0,0,0,0,0,0,0,0,0,0,0,0,0,0,0,0,0,0,0,0,0,0,0,0],"sum_hessian":[1.710262E4,6.00816E3,1.109446E4,2.790995E3,3.2171648E3,6.2737354E3,4.8207246E3,4.7962363E2,2.3113716E3,2.0565E3,1.1606647E3,6.7123413E2,5.6025015E3,1.7796626E3,3.0410623E3,4.0055005E2,7.907356E1,1.7617424E3,5.4962915E2,7.4516064E2,1.3113394E3,4.231363E2,7.375284E2,2.8836945E2,3.8286472E2,1.8489475E3,3.7535537E3,4.0254675E2,1.3771158E3,4.992591E2,2.541803E3,4.726368E1,3.5328638E2,7.18759E1,7.1976614E0,1.3146172E3,4.471253E2,3.6008276E2,1.8954639E2,6.692288E2,7.593188E1,8.584902E2,4.528492E2,1.0126232E2,3.2187396E2,2.9320612E2,4.4432227E2,2.2167313E2,6.669631E1,1.541613E2,2.287034E2,8.349438E2,1.0140037E3,9.2359186E2,2.829962E3,2.0039674E2,2.0215001E2,9.845959E2,3.9251993E2,1.4968546E2,3.4957364E2,6.2941736E2,1.9123857E3,4.1836758E1,5.4269233E0,2.3008424E2,1.2320214E2,4.7967384E1,2.3908516E1,4.8408344E2,8.305337E2,4.4227806E1,4.028975E2,1.8887428E2,1.712085E2,9.371364E0,1.8017502E2,4.6414587E2,2.0508293E2,6.971231E1,6.219567E0,1.1034959E2,7.481406E2,1.7080775E2,2.8204147E2,9.652762E1,4.734702E0,1.5641396E2,1.6546002E2,2.0248758E2,9.071854E1,2.1287735E2,2.3144492E2,1.2132532E2,1.0034782E2,4.7059612E1,1.9636702E1,1.3721373E2,1.6947565E1,1.2377581E2,1.049276E2,4.0921204E2,4.2573172E2,6.510848E2,3.6291895E2,1.300403E2,7.935516E2,1.5934231E3,1.236539E3,1.3818217E1,1.8657852E2,1.827421E2,1.9407915E1,1.7201062E2,8.1258527E2,3.257091E2,6.681081E1,1.273282E2,2.2357248E1,8.2398415E1,2.6717523E2,3.2737772E2,3.0203964E2,1.1462592E3,7.661265E2],"tree_param":{"num_deleted":"0","num_feature":"135","num_nodes":"125","size_leaf_vector":"1"}},{"base_weights":[-4.7622545E-4,-5.958547E-1,3.2178214E-1,-9.147904E-1,-3.1752366E-1,5.12398E-1,7.248042E-2,-4.3089357E-1,-1.0175121E0,4.0545274E-2,-4.5676184E-1,1.24091506E-1,6.37563E-1,-3.8429168E-1,1.642341E-1,-5.791117E-1,3.343777E-1,-1.1268951E0,-6.8320274E-1,-1.5711491E-1,3.876513E-1,-8.1897205E-1,-3.1092015E-1,-3.734119E-1,2.2925146E-1,3.8630643E-1,7.573661E-1,-1.5022591E-1,-6.836672E-1,-9.973593E-2,3.1663442E-1,-8.3983564E-1,-2.9118323E-1,-3.1848647E-2,4.3674392E-1,-1.2407271E0,-8.365406E-1,-4.7667813E-1,-1.0713191E0,4.393177E-2,-5.982236E-1,7.4162984E-1,1.1978359E-1,-1.014263E0,-5.229823E-1,-3.3171862E-2,-4.7658762E-1,-1.733036E-1,-9.8269534E-1,-7.804384E-2,3.9620546E-1,6.582969E-1,1.6780174E-1,9.9733484E-1,6.847699E-1,-2.796573E-1,2.6832172E-1,-1.0734146E0,-4.704055E-1,1.1983016E-1,-2.4865071E-1,6.354578E-1,2.5209007E-1,-2.8026626E-2,9.109871E-3,-5.23844E-3,-4.259721E-2,1.8496279E-2,-7.7712974E-3,-2.3572547E-2,-3.8611528E-2,-3.087324E-2,-1.7616695E-2,-6.015173E-3,-2.3443216E-2,-1.8395701E-2,-3.984947E-2,-2.582855E-3,2.5962867E-2,-1.128152E-2,-3.375932E-2,1.7647287E-2,4.025472E-2,7.917295E-3,-1.8335981E-2,-3.3499416E-2,-1.923298E-2,4.8458106E-3,-2.0129353E-2,-5.0742286E-3,8.2950005E-3,-1.7784456E-2,-4.2725764E-3,-1.054895E-2,1.1984356E-2,-1.3309888E-2,-4.2935792E-2,-9.142371E-3,8.0266455E-3,1.8830817E-2,6.506665E-3,1.6836513E-2,3.330486E-2,1.1743261E-2,3.4003615E-4,2.7456777E-2,4.0041752E-2,2.7284008E-2,1.8267991E-2,-3.0911176E-3,-2.1771878E-2,1.0325937E-2,-3.4572832E-2,-3.5447124E-2,5.0433865E-3,-2.1814562E-2,-5.0038164E-3,7.586489E-3,-1.1327291E-2,-1.3966861E-2,-1.322874E-3,2.6025789E-2,1.32680535E-2,3.0535534E-3,1.1181783E-2],"categories":[],"categories_nodes":[],"categories_segments":[],"categories_sizes":[],"default_left":[0,0,0,0,0,0,0,0,0,0,0,0,0,0,0,0,0,0,0,0,0,0,0,0,0,0,0,0,0,0,0,0,0,0,0,0,0,0,0,0,0,0,0,0,0,0,0,0,0,0,0,0,0,0,0,0,0,0,0,0,0,0,0,0,0,0,0,0,0,0,0,0,0,0,0,0,0,0,0,0,0,0,0,0,0,0,0,0,0,0,0,0,0,0,0,0,0,0,0,0,0,0,0,0,0,0,0,0,0,0,0,0,0,0,0,0,0,0,0,0,0,0,0,0,0],"id":7,"left_children":[1,3,5,7,9,11,13,15,17,19,21,23,25,27,29,31,33,35,37,39,41,43,45,47,49,51,53,55,57,59,61,63,65,-1,67,69,71,73,75,77,79,81,83,85,87,89,91,93,95,97,99,101,103,105,107,109,111,113,115,117,119,121,123,-1,-1,-1,-1,-1,-1,-1,-1,-1,-1,-1,-1,-1,-1,-1,-1,-1,-1,-1,-1,-1,-1,-1,-1,-1,-1,-1,-1,-1,-1,-1,-1,-1,-1,-1,-1,-1,-1,-1,-1,-1,-1,-1,-1,-1,-1,-1,-1,-1,-1,-1,-1,-1,-1,-1,-1,-1,-1,-1,-1,-1,-1],"loss_changes":[3.2850322E3,5.334629E2,5.278596E2,1.3881323E2,1.6017429E2,3.058811E2,2.0184421E2,5.6033287E1,8.370825E1,6.183066E1,1.21930145E2,8.043297E1,1.4300159E2,5.6351913E1,1.6134715E2,3.0743103E1,1.2114212E1,5.6442627E1,4.5343567E1,5.09626E1,3.0912766E1,3.7814392E1,7.59364E1,3.2548794E1,6.5105515E1,9.13553E1,5.545349E1,2.4638456E1,2.8854416E1,4.804402E1,5.2158875E1,2.736766E1,2.5644285E1,0E0,1.0216539E1,3.572815E1,2.4079773E1,3.2316727E1,2.3824432E1,4.3469578E1,2.075727E1,1.1779778E1,2.07372E1,1.6625214E1,2.9065887E1,2.6943796E1,4.3004578E1,2.1783646E1,1.5919247E1,3.631365E1,3.4762466E1,2.7736023E1,3.069577E1,1.6842651E1,3.8649414E1,2.7689856E1,1.2997991E1,1.9787079E1,1.8448547E1,4.1081684E1,3.999571E1,1.9162384E1,3.9768738E1,0E0,0E0,0E0,0E0,0E0,0E0,0E0,0E0,0E0,0E0,0E0,0E0,0E0,0E0,0E0,0E0,0E0,0E0,0E0,0E0,0E0,0E0,0E0,0E0,0E0,0E0,0E0,0E0,0E0,0E0,0E0,0E0,0E0,0E0,0E0,0E0,0E0,0E0,0E0,0E0,0E0,0E0,0E0,0E0,0E0,0E0,0E0,0E0,0E0,0E0,0E0,0E0,0E0,0E0,0E0,0E0,0E0,0E0,0E0,0E0,0E0,0E0],"parents":[2147483647,0,0,1,1,2,2,3,3,4,4,5,5,6,6,7,7,8,8,9,9,10,10,11,11,12,12,13,13,14,14,15,15,16,16,17,17,18,18,19,19,20,20,21,21,22,22,23,23,24,24,25,25,26,26,27,27,28,28,29,29,30,30,31,31,32,32,34,34,35,35,36,36,37,37,38,38,39,39,40,40,41,41,42,42,43,43,44,44,45,45,46,46,47,47,48,48,49,49,50,50,51,51,52,52,53,53,54,54,55,55,56,56,57,57,58,58,59,59,60,60,61,61,62,62],"right_children":[2,4,6,8,10,12,14,16,18,20,22,24,26,28,30,32,34,36,38,40,42,44,46,48,50,52,54,56,58,60,62,64,66,-1,68,70,72,74,76,78,80,82,84,86,88,90,92,94,96,98,100,102,104,106,108,110,112,114,116,118,120,122,124,-1,-1,-1,-1,-1,-1,-1,-1,-1,-1,-1,-1,-1,-1,-1,-1,-1,-1,-1,-1,-1,-1,-1,-1,-1,-1,-1,-1,-1,-1,-1,-1,-1,-1,-1,-1,-1,-1,-1,-1,-1,-1,-1,-1,-1,-1,-1,-1,-1,-1,-1,-1,-1,-1,-1,-1,-1,-1,-1,-1,-1,-1],"split_conditions":[1.198E1,9.43E0,1E0,3E0,4E0,8E3,7.7E3,1E0,6.1499E2,4.7571E2,2.5604E2,1.358E1,1.504E1,6.24E4,1.504E1,3.0887E2,9.2E1,2.037E1,1.1E1,1E0,3.218E3,1.947E1,6.493E3,4.1063E4,1.4067E2,5E0,1.19E4,3.081E1,1.5246E2,4E0,9.155E4,6.23E1,2.8E1,-3.1848647E-2,1E0,4.6032E4,2.73E1,2.9933E4,4E0,1E0,6.6E4,2E0,5.14E4,1E0,3.4E4,2.226E1,7.4328E2,8.753E3,1E1,2.084E1,1.8239E4,8.3357E2,4E0,8.4168E2,3E0,2E0,1E0,1E0,1.72E4,4E0,1.9075E4,9.7E3,1.88E4,-2.8026626E-2,9.109871E-3,-5.23844E-3,-4.259721E-2,1.8496279E-2,-7.7712974E-3,-2.3572547E-2,-3.8611528E-2,-3.087324E-2,-1.7616695E-2,-6.015173E-3,-2.3443216E-2,-1.8395701E-2,-3.984947E-2,-2.582855E-3,2.5962867E-2,-1.128152E-2,-3.375932E-2,1.7647287E-2,4.025472E-2,7.917295E-3,-1.8335981E-2,-3.3499416E-2,-1.923298E-2,4.8458106E-3,-2.0129353E-2,-5.0742286E-3,8.2950005E-3,-1.7784456E-2,-4.2725764E-3,-1.054895E-2,1.1984356E-2,-1.3309888E-2,-4.2935792E-2,-9.142371E-3,8.0266455E-3,1.8830817E-2,6.506665E-3,1.6836513E-2,3.330486E-2,1.1743261E-2,3.4003615E-4,2.7456777E-2,4.0041752E-2,2.7284008E-2,1.8267991E-2,-3.0911176E-3,-2.1771878E-2,1.0325937E-2,-3.4572832E-2,-3.5447124E-2,5.0433865E-3,-2.1814562E-2,-5.0038164E-3,7.586489E-3,-1.1327291E-2,-1.3966861E-2,-1.322874E-3,2.6025789E-2,1.32680535E-2,3.0535534E-3,1.1181783E-2],"split_indices":[72,72,116,54,54,0,0,120,1,1,1,72,72,2,72,1,63,3,54,116,35,3,35,18,1,54,30,3,1,47,67,37,14,0,121,67,73,36,47,134,2,7,69,89,2,3,1,11,54,3,70,1,47,1,54,32,92,97,69,44,0,69,0,0,0,0,0,0,0,0,0,0,0,0,0,0,0,0,0,0,0,0,0,0,0,0,0,0,0,0,0,0,0,0,0,0,0,0,0,0,0,0,0,0,0,0,0,0,0,0,0,0,0,0,0,0,0,0,0,0,0,0,0,0,0],"split_type":[0,0,0,0,0,0,0,0,0,0,0,0,0,0,0,0,0,0,0,0,0,0,0,0,0,0,0,0,0,0,0,0,0,0,0,0,0,0,0,0,0,0,0,0,0,0,0,0,0,0,0,0,0,0,0,0,0,0,0,0,0,0,0,0,0,0,0,0,0,0,0,0,0,0,0,0,0,0,0,0,0,0,0,0,0,0,0,0,0,0,0,0,0,0,0,0,0,0,0,0,0,0,0,0,0,0,0,0,0,0,0,0,0,0,0,0,0,0,0,0,0,0,0,0,0],"sum_hessian":[1.7119521E4,6.011785E3,1.1107735E4,2.8004736E3,3.2113113E3,6.294167E3,4.813569E3,4.9129553E2,2.3091782E3,8.993151E2,2.311996E3,1.5347664E3,4.7594004E3,8.0464795E2,4.008921E3,4.117842E2,7.9511314E1,1.7381129E3,5.7106525E2,5.73361E2,3.2595416E2,6.6235803E2,1.6496382E3,2.673594E2,1.267407E3,1.5380198E3,3.2213809E3,4.5242374E2,3.5222424E2,1.467476E3,2.541445E3,2.1509518E2,1.9668901E2,4.7279243E0,7.4783394E1,1.2462526E3,4.9186035E2,3.7418304E2,1.9688219E2,3.9447104E2,1.7888995E2,1.3964679E2,1.8630736E2,3.9759943E2,2.647586E2,6.167805E2,1.0328577E3,2.0222623E2,6.513316E1,4.463635E2,8.2104346E2,6.842571E2,8.5376276E2,7.4523804E2,2.4761428E3,3.4581573E2,1.06607994E2,1.23142044E2,2.290822E2,5.931324E2,8.7434357E2,4.2639224E2,2.1150527E3,1.9658858E2,1.850661E1,1.8004146E2,1.6647556E1,5.8930733E1,1.5852659E1,1.6473045E2,1.0815221E3,2.6126947E2,2.3059087E2,2.0194637E2,1.7223668E2,7.657147E1,1.20310715E2,3.416223E2,5.2848724E1,1.2927928E2,4.9610664E1,1.14947685E2,2.46991E1,1.5575928E2,3.0548075E1,2.9724033E2,1.003591E2,4.9641346E1,2.1511725E2,4.2819693E2,1.8858362E2,7.487702E2,2.840874E2,1.5378055E2,4.8445686E1,3.1505684E1,3.3627483E1,2.686729E2,1.7769058E2,3.4499036E2,4.7605313E2,5.7784625E2,1.0641084E2,3.449681E2,5.0879462E2,6.298912E2,1.1534686E2,5.344637E2,1.9416791E3,2.5102782E2,9.478792E1,1.0162308E2,4.9849143E0,1.11786316E2,1.1355725E1,1.2036729E2,1.08714905E2,4.6659244E2,1.2653994E2,4.1572113E2,4.5862244E2,1.8220769E2,2.4418454E2,9.730994E2,1.1419534E3],"tree_param":{"num_deleted":"0","num_feature":"135","num_nodes":"125","size_leaf_vector":"1"}},{"base_weights":[1.3574322E-3,-5.7924217E-1,3.1334573E-1,-8.957164E-1,-3.075307E-1,4.881983E-1,5.6735266E-2,-1.115293E0,-7.1836114E-1,6.431828E-2,-4.5219195E-1,-1.164951E-1,5.604402E-1,-2.353502E-1,2.209874E-1,-1.199608E0,-3.553093E-1,-4.0576804E-1,-9.328401E-1,-1.1216938E-1,3.995496E-1,-7.6282614E-1,-2.901185E-1,1.9735542E-1,-3.271096E-1,3.1887397E-1,6.8602556E-1,-3.8976845E-1,1.6504698E-2,-2.5287467E-1,3.0762997E-1,-6.337246E-1,-1.2736148E0,-9.997178E-1,-7.8886636E-2,5.111894E-1,-4.9380797E-1,-6.3932854E-1,-1.1096593E0,1.1141186E0,-1.6008742E-1,5.5015534E-1,-1.5352273E-1,-8.372186E-1,-8.525615E-2,-5.452815E-3,-4.458093E-1,-1.17843915E-2,6.729665E-1,-6.4591867E-1,-8.041452E-2,5.2503735E-1,1.24448024E-1,6.0159695E-1,8.724163E-1,-4.7745872E-1,9.717553E-2,4.0177613E-1,-1.16888985E-1,-3.5355002E-1,3.9204463E-1,1.9619796E-1,4.9047577E-1,-2.2000453E-2,1.5336513E-2,-4.159756E-2,-2.877446E-2,2.4451002E-2,-3.702804E-2,9.567854E-3,-1.821517E-2,4.346589E-2,8.439563E-4,6.183585E-3,-1.8337093E-2,4.062938E-3,-2.1929184E-2,-3.440884E-2,-1.42487185E-2,4.0919144E-2,5.336336E-4,1.8330464E-4,-1.5221955E-2,1.0383847E-2,3.0564241E-2,5.564814E-3,-3.4377467E-2,-3.1917736E-2,-1.8173743E-2,7.2791944E-3,-2.481513E-2,-2.3121324E-3,1.9622564E-2,-1.9585215E-2,-8.618222E-3,2.0326938E-2,-8.171125E-3,2.5476735E-2,-1.2117284E-2,-2.886706E-2,-5.4999203E-3,-3.7742192E-3,5.145224E-2,1.1477916E-2,2.4805859E-2,-4.8576528E-4,1.1445365E-2,1.487659E-2,2.2811376E-2,2.7519187E-2,1.6281417E-2,4.0088263E-3,-1.6183324E-2,6.3889665E-3,-4.4837322E-2,2.0830616E-2,2.3815976E-3,-1.4264026E-3,-2.571322E-2,-1.3849992E-2,6.199634E-3,1.5968021E-2,-3.3359673E-2,2.7518881E-2,4.4003758E-3,9.821015E-3,1.8316843E-2],"categories":[],"categories_nodes":[],"categories_segments":[],"categories_sizes":[],"default_left":[0,0,0,0,0,0,0,0,0,0,0,0,0,0,0,0,0,0,0,0,0,0,0,0,0,0,0,0,0,0,0,0,0,0,0,0,0,0,0,0,0,0,0,0,0,0,0,0,0,0,0,0,0,0,0,0,0,0,0,0,0,0,0,0,0,0,0,0,0,0,0,0,0,0,0,0,0,0,0,0,0,0,0,0,0,0,0,0,0,0,0,0,0,0,0,0,0,0,0,0,0,0,0,0,0,0,0,0,0,0,0,0,0,0,0,0,0,0,0,0,0,0,0,0,0,0,0],"id":8,"left_children":[1,3,5,7,9,11,13,15,17,19,21,23,25,27,29,31,33,35,37,39,41,43,45,47,49,51,53,55,57,59,61,63,65,67,69,71,73,75,77,79,81,83,85,87,89,91,93,95,97,99,101,103,105,107,109,111,113,115,117,119,121,123,125,-1,-1,-1,-1,-1,-1,-1,-1,-1,-1,-1,-1,-1,-1,-1,-1,-1,-1,-1,-1,-1,-1,-1,-1,-1,-1,-1,-1,-1,-1,-1,-1,-1,-1,-1,-1,-1,-1,-1,-1,-1,-1,-1,-1,-1,-1,-1,-1,-1,-1,-1,-1,-1,-1,-1,-1,-1,-1,-1,-1,-1,-1,-1,-1],"loss_changes":[3.0980437E3,5.137754E2,4.9913782E2,1.06721924E2,1.7313342E2,2.890962E2,2.1640178E2,7.850891E1,1.0221106E2,5.342046E1,1.16422424E2,4.679309E1,1.7908789E2,6.3151405E1,1.18605576E2,4.5612793E1,2.2087414E1,5.0662315E1,4.6348755E1,3.495296E1,2.6020054E1,3.9938477E1,6.754599E1,2.8307808E1,3.3248856E1,8.104599E1,6.0657715E1,4.3026764E1,3.1811827E1,2.9148836E1,4.9641357E1,1.7075966E1,3.8150146E1,1.8339325E1,1.9303703E1,2.5543121E1,5.1080093E1,2.7613083E1,1.9046448E1,6.6314106E0,3.370655E1,2.3212029E1,2.3514935E1,3.7966858E1,2.015164E1,2.6390886E1,3.278163E1,3.7014816E1,1.8208649E1,2.7942856E1,2.0931828E1,4.184253E1,3.8656967E1,4.4397278E1,2.2546204E1,3.6949432E1,3.0050753E1,1.5459579E1,2.3734587E1,2.5261528E1,1.4360305E1,5.2585793E1,1.8717987E1,0E0,0E0,0E0,0E0,0E0,0E0,0E0,0E0,0E0,0E0,0E0,0E0,0E0,0E0,0E0,0E0,0E0,0E0,0E0,0E0,0E0,0E0,0E0,0E0,0E0,0E0,0E0,0E0,0E0,0E0,0E0,0E0,0E0,0E0,0E0,0E0,0E0,0E0,0E0,0E0,0E0,0E0,0E0,0E0,0E0,0E0,0E0,0E0,0E0,0E0,0E0,0E0,0E0,0E0,0E0,0E0,0E0,0E0,0E0,0E0,0E0,0E0,0E0,0E0],"parents":[2147483647,0,0,1,1,2,2,3,3,4,4,5,5,6,6,7,7,8,8,9,9,10,10,11,11,12,12,13,13,14,14,15,15,16,16,17,17,18,18,19,19,20,20,21,21,22,22,23,23,24,24,25,25,26,26,27,27,28,28,29,29,30,30,31,31,32,32,33,33,34,34,35,35,36,36,37,37,38,38,39,39,40,40,41,41,42,42,43,43,44,44,45,45,46,46,47,47,48,48,49,49,50,50,51,51,52,52,53,53,54,54,55,55,56,56,57,57,58,58,59,59,60,60,61,61,62,62],"right_children":[2,4,6,8,10,12,14,16,18,20,22,24,26,28,30,32,34,36,38,40,42,44,46,48,50,52,54,56,58,60,62,64,66,68,70,72,74,76,78,80,82,84,86,88,90,92,94,96,98,100,102,104,106,108,110,112,114,116,118,120,122,124,126,-1,-1,-1,-1,-1,-1,-1,-1,-1,-1,-1,-1,-1,-1,-1,-1,-1,-1,-1,-1,-1,-1,-1,-1,-1,-1,-1,-1,-1,-1,-1,-1,-1,-1,-1,-1,-1,-1,-1,-1,-1,-1,-1,-1,-1,-1,-1,-1,-1,-1,-1,-1,-1,-1,-1,-1,-1,-1,-1,-1,-1,-1,-1,-1],"split_conditions":[1.198E1,9.43E0,9.9833E4,3.0887E2,4E0,1.6603E2,1.504E1,1E0,6E0,4.8345E2,2.7687E2,4E0,1.504E1,5.6313E2,7.7E3,3.4E4,6E0,1E0,8.548E3,2E0,1.90677E5,1E0,6.19E3,1.814E1,1.0169E2,5E0,2.145E1,1E0,1.3E2,3.524E1,2E0,2.917E1,2.85E1,3.3E3,1.3408E4,1.5E1,3.83E4,6.484E3,7.43E1,1E0,1E0,1E0,1E0,3.29E1,1.1E1,9.7294E2,4.8647E2,7E3,3.1764E4,2.239E1,1E0,5.7432E2,5.2622E2,1.9075E4,1E0,2E0,2.16E4,4.639E3,5.8E1,1.64E2,1.4E1,2.274E3,1.8E4,-2.2000453E-2,1.5336513E-2,-4.159756E-2,-2.877446E-2,2.4451002E-2,-3.702804E-2,9.567854E-3,-1.821517E-2,4.346589E-2,8.439563E-4,6.183585E-3,-1.8337093E-2,4.062938E-3,-2.1929184E-2,-3.440884E-2,-1.42487185E-2,4.0919144E-2,5.336336E-4,1.8330464E-4,-1.5221955E-2,1.0383847E-2,3.0564241E-2,5.564814E-3,-3.4377467E-2,-3.1917736E-2,-1.8173743E-2,7.2791944E-3,-2.481513E-2,-2.3121324E-3,1.9622564E-2,-1.9585215E-2,-8.618222E-3,2.0326938E-2,-8.171125E-3,2.5476735E-2,-1.2117284E-2,-2.886706E-2,-5.4999203E-3,-3.7742192E-3,5.145224E-2,1.1477916E-2,2.4805859E-2,-4.8576528E-4,1.1445365E-2,1.487659E-2,2.2811376E-2,2.7519187E-2,1.6281417E-2,4.0088263E-3,-1.6183324E-2,6.3889665E-3,-4.4837322E-2,2.0830616E-2,2.3815976E-3,-1.4264026E-3,-2.571322E-2,-1.3849992E-2,6.199634E-3,1.5968021E-2,-3.3359673E-2,2.7518881E-2,4.4003758E-3,9.821015E-3,1.8316843E-2],"split_indices":[72,72,18,1,54,1,72,134,54,1,1,54,72,1,0,2,74,47,35,55,18,134,35,3,1,54,72,134,41,3,19,3,73,69,35,29,67,36,37,86,116,120,75,37,54,1,1,67,68,3,103,1,1,0,116,42,0,28,14,17,43,11,0,0,0,0,0,0,0,0,0,0,0,0,0,0,0,0,0,0,0,0,0,0,0,0,0,0,0,0,0,0,0,0,0,0,0,0,0,0,0,0,0,0,0,0,0,0,0,0,0,0,0,0,0,0,0,0,0,0,0,0,0,0,0,0,0],"split_type":[0,0,0,0,0,0,0,0,0,0,0,0,0,0,0,0,0,0,0,0,0,0,0,0,0,0,0,0,0,0,0,0,0,0,0,0,0,0,0,0,0,0,0,0,0,0,0,0,0,0,0,0,0,0,0,0,0,0,0,0,0,0,0,0,0,0,0,0,0,0,0,0,0,0,0,0,0,0,0,0,0,0,0,0,0,0,0,0,0,0,0,0,0,0,0,0,0,0,0,0,0,0,0,0,0,0,0,0,0,0,0,0,0,0,0,0,0,0,0,0,0,0,0,0,0,0,0],"sum_hessian":[1.7101004E4,5.9770537E3,1.112395E4,2.7600298E3,3.217024E3,6.6153765E3,4.5085737E3,1.2308611E3,1.5291687E3,9.011613E2,2.3158628E3,7.059212E2,5.9094556E3,1.6226403E3,2.8859336E3,1.1074218E3,1.2343937E2,6.234342E2,9.0573456E2,5.907941E2,3.103672E2,7.927503E2,1.5231124E3,2.835089E2,4.224123E2,2.0225586E3,3.8868967E3,1.00555994E3,6.170803E2,4.4580984E2,2.4401238E3,1.2918523E2,9.7823645E2,3.6269566E1,8.71698E1,5.4193134E1,5.69241E2,3.42243E2,5.634915E2,2.1380768E1,5.694134E2,2.4394455E2,6.642264E1,7.1411035E2,7.863994E1,5.38872E2,9.842404E2,1.9759566E2,8.591325E1,1.8356685E2,2.3884544E2,9.80823E2,1.0417356E3,2.678057E3,1.2088401E3,8.5212604E2,1.5343387E2,1.581873E2,4.5889304E2,3.8600433E2,5.9805534E1,1.517428E3,9.226957E2,1.18146286E2,1.1038948E1,6.719006E2,3.063359E2,4.150089E0,3.211948E1,5.006783E1,3.710197E1,1.7438017E1,3.675512E1,8.70202E1,4.8222086E2,4.00811E1,3.021619E2,5.1698474E2,4.650678E1,1.6926208E1,4.4545593E0,3.885464E2,1.8086699E2,1.7427516E2,6.966938E1,5.0236156E1,1.6186481E1,3.386365E2,3.7547382E2,5.5102066E1,2.3537874E1,4.8682254E2,5.2049446E1,4.0683716E2,5.7740326E2,5.3803753E1,1.437919E2,7.3286545E1,1.2626712E1,1.0600277E2,7.756408E1,2.3370036E2,5.145086E0,6.858995E2,2.949235E2,6.7901605E2,3.627196E2,1.704753E3,9.733038E2,1.0186797E3,1.9016034E2,8.776073E1,7.6436536E2,1.4370045E2,9.733415E0,8.0709E1,7.74783E1,4.215905E2,3.7302513E1,3.2052936E2,6.547495E1,5.507131E1,4.7342257E0,9.038218E1,1.4270459E3,4.1766718E2,5.050285E2],"tree_param":{"num_deleted":"0","num_feature":"135","num_nodes":"127","size_leaf_vector":"1"}},{"base_weights":[-1.8438755E-3,-5.693007E-1,3.0504507E-1,-8.7017787E-1,-3.0743244E-1,4.850737E-1,7.109037E-2,-3.131895E-1,-9.3075037E-1,-4.729937E-1,-1.8405737E-2,-1.2802854E-1,5.5823195E-1,-8.94089E-2,2.7924064E-1,-4.7587904E-1,4.0072986E-1,-1.0392379E0,-6.504475E-1,-1.1583396E-1,-6.081378E-1,3.4239665E-1,-2.3022483E-1,1.9238193E-1,-3.292163E-1,2.9190934E-1,6.884645E-1,-3.166034E-1,4.934449E-2,6.452529E-1,1.732861E-1,-2.6355338E-1,-1.0495274E0,-7.2569156E-1,7.031022E-1,-1.185741E0,-7.8196096E-1,-4.5757744E-1,-1.052502E0,-2.1476957E-1,4.8671895E-1,-7.3252004E-1,-3.6424834E-1,6.5372914E-1,8.9485385E-2,-3.3012098E-1,1.4897902E-1,-8.700912E-3,6.987737E-1,-3.802855E-1,1.0173993E0,1.6954464E-1,6.276941E-1,9.1490436E-1,6.146193E-1,-4.195343E-1,2.3389919E-1,-3.9056525E-1,1.268299E-1,6.944206E-1,-5.3730246E-2,1.2752448E-2,4.2317328E-1,-1.1751864E-2,2.7440913E-2,-3.858169E-2,-8.5027125E-3,4.086127E-3,-3.6832616E-2,2.788552E-2,-1.5215305E-2,-3.6852915E-2,-1.8617226E-2,-1.903886E-2,-3.4571085E-2,-5.2839466E-3,-2.2723224E-2,-1.13891745E-2,-3.496841E-2,-7.856682E-3,2.470746E-2,3.7062438E-3,3.071788E-2,-6.438532E-3,-2.380179E-2,-2.199963E-2,-5.8395187E-3,8.386721E-3,2.8290046E-2,6.1996826E-3,-1.9443246E-2,-2.6875152E-4,-1.4337646E-2,2.1334065E-2,-5.5266283E-3,-8.905728E-3,1.1672449E-2,8.371885E-3,3.2662995E-2,-1.7487077E-2,-3.8385577E-3,4.6672624E-2,1.7191815E-3,7.893822E-3,-5.482905E-3,2.6433632E-2,9.401417E-3,3.995633E-2,2.5568483E-2,1.46368025E-2,2.2462633E-2,-1.9263233E-3,-1.843994E-2,-2.5058938E-2,1.3451775E-2,-3.3006798E-3,-2.2347163E-2,1.246369E-3,1.5929542E-2,2.8525745E-2,1.3600174E-2,9.1174175E-4,-3.6560584E-2,1.0086918E-2,2.0645682E-2],"categories":[],"categories_nodes":[],"categories_segments":[],"categories_sizes":[],"default_left":[0,0,0,0,0,0,0,0,0,0,0,0,0,0,0,0,0,0,0,0,0,0,0,0,0,0,0,0,0,0,0,0,0,0,0,0,0,0,0,0,0,0,0,0,0,0,0,0,0,0,0,0,0,0,0,0,0,0,0,0,0,0,0,0,0,0,0,0,0,0,0,0,0,0,0,0,0,0,0,0,0,0,0,0,0,0,0,0,0,0,0,0,0,0,0,0,0,0,0,0,0,0,0,0,0,0,0,0,0,0,0,0,0,0,0,0,0,0,0,0,0,0,0,0,0],"id":9,"left_children":[1,3,5,7,9,11,13,15,17,19,21,23,25,27,29,31,33,35,37,39,41,43,45,47,49,51,53,55,57,59,61,63,65,67,69,71,73,75,77,79,81,83,85,87,89,91,93,95,97,99,101,103,105,107,109,111,113,115,117,119,-1,121,123,-1,-1,-1,-1,-1,-1,-1,-1,-1,-1,-1,-1,-1,-1,-1,-1,-1,-1,-1,-1,-1,-1,-1,-1,-1,-1,-1,-1,-1,-1,-1,-1,-1,-1,-1,-1,-1,-1,-1,-1,-1,-1,-1,-1,-1,-1,-1,-1,-1,-1,-1,-1,-1,-1,-1,-1,-1,-1,-1,-1,-1,-1],"loss_changes":[2.9733887E3,4.7191248E2,4.6668994E2,9.377661E1,1.5338904E2,2.8095154E2,1.6105304E2,3.212906E1,7.57793E1,9.830649E1,8.9385605E1,4.3149315E1,1.9384766E2,8.583338E1,8.127919E1,2.7055992E1,1.807716E1,6.7331665E1,5.4127594E1,3.3531986E1,4.458142E1,3.400927E1,2.7963417E1,2.6321892E1,2.8648125E1,7.545952E1,6.225464E1,5.859355E1,5.7689026E1,5.831099E1,6.534076E1,2.6827656E1,1.1415276E1,5.311752E0,1.2577341E1,3.8914673E1,3.4464935E1,4.1369293E1,1.9495132E1,2.6210672E1,1.573852E1,3.6752563E1,3.1629295E1,2.1519814E1,2.1742073E1,2.909497E1,2.9877583E1,2.2115976E1,1.210952E1,2.0953457E1,8.161873E0,4.6887215E1,4.0307053E1,1.8685852E1,4.888733E1,6.3100143E1,3.953725E1,2.5787987E1,5.0197308E1,2.891011E1,0E0,2.2535105E1,1.4110779E1,0E0,0E0,0E0,0E0,0E0,0E0,0E0,0E0,0E0,0E0,0E0,0E0,0E0,0E0,0E0,0E0,0E0,0E0,0E0,0E0,0E0,0E0,0E0,0E0,0E0,0E0,0E0,0E0,0E0,0E0,0E0,0E0,0E0,0E0,0E0,0E0,0E0,0E0,0E0,0E0,0E0,0E0,0E0,0E0,0E0,0E0,0E0,0E0,0E0,0E0,0E0,0E0,0E0,0E0,0E0,0E0,0E0,0E0,0E0,0E0,0E0,0E0],"parents":[2147483647,0,0,1,1,2,2,3,3,4,4,5,5,6,6,7,7,8,8,9,9,10,10,11,11,12,12,13,13,14,14,15,15,16,16,17,17,18,18,19,19,20,20,21,21,22,22,23,23,24,24,25,25,26,26,27,27,28,28,29,29,30,30,31,31,32,32,33,33,34,34,35,35,36,36,37,37,38,38,39,39,40,40,41,41,42,42,43,43,44,44,45,45,46,46,47,47,48,48,49,49,50,50,51,51,52,52,53,53,54,54,55,55,56,56,57,57,58,58,59,59,61,61,62,62],"right_children":[2,4,6,8,10,12,14,16,18,20,22,24,26,28,30,32,34,36,38,40,42,44,46,48,50,52,54,56,58,60,62,64,66,68,70,72,74,76,78,80,82,84,86,88,90,92,94,96,98,100,102,104,106,108,110,112,114,116,118,120,-1,122,124,-1,-1,-1,-1,-1,-1,-1,-1,-1,-1,-1,-1,-1,-1,-1,-1,-1,-1,-1,-1,-1,-1,-1,-1,-1,-1,-1,-1,-1,-1,-1,-1,-1,-1,-1,-1,-1,-1,-1,-1,-1,-1,-1,-1,-1,-1,-1,-1,-1,-1,-1,-1,-1,-1,-1,-1,-1,-1,-1,-1,-1,-1],"split_conditions":[1.198E1,9.43E0,1E0,2E0,4.8345E2,1.6603E2,1.88E4,1E0,2E4,4.6032E4,1E0,4E0,1.504E1,1.504E1,7.071E3,5.995E3,2.1828E2,2.85E1,1.1E1,1E0,6E0,3.623E3,9.7294E2,1.928E1,1.1808E4,6.5049E2,3E0,1E0,1.7727E2,6E0,1.845E1,1E0,5.3E1,3.013E3,7.343E3,1E0,2.3614E4,2.9933E4,2.7E1,3.1E1,2.3E1,2E0,2.77E1,7.35E2,1E0,7.1E4,4.994E3,1.28E2,4.504E3,2.073E1,2E0,1.1E1,4.4591E4,1.5E1,1.665E4,1.26157E5,1.327E3,6.24E4,3.265E1,1.29E2,-5.3730246E-2,6.6595E4,1E0,-1.1751864E-2,2.7440913E-2,-3.858169E-2,-8.5027125E-3,4.086127E-3,-3.6832616E-2,2.788552E-2,-1.5215305E-2,-3.6852915E-2,-1.8617226E-2,-1.903886E-2,-3.4571085E-2,-5.2839466E-3,-2.2723224E-2,-1.13891745E-2,-3.496841E-2,-7.856682E-3,2.470746E-2,3.7062438E-3,3.071788E-2,-6.438532E-3,-2.380179E-2,-2.199963E-2,-5.8395187E-3,8.386721E-3,2.8290046E-2,6.1996826E-3,-1.9443246E-2,-2.6875152E-4,-1.4337646E-2,2.1334065E-2,-5.5266283E-3,-8.905728E-3,1.1672449E-2,8.371885E-3,3.2662995E-2,-1.7487077E-2,-3.8385577E-3,4.6672624E-2,1.7191815E-3,7.893822E-3,-5.482905E-3,2.6433632E-2,9.401417E-3,3.995633E-2,2.5568483E-2,1.46368025E-2,2.2462633E-2,-1.9263233E-3,-1.843994E-2,-2.5058938E-2,1.3451775E-2,-3.3006798E-3,-2.2347163E-2,1.246369E-3,1.5929542E-2,2.8525745E-2,1.3600174E-2,9.1174175E-4,-3.6560584E-2,1.0086918E-2,2.0645682E-2],"split_indices":[72,72,116,54,1,1,0,120,0,67,44,54,72,72,11,35,1,73,54,120,51,28,1,3,71,1,54,134,1,44,72,134,29,18,28,134,35,36,12,43,45,34,37,5,116,2,28,40,71,3,33,54,18,29,0,18,36,2,3,41,0,36,49,0,0,0,0,0,0,0,0,0,0,0,0,0,0,0,0,0,0,0,0,0,0,0,0,0,0,0,0,0,0,0,0,0,0,0,0,0,0,0,0,0,0,0,0,0,0,0,0,0,0,0,0,0,0,0,0,0,0,0,0,0,0],"split_type":[0,0,0,0,0,0,0,0,0,0,0,0,0,0,0,0,0,0,0,0,0,0,0,0,0,0,0,0,0,0,0,0,0,0,0,0,0,0,0,0,0,0,0,0,0,0,0,0,0,0,0,0,0,0,0,0,0,0,0,0,0,0,0,0,0,0,0,0,0,0,0,0,0,0,0,0,0,0,0,0,0,0,0,0,0,0,0,0,0,0,0,0,0,0,0,0,0,0,0,0,0,0,0,0,0,0,0,0,0,0,0,0,0,0,0,0,0,0,0,0,0,0,0,0,0],"sum_hessian":[1.7072094E4,5.9918794E3,1.1080214E4,2.7871836E3,3.2046958E3,6.2611636E3,4.819051E3,2.739817E2,2.513202E3,2.0371388E3,1.1675571E3,6.6738654E2,5.593777E3,2.7212986E3,2.0977522E3,2.2340506E2,5.057662E1,1.8099695E3,7.032324E2,5.597322E2,1.4774066E3,4.316644E2,7.358927E2,2.5743723E2,4.0994928E2,1.8381154E3,3.7556616E3,1.0313259E3,1.6899727E3,4.697938E2,1.6279584E3,1.6411885E2,5.928621E1,1.0407136E1,4.016948E1,1.1509608E3,6.590086E2,4.7669473E2,2.265377E2,4.813422E2,7.838997E1,9.770919E2,5.0031473E2,1.9277478E2,2.3888962E2,5.8255566E2,1.53337E2,1.8497029E2,7.246694E1,3.9566174E2,1.428752E1,1.348286E3,4.8982944E2,9.207808E2,2.8348809E3,8.6906866E2,1.6225725E2,2.5248624E2,1.4374865E3,4.6130872E2,8.485065E0,9.9183215E2,6.361262E2,1.4810199E2,1.6016855E1,4.380218E1,1.5484027E1,4.1932063E0,6.213929E0,3.3721733E1,6.447748E0,1.0341643E3,1.167965E2,4.8888736E2,1.7012128E2,2.5255319E2,2.2414153E2,3.7957222E1,1.8858047E2,4.5968158E2,2.1660616E1,4.8170715E1,3.0219252E1,1.2245359E2,8.546383E2,1.5121431E2,3.4910043E2,8.787351E1,1.0490127E2,2.0637413E2,3.2515488E1,1.9031026E2,3.9224542E2,5.624254E1,9.7094475E1,1.0737651E2,7.759378E1,3.671386E1,3.5753086E1,2.1357741E2,1.8208435E2,8.595769E0,5.691751E0,1.0575481E3,2.9073788E2,2.617602E2,2.2806923E2,9.029181E1,8.30489E2,1.5637786E3,1.2711022E3,3.188385E2,5.5023016E2,2.7089788E1,1.3516747E2,1.4406886E2,1.0841738E2,1.1937014E3,2.43785E2,2.1209428E2,2.4921443E2,9.786302E2,1.3201995E1,4.9258365E2,1.4354259E2],"tree_param":{"num_deleted":"0","num_feature":"135","num_nodes":"125","size_leaf_vector":"1"}},{"base_weights":[-8.3088776E-4,-5.430068E-1,2.9305065E-1,-8.4948546E-1,-2.7977166E-1,4.7458267E-1,5.8632515E-2,-6.215783E-1,-1.024292E0,7.635199E-2,-4.2009982E-1,-1.3237408E-1,5.473291E-1,-1.7566305E-1,1.9626617E-1,-8.862596E-1,-3.8397962E-1,-1.238408E0,-8.8443786E-1,-1.078699E-1,3.9763528E-1,-7.217738E-1,-2.6559433E-1,1.8605843E-1,-3.2665783E-1,2.9421523E-1,6.7231303E-1,-8.801863E-1,-1.2637584E-1,-4.014819E-1,2.5060537E-1,-9.9422413E-1,-3.2192584E-2,4.5858422E-1,-4.6329296E-1,-9.216657E-1,-1.36714E0,-9.7730535E-1,-4.6665278E-1,1.0837553E0,-1.5321632E-1,7.308883E-1,1.3717057E-1,-8.9772123E-1,-4.5715377E-1,-3.003069E-3,-3.9417914E-1,-2.1788675E-2,6.46011E-1,-6.148596E-1,-4.476338E-3,5.1467717E-1,1.1433056E-1,8.227889E-1,5.692854E-1,-1.1621432E0,3.4983507E-1,7.912961E-2,-2.6817775E-1,-2.8583667E-1,-1.128462E0,4.193931E-1,1.2056908E-1,5.495755E-3,-3.125699E-2,-1.440928E-2,1.9909307E-2,4.4199176E-2,-1.4833111E-3,-7.2602923E-3,-2.4067147E-2,-3.982436E-2,-1.669611E-2,-1.44498665E-2,-4.1100122E-2,-3.639919E-2,-2.4286589E-2,7.5748703E-3,-2.0970127E-2,4.1745648E-2,-2.0648316E-3,8.3082E-5,-1.4557893E-2,1.6189458E-2,3.5326976E-2,6.5580555E-3,-2.832316E-2,-2.8132562E-2,-4.1971644E-3,-1.6344326E-3,-1.9333396E-2,-4.0157847E-3,1.3069599E-2,-5.5640438E-3,-1.5562394E-2,-1.0121995E-2,1.1564811E-2,2.2685196E-2,-1.8583836E-2,-3.1757634E-2,-8.934604E-3,3.1463772E-2,-4.3786136E-3,1.1614238E-2,2.5024224E-2,2.5195532E-4,1.1292374E-2,3.5586525E-2,2.2702413E-2,1.3212507E-2,2.1164993E-2,-3.752748E-2,-8.7930536E-4,2.6597328E-2,-1.4005954E-2,1.5639473E-2,-2.3155827E-3,-1.2304323E-2,8.362144E-4,-1.675434E-3,-2.1250341E-2,-5.788433E-3,-4.299636E-2,2.0413483E-2,8.284864E-3,1.597114E-3,1.3585035E-2],"categories":[],"categories_nodes":[],"categories_segments":[],"categories_sizes":[],"default_left":[0,0,0,0,0,0,0,0,0,0,0,0,0,0,0,0,0,0,0,0,0,0,0,0,0,0,0,0,0,0,0,0,0,0,0,0,0,0,0,0,0,0,0,0,0,0,0,0,0,0,0,0,0,0,0,0,0,0,0,0,0,0,0,0,0,0,0,0,0,0,0,0,0,0,0,0,0,0,0,0,0,0,0,0,0,0,0,0,0,0,0,0,0,0,0,0,0,0,0,0,0,0,0,0,0,0,0,0,0,0,0,0,0,0,0,0,0,0,0,0,0,0,0,0,0,0,0],"id":10,"left_children":[1,3,5,7,9,11,13,15,17,19,21,23,25,27,29,31,33,35,37,39,41,43,45,47,49,51,53,55,57,59,61,63,65,67,69,71,73,75,77,79,81,83,85,87,89,91,93,95,97,99,101,103,105,107,109,111,113,115,117,119,121,123,125,-1,-1,-1,-1,-1,-1,-1,-1,-1,-1,-1,-1,-1,-1,-1,-1,-1,-1,-1,-1,-1,-1,-1,-1,-1,-1,-1,-1,-1,-1,-1,-1,-1,-1,-1,-1,-1,-1,-1,-1,-1,-1,-1,-1,-1,-1,-1,-1,-1,-1,-1,-1,-1,-1,-1,-1,-1,-1,-1,-1,-1,-1,-1,-1],"loss_changes":[2.7111182E3,4.822832E2,4.695249E2,1.0944043E2,1.6089743E2,2.746405E2,1.553603E2,7.5243835E1,4.5682495E1,5.394648E1,1.0744275E2,4.1284924E1,1.7547473E2,6.1801147E1,9.867352E1,5.232202E1,4.265468E1,2.38042E1,3.634149E1,3.148615E1,2.872718E1,3.5977722E1,5.161563E1,2.4213703E1,3.8457844E1,7.280835E1,5.7151978E1,4.0779488E1,4.8616108E1,2.0970764E1,6.102118E1,3.8330017E1,2.1169561E1,2.9197533E1,4.4220352E1,2.671733E1,8.660034E0,2.9633057E1,3.087347E1,8.228067E0,2.9642792E1,1.1711113E1,1.767119E1,1.9264008E1,2.4888855E1,2.9888027E1,2.7933243E1,2.3391497E1,1.2754112E1,3.1114975E1,3.0395056E1,3.3000854E1,2.8724224E1,3.0261597E1,3.9369324E1,1.1625107E1,1.0627794E1,4.840503E1,4.344615E1,2.1803558E1,1.022139E1,4.5493164E1,3.5475975E1,0E0,0E0,0E0,0E0,0E0,0E0,0E0,0E0,0E0,0E0,0E0,0E0,0E0,0E0,0E0,0E0,0E0,0E0,0E0,0E0,0E0,0E0,0E0,0E0,0E0,0E0,0E0,0E0,0E0,0E0,0E0,0E0,0E0,0E0,0E0,0E0,0E0,0E0,0E0,0E0,0E0,0E0,0E0,0E0,0E0,0E0,0E0,0E0,0E0,0E0,0E0,0E0,0E0,0E0,0E0,0E0,0E0,0E0,0E0,0E0,0E0,0E0,0E0,0E0],"parents":[2147483647,0,0,1,1,2,2,3,3,4,4,5,5,6,6,7,7,8,8,9,9,10,10,11,11,12,12,13,13,14,14,15,15,16,16,17,17,18,18,19,19,20,20,21,21,22,22,23,23,24,24,25,25,26,26,27,27,28,28,29,29,30,30,31,31,32,32,33,33,34,34,35,35,36,36,37,37,38,38,39,39,40,40,41,41,42,42,43,43,44,44,45,45,46,46,47,47,48,48,49,49,50,50,51,51,52,52,53,53,54,54,55,55,56,56,57,57,58,58,59,59,60,60,61,61,62,62],"right_children":[2,4,6,8,10,12,14,16,18,20,22,24,26,28,30,32,34,36,38,40,42,44,46,48,50,52,54,56,58,60,62,64,66,68,70,72,74,76,78,80,82,84,86,88,90,92,94,96,98,100,102,104,106,108,110,112,114,116,118,120,122,124,126,-1,-1,-1,-1,-1,-1,-1,-1,-1,-1,-1,-1,-1,-1,-1,-1,-1,-1,-1,-1,-1,-1,-1,-1,-1,-1,-1,-1,-1,-1,-1,-1,-1,-1,-1,-1,-1,-1,-1,-1,-1,-1,-1,-1,-1,-1,-1,-1,-1,-1,-1,-1,-1,-1,-1,-1,-1,-1,-1,-1,-1,-1,-1,-1],"split_conditions":[1.198E1,9.43E0,1E0,6E0,4E0,1.6603E2,1.504E1,3.0887E2,6.72E0,4.7571E2,2.7687E2,4E0,1.504E1,1.6212E2,1.7727E2,1E0,1E0,7.3E2,7.4328E2,2E0,3.218E3,1.958E1,1E0,1.814E1,2.084E1,5E0,1.6E1,2.981E1,4E0,5E0,2E0,2.1E4,2.7E1,1.5E1,2.7429E4,1.477E1,1.53E0,1.437E1,3.7369E4,1E0,1E0,1E0,5E0,1E0,9.5E1,7.4328E2,4E0,1.28E2,1.5095E4,8.961E1,1.5134E4,6.5049E2,6.0982E2,1E0,2.307E1,3.39E2,1.1E1,1.9E1,1.7E1,6.9E4,1.603E1,9E3,9.085E2,5.495755E-3,-3.125699E-2,-1.440928E-2,1.9909307E-2,4.4199176E-2,-1.4833111E-3,-7.2602923E-3,-2.4067147E-2,-3.982436E-2,-1.669611E-2,-1.44498665E-2,-4.1100122E-2,-3.639919E-2,-2.4286589E-2,7.5748703E-3,-2.0970127E-2,4.1745648E-2,-2.0648316E-3,8.3082E-5,-1.4557893E-2,1.6189458E-2,3.5326976E-2,6.5580555E-3,-2.832316E-2,-2.8132562E-2,-4.1971644E-3,-1.6344326E-3,-1.9333396E-2,-4.0157847E-3,1.3069599E-2,-5.5640438E-3,-1.5562394E-2,-1.0121995E-2,1.1564811E-2,2.2685196E-2,-1.8583836E-2,-3.1757634E-2,-8.934604E-3,3.1463772E-2,-4.3786136E-3,1.1614238E-2,2.5024224E-2,2.5195532E-4,1.1292374E-2,3.5586525E-2,2.2702413E-2,1.3212507E-2,2.1164993E-2,-3.752748E-2,-8.7930536E-4,2.6597328E-2,-1.4005954E-2,1.5639473E-2,-2.3155827E-3,-1.2304323E-2,8.362144E-4,-1.675434E-3,-2.1250341E-2,-5.788433E-3,-4.299636E-2,2.0413483E-2,8.284864E-3,1.597114E-3,1.3585035E-2],"split_indices":[72,72,116,54,54,1,72,1,72,1,1,54,72,1,1,134,47,5,1,55,35,3,44,3,3,54,12,3,47,32,44,2,45,29,36,3,3,3,68,86,116,120,44,134,63,1,47,40,36,1,70,1,1,47,3,41,54,12,23,2,3,69,1,0,0,0,0,0,0,0,0,0,0,0,0,0,0,0,0,0,0,0,0,0,0,0,0,0,0,0,0,0,0,0,0,0,0,0,0,0,0,0,0,0,0,0,0,0,0,0,0,0,0,0,0,0,0,0,0,0,0,0,0,0,0,0,0],"split_type":[0,0,0,0,0,0,0,0,0,0,0,0,0,0,0,0,0,0,0,0,0,0,0,0,0,0,0,0,0,0,0,0,0,0,0,0,0,0,0,0,0,0,0,0,0,0,0,0,0,0,0,0,0,0,0,0,0,0,0,0,0,0,0,0,0,0,0,0,0,0,0,0,0,0,0,0,0,0,0,0,0,0,0,0,0,0,0,0,0,0,0,0,0,0,0,0,0,0,0,0,0,0,0,0,0,0,0,0,0,0,0,0,0,0,0,0,0,0,0,0,0,0,0,0,0,0,0],"sum_hessian":[1.7013156E4,5.979976E3,1.1033181E4,2.7620073E3,3.217969E3,6.217422E3,4.8157593E3,1.2008861E3,1.5611211E3,9.097272E2,2.3082417E3,6.653429E2,5.5520786E3,1.7819857E3,3.0337737E3,5.6677606E2,6.3411005E2,6.136975E2,9.474236E2,5.7861633E2,3.3111087E2,7.805454E2,1.5276964E3,2.5213467E2,4.1320825E2,1.8364028E3,3.715676E3,1.1541123E2,1.6665745E3,2.522755E2,2.781498E3,5.0302365E2,6.3752445E1,5.4144E1,5.79966E2,1.7970265E2,4.3399487E2,7.740291E2,1.7339449E2,2.0372143E1,5.582442E2,1.444664E2,1.8664445E2,4.6738553E2,3.131599E2,5.0251065E2,1.0251858E3,1.7431596E2,7.7818695E1,2.1762617E2,1.9558208E2,8.2430066E2,1.0121022E3,1.5072673E3,2.2084087E3,9.3934E1,2.1477238E1,6.8062506E2,9.859494E2,2.1885419E2,3.342131E1,1.2094286E3,1.5720695E3,2.5812979E1,4.7721066E2,3.8939045E1,2.4813402E1,1.7172182E1,3.697182E1,3.5937982E2,2.205862E2,8.050878E1,9.919387E1,1.2333936E1,4.2166092E2,2.898918E2,4.841373E2,4.364824E1,1.2974625E2,1.5668983E1,4.7031603E0,3.8321677E2,1.7502742E2,1.0528987E2,3.9176533E1,1.7397104E2,1.2673422E1,4.355307E2,3.1854836E1,1.0360474E2,2.0955516E2,3.8754324E2,1.1496741E2,4.029431E2,6.222426E2,9.822529E1,7.609068E1,7.13827E1,6.436001E0,8.697581E1,1.3065036E2,2.241212E1,1.7316995E2,6.054429E2,2.1885774E2,7.2639014E2,2.8571204E2,1.8432796E2,1.3229395E3,1.2106152E3,9.9779333E2,8.560967E1,8.324326E0,1.2818093E1,8.659145E0,1.7575607E2,5.0486902E2,6.5675433E2,3.2919504E2,1.4394135E2,7.491285E1,9.099401E0,2.4321909E1,4.0766095E2,8.0176764E2,1.3155073E3,2.565622E2],"tree_param":{"num_deleted":"0","num_feature":"135","num_nodes":"127","size_leaf_vector":"1"}},{"base_weights":[1.8580769E-4,-5.3919876E-1,2.9016712E-1,-8.378486E-1,-2.8425673E-1,4.672477E-1,5.934555E-2,-4.51599E-1,-9.191383E-1,7.524421E-2,-4.253289E-1,-8.592884E-2,5.3387135E-1,-9.8408036E-2,2.6484466E-1,-6.10524E-1,3.1039983E-1,-1.0257335E0,-5.955713E-1,-1.4341266E-1,3.9014846E-1,-7.3424685E-1,-2.663782E-1,2.4423379E-1,-3.2814422E-1,3.5762915E-1,7.1964043E-1,-3.2536942E-1,4.0500533E-2,5.550472E-1,1.3185053E-1,-1.3232213E0,-5.125341E-1,7.572549E-1,-9.038952E-2,-1.0702395E0,-3.583513E-1,-7.652209E-1,-9.175842E-2,-3.844276E-3,-6.596323E-1,2.2227687E-1,8.2788724E-1,-8.054144E-1,-7.065461E-2,-8.9830756E-2,-4.4487548E-1,1.073174E-2,1.0108567E0,-5.331164E-1,-6.847306E-2,2.4779235E-1,6.6031855E-1,8.850957E-1,6.338693E-1,-4.1637275E-1,1.8236862E-1,-2.2616127E-1,1.534313E-1,9.446684E-1,4.6692497E-1,-7.565023E-2,2.9799542E-1,-4.3652054E-2,4.435799E-3,-9.210839E-3,-2.7409615E-2,1.3578342E-2,4.9283914E-2,7.5485096E-3,-2.647323E-2,-2.7453613E-2,-3.6433272E-2,9.455176E-5,-2.8632835E-2,-2.382001E-2,3.085036E-2,-8.311025E-3,2.6071077E-2,-3.043581E-3,2.941836E-2,-2.6816814E-3,-2.6526762E-2,1.1277751E-2,-9.322197E-3,2.9589118E-2,4.896017E-3,-3.0111022E-2,-1.8035177E-2,2.25738E-2,-1.204305E-2,-7.335254E-3,4.314873E-3,-1.723972E-2,-4.068207E-3,-9.236367E-3,1.1033664E-2,1.9910993E-2,4.1608404E-2,-2.5529537E-2,-7.9904925E-3,-4.5831935E-3,3.8592454E-2,1.2132049E-2,1.7800211E-3,2.5029896E-2,9.80561E-3,2.2386573E-2,3.0068737E-2,1.5008996E-2,2.2651894E-2,-3.6951993E-3,-1.788919E-2,-2.7052749E-2,1.2262192E-2,4.480502E-3,-1.1515207E-2,2.1148392E-3,1.5045009E-2,3.715908E-2,1.6571822E-2,1.5347573E-2,-6.5516485E-3,-4.78699E-3,1.0398698E-2,1.1061095E-2,-7.6718624E-3],"categories":[],"categories_nodes":[],"categories_segments":[],"categories_sizes":[],"default_left":[0,0,0,0,0,0,0,0,0,0,0,0,0,0,0,0,0,0,0,0,0,0,0,0,0,0,0,0,0,0,0,0,0,0,0,0,0,0,0,0,0,0,0,0,0,0,0,0,0,0,0,0,0,0,0,0,0,0,0,0,0,0,0,0,0,0,0,0,0,0,0,0,0,0,0,0,0,0,0,0,0,0,0,0,0,0,0,0,0,0,0,0,0,0,0,0,0,0,0,0,0,0,0,0,0,0,0,0,0,0,0,0,0,0,0,0,0,0,0,0,0,0,0,0,0,0,0],"id":11,"left_children":[1,3,5,7,9,11,13,15,17,19,21,23,25,27,29,31,33,35,37,39,41,43,45,47,49,51,53,55,57,59,61,63,65,67,69,71,73,75,77,79,81,83,85,87,89,91,93,95,97,99,101,103,105,107,109,111,113,115,117,119,121,123,125,-1,-1,-1,-1,-1,-1,-1,-1,-1,-1,-1,-1,-1,-1,-1,-1,-1,-1,-1,-1,-1,-1,-1,-1,-1,-1,-1,-1,-1,-1,-1,-1,-1,-1,-1,-1,-1,-1,-1,-1,-1,-1,-1,-1,-1,-1,-1,-1,-1,-1,-1,-1,-1,-1,-1,-1,-1,-1,-1,-1,-1,-1,-1,-1],"loss_changes":[2.65636E3,4.518739E2,4.5143097E2,8.54303E1,1.6257245E2,2.3038782E2,1.555075E2,5.7994972E1,7.72605E1,6.2306602E1,1.1283255E2,5.3875385E1,1.8237903E2,8.55766E1,8.032567E1,2.6928223E1,1.4939956E1,5.0018555E1,4.795294E1,3.849323E1,2.7061085E1,3.6848175E1,4.7904816E1,5.1048985E1,2.0638954E1,9.507254E1,3.7965088E1,4.7691963E1,5.0761185E1,2.2025024E1,4.931501E1,1.0974709E1,2.882302E1,9.9081135E0,1.2684436E1,3.540161E1,2.3775537E1,3.2245804E1,2.6615128E1,4.192496E1,1.5346977E1,2.3241394E1,1.1629524E1,2.8804321E1,2.1925299E1,2.8691442E1,3.216899E1,2.5897625E1,7.9718018E0,1.8636776E1,2.0772392E1,6.426372E1,4.6548126E1,1.4854553E1,2.9577454E1,4.8131577E1,4.0609898E1,3.1088413E1,3.4448547E1,1.3689606E1,1.9566124E1,2.3591015E1,3.3994392E1,0E0,0E0,0E0,0E0,0E0,0E0,0E0,0E0,0E0,0E0,0E0,0E0,0E0,0E0,0E0,0E0,0E0,0E0,0E0,0E0,0E0,0E0,0E0,0E0,0E0,0E0,0E0,0E0,0E0,0E0,0E0,0E0,0E0,0E0,0E0,0E0,0E0,0E0,0E0,0E0,0E0,0E0,0E0,0E0,0E0,0E0,0E0,0E0,0E0,0E0,0E0,0E0,0E0,0E0,0E0,0E0,0E0,0E0,0E0,0E0,0E0,0E0,0E0,0E0],"parents":[2147483647,0,0,1,1,2,2,3,3,4,4,5,5,6,6,7,7,8,8,9,9,10,10,11,11,12,12,13,13,14,14,15,15,16,16,17,17,18,18,19,19,20,20,21,21,22,22,23,23,24,24,25,25,26,26,27,27,28,28,29,29,30,30,31,31,32,32,33,33,34,34,35,35,36,36,37,37,38,38,39,39,40,40,41,41,42,42,43,43,44,44,45,45,46,46,47,47,48,48,49,49,50,50,51,51,52,52,53,53,54,54,55,55,56,56,57,57,58,58,59,59,60,60,61,61,62,62],"right_children":[2,4,6,8,10,12,14,16,18,20,22,24,26,28,30,32,34,36,38,40,42,44,46,48,50,52,54,56,58,60,62,64,66,68,70,72,74,76,78,80,82,84,86,88,90,92,94,96,98,100,102,104,106,108,110,112,114,116,118,120,122,124,126,-1,-1,-1,-1,-1,-1,-1,-1,-1,-1,-1,-1,-1,-1,-1,-1,-1,-1,-1,-1,-1,-1,-1,-1,-1,-1,-1,-1,-1,-1,-1,-1,-1,-1,-1,-1,-1,-1,-1,-1,-1,-1,-1,-1,-1,-1,-1,-1,-1,-1,-1,-1,-1,-1,-1,-1,-1,-1,-1,-1,-1,-1,-1,-1],"split_conditions":[1.198E1,9.43E0,1E0,3E0,4E0,1.6603E2,1.88E4,1E0,6.1499E2,1.4575E4,2.7687E2,1.5485E4,1.709E1,1.504E1,1.37E4,3.6E3,2.632E3,3.137E1,1E0,1.27793E5,1E0,1E0,2E0,1.937E1,2.265E1,6.5049E2,2.4369E4,1E0,7.7E3,5.995E3,1.601E1,3.7E1,6.1526E4,6.9E4,1E0,1.1302E4,4.99E4,1.71E2,2.474E1,1.0773E4,3E0,1.8387E4,8.578E3,3.29E1,6E0,1E0,4E0,4.3E1,2.826E4,3E3,2.582E1,6E0,1.587E4,1E0,2.307E1,1.68848E5,1.327E3,4.5E4,3.137E1,4.962E3,1.5E1,7.6E1,1.76E2,-4.3652054E-2,4.435799E-3,-9.210839E-3,-2.7409615E-2,1.3578342E-2,4.9283914E-2,7.5485096E-3,-2.647323E-2,-2.7453613E-2,-3.6433272E-2,9.455176E-5,-2.8632835E-2,-2.382001E-2,3.085036E-2,-8.311025E-3,2.6071077E-2,-3.043581E-3,2.941836E-2,-2.6816814E-3,-2.6526762E-2,1.1277751E-2,-9.322197E-3,2.9589118E-2,4.896017E-3,-3.0111022E-2,-1.8035177E-2,2.25738E-2,-1.204305E-2,-7.335254E-3,4.314873E-3,-1.723972E-2,-4.068207E-3,-9.236367E-3,1.1033664E-2,1.9910993E-2,4.1608404E-2,-2.5529537E-2,-7.9904925E-3,-4.5831935E-3,3.8592454E-2,1.2132049E-2,1.7800211E-3,2.5029896E-2,9.80561E-3,2.2386573E-2,3.0068737E-2,1.5008996E-2,2.2651894E-2,-3.6951993E-3,-1.788919E-2,-2.7052749E-2,1.2262192E-2,4.480502E-3,-1.1515207E-2,2.1148392E-3,1.5045009E-2,3.715908E-2,1.6571822E-2,1.5347573E-2,-6.5516485E-3,-4.78699E-3,1.0398698E-2,1.1061095E-2,-7.6718624E-3],"split_indices":[72,72,116,54,54,1,0,120,1,0,1,70,72,72,69,0,35,3,118,67,120,134,44,3,3,1,18,134,0,35,72,42,18,67,22,35,30,45,3,71,57,35,28,37,54,7,33,37,2,0,72,54,11,7,3,67,36,2,3,71,43,29,40,0,0,0,0,0,0,0,0,0,0,0,0,0,0,0,0,0,0,0,0,0,0,0,0,0,0,0,0,0,0,0,0,0,0,0,0,0,0,0,0,0,0,0,0,0,0,0,0,0,0,0,0,0,0,0,0,0,0,0,0,0,0,0,0],"split_type":[0,0,0,0,0,0,0,0,0,0,0,0,0,0,0,0,0,0,0,0,0,0,0,0,0,0,0,0,0,0,0,0,0,0,0,0,0,0,0,0,0,0,0,0,0,0,0,0,0,0,0,0,0,0,0,0,0,0,0,0,0,0,0,0,0,0,0,0,0,0,0,0,0,0,0,0,0,0,0,0,0,0,0,0,0,0,0,0,0,0,0,0,0,0,0,0,0,0,0,0,0,0,0,0,0,0,0,0,0,0,0,0,0,0,0,0,0,0,0,0,0,0,0,0,0,0,0],"sum_hessian":[1.6981156E4,5.937029E3,1.1044128E4,2.733088E3,3.203941E3,6.249015E3,4.795113E3,4.763339E2,2.256754E3,9.030704E2,2.3008706E3,6.7168884E2,5.577326E3,2.7129832E3,2.0821294E3,3.942968E2,8.203708E1,1.6958932E3,5.608608E2,5.333076E2,3.697628E2,7.804535E2,1.520417E3,2.842376E2,3.8745123E2,2.8635522E3,2.713774E3,1.0295193E3,1.683464E3,6.5333435E2,1.4287952E3,4.6148373E1,3.4814844E2,3.8368824E1,4.366825E1,1.5893026E3,1.06590546E2,4.191881E2,1.4167265E2,4.205992E2,1.1270839E2,2.6835657E2,1.0140621E2,7.046672E2,7.578634E1,7.651392E2,7.552778E2,2.1865309E2,6.55845E1,2.1594298E2,1.7150826E2,2.102454E3,7.610982E2,9.2332733E2,1.7904465E3,8.7319415E2,1.5632516E2,5.00541E2,1.182923E3,1.1871802E2,5.3461633E2,6.355688E2,7.932263E2,4.1758457E1,4.389918E0,2.3595192E2,1.12196526E2,3.0060879E1,8.307946E0,3.1030685E1,1.2637566E1,8.5745435E2,7.318482E2,6.75948E1,3.8995747E1,4.1037836E2,8.809758E0,1.19188934E2,2.2483713E1,3.8345154E2,3.7147663E1,3.3707E1,7.900139E1,2.0718472E2,6.1171852E1,7.990006E1,2.1506151E1,3.3364774E2,3.7101944E2,2.1432758E1,5.4353584E1,4.576003E2,3.075389E2,5.1952313E2,2.3575464E2,1.1567431E2,1.0297879E2,3.698601E1,2.8598495E1,9.446458E1,1.214784E2,1.621701E2,9.338148E0,1.1241858E3,9.782683E2,4.8374475E2,2.7735342E2,4.755293E2,4.47798E2,9.2334845E2,8.6709814E2,3.4465762E2,5.285365E2,2.6827494E1,1.2949767E2,1.5134079E2,3.492002E2,9.6280975E2,2.2011319E2,6.4071495E1,5.464652E1,4.9682883E2,3.7787518E1,5.2924677E2,1.0632204E2,6.978192E2,9.54071E1],"tree_param":{"num_deleted":"0","num_feature":"135","num_nodes":"127","size_leaf_vector":"1"}},{"base_weights":[-2.4749709E-3,-5.0093335E-1,2.92216E-1,-8.1670153E-1,-2.5777137E-1,4.6648955E-1,6.441673E-2,-9.316773E-1,-5.2370965E-1,7.8851946E-2,-3.9061016E-1,1.3310045E-1,5.759071E-1,-3.1334656E-1,1.4035767E-1,-1.1310588E0,-7.605881E-1,-7.132825E-1,-2.0645719E-2,-1.0976549E-1,3.480493E-1,-7.2107965E-1,-2.590992E-1,-5.6419894E-2,3.5604388E-1,4.0417764E-1,7.1659935E-1,-4.208793E-1,1.9325763E-1,-8.944535E-2,2.6318562E-1,-1.2890897E0,-8.596151E-1,-4.3655446E-1,-8.945745E-1,-2.8988785E-1,-9.1412234E-1,-3.4757775E-1,3.25987E-1,-1.6878484E-1,9.092324E-1,1.9375442E-1,7.579299E-1,-7.8751713E-1,-7.528631E-2,-5.856822E-2,-4.2974257E-1,-1.6756561E-1,3.359288E-1,-5.110561E-1,4.2347792E-1,6.1970216E-1,2.3056875E-1,8.669569E-1,5.7921755E-1,-2.67095E-4,-5.50669E-1,4.1874817E-1,-7.1105653E-1,3.5956177E-1,-1.4444032E-1,7.2460717E-1,2.1810544E-1,5.8945497E-3,-3.8852524E-2,-2.8742477E-2,6.337704E-3,-1.5679317E-2,2.2964127E-2,-3.1900793E-2,-1.7558506E-2,2.9020263E-3,-2.0150417E-2,-2.7913772E-2,2.162379E-2,-1.6079817E-2,3.1785544E-2,1.6489476E-2,-9.904065E-3,3.4253437E-2,-6.3396487E-3,3.784666E-2,-1.3936623E-2,9.928506E-3,-7.800312E-3,2.8582096E-2,-2.9836046E-3,-2.7728623E-2,-1.6238838E-2,-3.361367E-2,5.6123342E-3,1.3545861E-3,-1.2131501E-2,-1.687043E-2,-2.9517089E-3,4.0195314E-3,-1.2906199E-2,-1.4486537E-2,1.473145E-2,1.1864721E-3,-3.5674434E-2,2.9294908E-2,9.567495E-3,1.5623886E-2,3.158535E-2,2.2468418E-2,4.852353E-3,2.9206693E-2,2.1165507E-2,-2.4142396E-2,1.7387774E-2,2.7383717E-3,-3.4813352E-2,-3.300614E-2,-1.2865097E-2,-3.9269184E-3,2.1545898E-2,-5.8741868E-3,-5.0436445E-2,1.3776113E-2,-1.7203588E-2,9.100415E-3,-5.716867E-3,1.0577619E-2,2.778657E-2,3.7848095E-3,1.247619E-2],