{"learner":{"attributes":{"scikit_learn":"{\"_estimator_type\": \"classifier\"}"},"feature_names":["loan_amnt","installment","annual_inc","dti","delinq_2yrs","fico_range_low","fico_range_high","inq_last_6mths","mths_since_last_delinq","open_acc","pub_rec","revol_bal","total_acc","collections_12_mths_ex_med","mths_since_last_major_derog","policy_code","acc_now_delinq","tot_coll_amt","tot_cur_bal","open_acc_6m","open_act_il","open_il_12m","open_il_24m","mths_since_rcnt_il","total_bal_il","il_util","open_rv_12m","open_rv_24m","max_bal_bc","all_util","total_rev_hi_lim","inq_fi","total_cu_tl","inq_last_12m","acc_open_past_24mths","avg_cur_bal","bc_open_to_buy","bc_util","chargeoff_within_12_mths","delinq_amnt","mo_sin_old_il_acct","mo_sin_old_rev_tl_op","mo_sin_rcnt_rev_tl_op","mo_sin_rcnt_tl","mort_acc","mths_since_recent_bc","mths_since_recent_bc_dlq","mths_since_recent_inq","mths_since_recent_revol_delinq","num_accts_ever_120_pd","num_actv_bc_tl","num_actv_rev_tl","num_bc_sats","num_bc_tl","num_il_tl","num_op_rev_tl","num_rev_accts","num_rev_tl_bal_gt_0","num_sats","num_tl_120dpd_2m","num_tl_30dpd","num_tl_90g_dpd_24m","num_tl_op_past_12m","pct_tl_nvr_dlq","percent_bc_gt_75","pub_rec_bankruptcies","tax_liens","tot_hi_cred_lim","total_bal_ex_mort","total_bc_limit","total_il_high_credit_limit","credit_history_days","int_rate_cleaned","revol_util_cleaned","emp_length_numeric","term_ 60 months","grade_B","grade_C","grade_D","grade_E","grade_F","grade_G","sub_grade_A2","sub_grade_A3","sub_grade_A4","sub_grade_A5","sub_grade_B1","sub_grade_B2","sub_grade_B3","sub_grade_B4","sub_grade_B5","sub_grade_C1","sub_grade_C2","sub_grade_C3","sub_grade_C4","sub_grade_C5","sub_grade_D1","sub_grade_D2","sub_grade_D3","sub_grade_D4","sub_grade_D5","sub_grade_E1","sub_grade_E2","sub_grade_E3","sub_grade_E4","sub_grade_E5","sub_grade_F1","sub_grade_F2","sub_grade_F3","sub_grade_F4","sub_grade_F5","sub_grade_G1","sub_grade_G2","sub_grade_G3","sub_grade_G4","sub_grade_G5","home_ownership_MORTGAGE","home_ownership_OWN","home_ownership_RENT","verification_status_Source Verified","verification_status_Verified","purpose_credit_card","purpose_debt_consolidation","purpose_home_improvement","purpose_house","purpose_major_purchase","purpose_medical","purpose_moving","purpose_other","purpose_renewable_energy","purpose_small_business","purpose_vacation","purpose_wedding","initial_list_status_w","application_type_Joint App"],"feature_types":["float","float","float","float","float","float","float","float","float","float","float","float","float","float","float","float","float","float","float","float","float","float","float","float","float","float","float","float","float","float","float","float","float","float","float","float","float","float","float","float","float","float","float","float","float","float","float","float","float","float","float","float","float","float","float","float","float","float","float","float","float","float","float","float","float","float","float","float","float","float","float","int","float","float","float","i","i","i","i","i","i","i","i","i","i","i","i","i","i","i","i","i","i","i","i","i","i","i","i","i","i","i","i","i","i","i","i","i","i","i","i","i","i","i","i","i","i","i","i","i","i","i","i","i","i","i","i","i","i","i","i","i","i","i","i"],"gradient_booster":{"model":{"gbtree_model_param":{"num_parallel_tree":"1","num_trees":"100"},"iteration_indptr":[0,1,2,3,4,5,6,7,8,9,10,11,12,13,14,15,16,17,18,19,20,21,22,23,24,25,26,27,28,29,30,31,32,33,34,35,36,37,38,39,40,41,42,43,44,45,46,47,48,49,50,51,52,53,54,55,56,57,58,59,60,61,62,63,64,65,66,67,68,69,70,71,72,73,74,75,76,77,78,79,80,81,82,83,84,85,86,87,88,89,90,91,92,93,94,95,96,97,98,99,100],"tree_info":[0,0,0,0,0,0,0,0,0,0,0,0,0,0,0,0,0,0,0,0,0,0,0,0,0,0,0,0,0,0,0,0,0,0,0,0,0,0,0,0,0,0,0,0,0,0,0,0,0,0,0,0,0,0,0,0,0,0,0,0,0,0,0,0,0,0,0,0,0,0,0,0,0,0,0,0,0,0,0,0,0,0,0,0,0,0,0,0,0,0,0,0,0,0,0,0,0,0,0,0],"trees":[{"base_weights":[-1.6331331E-9,-7.199915E-1,3.914495E-1,-1.1012611E0,-3.8654968E-1,6.2403864E-1,8.709429E-2,-6.1572665E-1,-1.2025378E0,-5.94195E-1,-2.5919886E-2,1.6475295E-1,7.729009E-1,-4.3227527E-1,1.9211361E-1,-7.8073484E-1,2.1974003E-1,-1.3254292E0,-8.0415565E-1,-2.0158312E-1,-7.496911E-1,4.279609E-1,-2.922284E-1,-1.9611225E-1,3.5151985E-1,4.6510878E-1,9.1889906E-1,-1.7551875E-1,-7.57184E-1,-1.2780097E-1,3.7765148E-1,-1.0663783E-1,-4.6609692E-2,3.0302081E-2,-1.5294118E-1,-1.4675786E-1,-1.0711316E-1,-5.634285E-2,-1.2538353E-1,2.688697E-4,-6.43283E-2,-8.812838E-2,-4.706648E-2,7.623501E-2,1.5360375E-2,8.2554156E-4,-4.892792E-2,2.1121403E-2,-4.5566093E-2,-6.3566244E-3,5.7817843E-2,7.798244E-2,2.0980299E-2,1.1106455E-1,8.021152E-2,-3.3406783E-2,3.4443796E-2,-1.1956894E-1,-5.1004183E-2,3.9113753E-2,-1.9005572E-2,5.6568403E-2,2.3451768E-2],"categories":[],"categories_nodes":[],"categories_segments":[],"categories_sizes":[],"default_left":[0,0,0,0,0,0,0,0,0,0,0,0,0,0,0,0,0,0,0,0,0,0,0,0,0,0,0,0,0,0,0,0,0,0,0,0,0,0,0,0,0,0,0,0,0,0,0,0,0,0,0,0,0,0,0,0,0,0,0,0,0,0,0],"id":0,"left_children":[1,3,5,7,9,11,13,15,17,19,21,23,25,27,29,31,33,35,37,39,41,43,45,47,49,51,53,55,57,59,61,-1,-1,-1,-1,-1,-1,-1,-1,-1,-1,-1,-1,-1,-1,-1,-1,-1,-1,-1,-1,-1,-1,-1,-1,-1,-1,-1,-1,-1,-1,-1,-1],"loss_changes":[5.3491885E3,8.493928E2,8.702993E2,1.5258594E2,2.6712946E2,4.7634155E2,2.906367E2,7.464212E1,1.2519116E2,1.3805927E2,1.578142E2,1.1512535E2,2.3606836E2,7.463699E1,2.630971E2,4.0064972E1,1.3555525E1,6.961719E1,6.538266E1,5.807422E1,5.911487E1,4.417711E1,4.872133E1,6.171553E1,1.0590616E2,1.360463E2,7.902002E1,4.1495083E1,4.2233383E1,5.2653046E1,7.536578E1,0E0,0E0,0E0,0E0,0E0,0E0,0E0,0E0,0E0,0E0,0E0,0E0,0E0,0E0,0E0,0E0,0E0,0E0,0E0,0E0,0E0,0E0,0E0,0E0,0E0,0E0,0E0,0E0,0E0,0E0,0E0,0E0],"parents":[2147483647,0,0,1,1,2,2,3,3,4,4,5,5,6,6,7,7,8,8,9,9,10,10,11,11,12,12,13,13,14,14,15,15,16,16,17,17,18,18,19,19,20,20,21,21,22,22,23,23,24,24,25,25,26,26,27,27,28,28,29,29,30,30],"right_children":[2,4,6,8,10,12,14,16,18,20,22,24,26,28,30,32,34,36,38,40,42,44,46,48,50,52,54,56,58,60,62,-1,-1,-1,-1,-1,-1,-1,-1,-1,-1,-1,-1,-1,-1,-1,-1,-1,-1,-1,-1,-1,-1,-1,-1,-1,-1,-1,-1,-1,-1,-1,-1],"split_conditions":[1.198E1,9.43E0,1E0,3E0,4.8345E2,8E3,7.7E3,1E0,6.2066E2,4E0,1E0,1.3687E2,1.504E1,6.24E4,1.504E1,3.0887E2,3E0,2.85E1,1.1E1,1E0,6E0,3.623E3,2E0,4E0,1.504E1,5E0,6.917E3,3.081E1,1.5246E2,6.49E4,2E0,-1.0663783E-1,-4.6609692E-2,3.0302081E-2,-1.5294118E-1,-1.4675786E-1,-1.0711316E-1,-5.634285E-2,-1.2538353E-1,2.688697E-4,-6.43283E-2,-8.812838E-2,-4.706648E-2,7.623501E-2,1.5360375E-2,8.2554156E-4,-4.892792E-2,2.1121403E-2,-4.5566093E-2,-6.3566244E-3,5.7817843E-2,7.798244E-2,2.0980299E-2,1.1106455E-1,8.021152E-2,-3.3406783E-2,3.4443796E-2,-1.1956894E-1,-5.1004183E-2,3.9113753E-2,-1.9005572E-2,5.6568403E-2,2.3451768E-2],"split_indices":[72,72,116,54,1,0,0,120,1,54,44,1,72,2,72,1,32,73,54,116,51,28,20,54,72,54,11,3,1,67,44,0,0,0,0,0,0,0,0,0,0,0,0,0,0,0,0,0,0,0,0,0,0,0,0,0,0,0,0,0,0,0,0],"split_type":[0,0,0,0,0,0,0,0,0,0,0,0,0,0,0,0,0,0,0,0,0,0,0,0,0,0,0,0,0,0,0,0,0,0,0,0,0,0,0,0,0,0,0,0,0,0,0,0,0,0,0,0,0,0,0,0,0,0,0,0,0,0,0],"sum_hessian":[1.89775E4,6.6835796E3,1.229392E4,3.1170864E3,3.5664934E3,6.967946E3,5.3259746E3,5.391941E2,2.5778923E3,2.262901E3,1.3035925E3,1.7061271E3,5.261819E3,8.9528015E2,4.4306943E3,4.5031955E2,8.887451E1,1.9683699E3,6.0952246E2,6.4262775E2,1.620273E3,4.818124E2,8.2178015E2,5.8184814E2,1.1242789E3,1.6942341E3,3.5675845E3,5.0094925E2,3.9433087E2,1.6265018E3,2.8041926E3,2.3478305E2,2.155365E2,8.562451E1,3.25E0,1.2595338E3,7.0883606E2,3.9846503E2,2.1105745E2,4.40093E2,2.0253477E2,1.099551E3,5.207219E2,2.1634741E2,2.6546503E2,3.2584915E2,4.95931E2,2.2652863E2,3.5531955E2,3.9733954E2,7.269394E2,7.579071E2,9.36327E2,1.3471688E3,2.2204158E3,3.8416446E2,1.16784775E2,1.4075345E2,2.5357742E2,1.7365756E2,1.4528442E3,1.2107274E3,1.5934651E3],"tree_param":{"num_deleted":"0","num_feature":"135","num_nodes":"63","size_leaf_vector":"1"}},{"base_weights":[-4.6046283E-5,-6.4956397E-1,3.5269168E-1,-9.9494493E-1,-3.4827548E-1,5.6251186E-1,7.840351E-2,-1.2244093E0,-8.0932444E-1,-5.3551733E-1,-2.3303265E-2,1.4837013E-1,6.969067E-1,-1.9859792E-1,2.4160102E-1,-1.3112181E0,-4.014796E-1,-4.2276537E-1,-9.9718356E-1,-1.5558526E-1,-6.784048E-1,3.8563454E-1,-2.631648E-1,-3.6261138E-1,2.580911E-1,4.1898432E-1,8.2892436E-1,-3.7046123E-1,4.4841517E-2,-2.6253608E-1,3.4006593E-1,-1.4585581E-3,-1.3439435E-1,5.815533E-3,-7.958147E-2,2.8417079E-2,-5.5220943E-2,-7.177121E-2,-1.1769324E-1,-2.6752347E-2,8.168739E-2,-8.4198914E-2,-4.6619006E-2,9.2126526E-2,2.1997223E-2,2.585994E-2,-3.603208E-2,-1.6967034E-2,-1.0123868E-1,-7.814871E-3,4.426555E-2,7.0305035E-2,1.8886676E-2,1.04831986E-1,7.385679E-2,-4.787456E-2,2.2044806E-2,6.941407E-2,-2.1926563E-3,2.0029144E-2,-4.5871716E-2,5.0517965E-2,1.9721925E-2],"categories":[],"categories_nodes":[],"categories_segments":[],"categories_sizes":[],"default_left":[0,0,0,0,0,0,0,0,0,0,0,0,0,0,0,0,0,0,0,0,0,0,0,0,0,0,0,0,0,0,0,0,0,0,0,0,0,0,0,0,0,0,0,0,0,0,0,0,0,0,0,0,0,0,0,0,0,0,0,0,0,0,0],"id":1,"left_children":[1,3,5,7,9,11,13,15,17,19,21,23,25,27,29,31,33,35,37,39,41,43,45,47,49,51,53,55,57,59,61,-1,-1,-1,-1,-1,-1,-1,-1,-1,-1,-1,-1,-1,-1,-1,-1,-1,-1,-1,-1,-1,-1,-1,-1,-1,-1,-1,-1,-1,-1,-1,-1],"loss_changes":[4.3424287E3,6.937888E2,7.0685364E2,1.3136084E2,2.168656E2,3.8723242E2,2.4075974E2,9.8601074E1,1.2453516E2,1.2265326E2,1.2800548E2,9.575829E1,1.9241992E2,8.2632034E1,1.6643954E2,5.3223633E1,2.4306501E1,5.1812317E1,5.728882E1,6.763339E1,5.6643005E1,4.2609886E1,4.1786953E1,3.7694206E1,8.724261E1,1.1060031E2,6.981592E1,7.4175156E1,3.5479645E1,4.9861904E1,6.603549E1,0E0,0E0,0E0,0E0,0E0,0E0,0E0,0E0,0E0,0E0,0E0,0E0,0E0,0E0,0E0,0E0,0E0,0E0,0E0,0E0,0E0,0E0,0E0,0E0,0E0,0E0,0E0,0E0,0E0,0E0,0E0,0E0],"parents":[2147483647,0,0,1,1,2,2,3,3,4,4,5,5,6,6,7,7,8,8,9,9,10,10,11,11,12,12,13,13,14,14,15,15,16,16,17,17,18,18,19,19,20,20,21,21,22,22,23,23,24,24,25,25,26,26,27,27,28,28,29,29,30,30],"right_children":[2,4,6,8,10,12,14,16,18,20,22,24,26,28,30,32,34,36,38,40,42,44,46,48,50,52,54,56,58,60,62,-1,-1,-1,-1,-1,-1,-1,-1,-1,-1,-1,-1,-1,-1,-1,-1,-1,-1,-1,-1,-1,-1,-1,-1,-1,-1,-1,-1,-1,-1,-1,-1],"split_conditions":[1.198E1,9.43E0,1E0,3.0887E2,4.8345E2,8E3,1.504E1,1E0,5E0,4.6032E4,1E0,1.358E1,1.504E1,1.9075E4,7.7E3,2.1E4,1.02224E5,3.6984E4,9.041E3,1E0,1.907E1,2E0,1.6E1,3.0305E4,1.4067E2,5E0,1.4E4,1E0,6.7314E4,4.5E4,4.467E3,-1.4585581E-3,-1.3439435E-1,5.815533E-3,-7.958147E-2,2.8417079E-2,-5.5220943E-2,-7.177121E-2,-1.1769324E-1,-2.6752347E-2,8.168739E-2,-8.4198914E-2,-4.6619006E-2,9.2126526E-2,2.1997223E-2,2.585994E-2,-3.603208E-2,-1.6967034E-2,-1.0123868E-1,-7.814871E-3,4.426555E-2,7.0305035E-2,1.8886676E-2,1.04831986E-1,7.385679E-2,-4.787456E-2,2.2044806E-2,6.941407E-2,-2.1926563E-3,2.0029144E-2,-4.5871716E-2,5.0517965E-2,1.9721925E-2],"split_indices":[72,72,116,1,1,0,72,134,54,67,44,72,72,0,0,2,18,67,35,134,3,47,12,24,1,54,30,134,67,2,28,0,0,0,0,0,0,0,0,0,0,0,0,0,0,0,0,0,0,0,0,0,0,0,0,0,0,0,0,0,0,0,0],"split_type":[0,0,0,0,0,0,0,0,0,0,0,0,0,0,0,0,0,0,0,0,0,0,0,0,0,0,0,0,0,0,0,0,0,0,0,0,0,0,0,0,0,0,0,0,0,0,0,0,0,0,0,0,0,0,0,0,0,0,0,0,0,0,0],"sum_hessian":[1.895151E4,6.6695713E3,1.2281938E4,3.1063342E3,3.563237E3,6.958157E3,5.3237812E3,1.3866094E3,1.7197249E3,2.260271E3,1.3029661E3,1.7053063E3,5.252851E3,1.9736359E3,3.3501455E3,1.25376E3,1.3284938E2,5.634861E2,1.1562388E3,6.183069E2,1.6419641E3,4.814827E2,8.214834E2,3.0103784E2,1.4042684E3,1.69298E3,3.5598708E3,1.1565872E3,8.1704877E2,5.471401E2,2.8030054E3,3.0899971E1,1.22286E3,6.173911E1,7.111027E1,8.702407E1,4.76462E2,4.5453125E2,7.0170746E2,5.551315E2,6.3175392E1,9.255458E2,7.164183E2,1.12660385E2,3.6882233E2,1.286929E2,6.927905E2,2.3308723E2,6.795062E1,4.9785388E2,9.0641455E2,7.5675604E2,9.36224E2,1.035343E3,2.5245278E3,9.776265E2,1.789606E2,7.530774E1,7.41741E2,1.6287256E2,3.842675E2,1.2989907E3,1.5040146E3],"tree_param":{"num_deleted":"0","num_feature":"135","num_nodes":"63","size_leaf_vector":"1"}},{"base_weights":[-8.559253E-5,-5.879381E-1,3.182863E-1,-9.0386575E-1,-3.14151E-1,5.227335E-1,8.4130175E-2,-1.0246762E0,-5.896161E-1,6.0350202E-2,-4.5954406E-1,1.9309355E-1,6.69418E-1,-1.9410655E-1,2.4106765E-1,-3.42321E-1,-1.0869455E0,-1.97287E-1,-8.498188E-1,-1.4440763E-1,4.2063454E-1,-7.737781E-1,-2.951183E-1,-1.026985E-1,3.6801434E-1,5.109652E-1,8.316246E-1,-9.6209085E-1,-1.4221886E-1,-8.910366E-3,4.0991768E-1,-5.196571E-2,4.410517E-2,-1.2487873E-1,-8.130687E-2,5.7007666E-3,-6.347967E-2,-9.949178E-2,-3.7356615E-2,-1.3045274E-3,-6.0676254E-2,7.9070486E-2,1.3324335E-2,-8.5647106E-2,-1.4661747E-3,-2.7224997E-3,-4.5597594E-2,-1.06767215E-1,-5.0655655E-3,-3.113577E-3,5.1790442E-2,3.2806754E-2,7.3369436E-2,9.750877E-2,6.779488E-2,-1.2317576E-1,-5.584642E-3,-2.6932487E-2,5.416063E-3,-1.1080873E-2,4.4497933E-2,7.982927E-2,3.4444097E-2],"categories":[],"categories_nodes":[],"categories_segments":[],"categories_sizes":[],"default_left":[0,0,0,0,0,0,0,0,0,0,0,0,0,0,0,0,0,0,0,0,0,0,0,0,0,0,0,0,0,0,0,0,0,0,0,0,0,0,0,0,0,0,0,0,0,0,0,0,0,0,0,0,0,0,0,0,0,0,0,0,0,0,0],"id":2,"left_children":[1,3,5,7,9,11,13,15,17,19,21,23,25,27,29,31,33,35,37,39,41,43,45,47,49,51,53,55,57,59,61,-1,-1,-1,-1,-1,-1,-1,-1,-1,-1,-1,-1,-1,-1,-1,-1,-1,-1,-1,-1,-1,-1,-1,-1,-1,-1,-1,-1,-1,-1,-1,-1],"loss_changes":[3.5352847E3,5.737283E2,5.865542E2,1.1634448E2,1.9369226E2,3.161704E2,2.4950336E2,9.411255E1,8.739685E1,7.350428E1,1.3215527E2,1.04338394E2,1.15918335E2,8.1983536E1,1.5419547E2,2.6265257E1,8.9286865E1,3.823511E1,3.5245636E1,3.8592113E1,3.829122E1,5.5198547E1,7.2541046E1,3.7605347E1,7.581685E1,9.314368E1,4.861841E1,3.1761978E1,4.822785E1,6.820933E1,5.5170593E1,0E0,0E0,0E0,0E0,0E0,0E0,0E0,0E0,0E0,0E0,0E0,0E0,0E0,0E0,0E0,0E0,0E0,0E0,0E0,0E0,0E0,0E0,0E0,0E0,0E0,0E0,0E0,0E0,0E0,0E0,0E0,0E0],"parents":[2147483647,0,0,1,1,2,2,3,3,4,4,5,5,6,6,7,7,8,8,9,9,10,10,11,11,12,12,13,13,14,14,15,15,16,16,17,17,18,18,19,19,20,20,21,21,22,22,23,23,24,24,25,25,26,26,27,27,28,28,29,29,30,30],"right_children":[2,4,6,8,10,12,14,16,18,20,22,24,26,28,30,32,34,36,38,40,42,44,46,48,50,52,54,56,58,60,62,-1,-1,-1,-1,-1,-1,-1,-1,-1,-1,-1,-1,-1,-1,-1,-1,-1,-1,-1,-1,-1,-1,-1,-1,-1,-1,-1,-1,-1,-1,-1,-1],"split_conditions":[1.198E1,9.43E0,7.1886E4,1.9075E4,4E0,9.6E3,1.504E1,3.1E4,6E0,4.7571E2,2.7687E2,1.504E1,1.709E1,1.5246E2,1.4575E4,5.2E1,2.82E1,7.65E3,1E0,9.9833E4,3.218E3,1E0,6.727E3,2E3,1.3687E2,1.95E4,3.732E3,2.799E1,5.6313E2,3.197E1,5.124E3,-5.196571E-2,4.410517E-2,-1.2487873E-1,-8.130687E-2,5.7007666E-3,-6.347967E-2,-9.949178E-2,-3.7356615E-2,-1.3045274E-3,-6.0676254E-2,7.9070486E-2,1.3324335E-2,-8.5647106E-2,-1.4661747E-3,-2.7224997E-3,-4.5597594E-2,-1.06767215E-1,-5.0655655E-3,-3.113577E-3,5.1790442E-2,3.2806754E-2,7.3369436E-2,9.750877E-2,6.779488E-2,-1.2317576E-1,-5.584642E-3,-2.6932487E-2,5.416063E-3,-1.1080873E-2,4.4497933E-2,7.982927E-2,3.4444097E-2],"split_indices":[72,72,18,0,54,0,72,2,54,1,1,72,72,1,0,45,73,28,118,18,35,134,35,0,1,0,28,3,1,3,11,0,0,0,0,0,0,0,0,0,0,0,0,0,0,0,0,0,0,0,0,0,0,0,0,0,0,0,0,0,0,0,0],"split_type":[0,0,0,0,0,0,0,0,0,0,0,0,0,0,0,0,0,0,0,0,0,0,0,0,0,0,0,0,0,0,0,0,0,0,0,0,0,0,0,0,0,0,0,0,0,0,0,0,0,0,0,0,0,0,0,0,0,0,0,0,0,0,0],"sum_hessian":[1.888754E4,6.6352134E3,1.2252326E4,3.079464E3,3.555749E3,6.540462E3,5.711864E3,2.2227046E3,8.5675964E2,9.945606E2,2.5611885E3,2.0148533E3,4.5256084E3,2.059792E3,3.652072E3,1.8641733E2,2.0362872E3,3.423414E2,5.144182E2,6.345376E2,3.6002304E2,8.785279E2,1.6826605E3,7.488895E2,1.2659637E3,2.291394E3,2.2342146E3,1.2924901E2,1.9305428E3,1.4727104E3,2.1793616E3,1.5228128E2,3.413605E1,1.2776989E3,7.585884E2,2.1705296E2,1.25288445E2,3.9345575E2,1.20962456E2,4.9494427E2,1.3959329E2,1.5660861E2,2.0341441E2,7.9211237E2,8.641556E1,6.317348E2,1.0509257E3,3.7323597E1,7.115659E2,3.4582922E2,9.2013446E2,1.2595593E3,1.0318348E3,1.1527382E3,1.0814763E3,9.9332054E1,2.9916956E1,1.1717561E3,7.587868E2,1.2033206E3,2.6938992E2,3.1279965E2,1.8665619E3],"tree_param":{"num_deleted":"0","num_feature":"135","num_nodes":"63","size_leaf_vector":"1"}},{"base_weights":[-1.5330699E-4,-5.334589E-1,2.8745797E-1,-8.2451147E-1,-2.836547E-1,4.6723688E-1,5.3753477E-2,-4.1668844E-1,-9.106981E-1,5.4431085E-2,-4.1516635E-1,-1.02985546E-1,5.3616464E-1,-1.0692815E-1,2.6765266E-1,-5.586017E-1,2.914083E-1,-1.0156276E0,-5.755658E-1,-1.4999114E-1,3.5378233E-1,-7.0157194E-1,-2.660915E-1,2.5363806E-1,-3.2408604E-1,3.6595544E-1,7.160421E-1,-5.677648E-1,-4.540604E-2,5.5684966E-1,1.331464E-1,-6.5443195E-2,1.4909838E-2,3.672838E-2,-1.3440825E-1,-1.1375479E-1,-7.470251E-2,-3.689972E-2,-9.6734874E-2,-2.5350943E-2,5.1336795E-2,1.764515E-2,8.319804E-2,-7.771235E-2,-1.3213434E-3,-7.4416497E-3,-4.494589E-2,2.0936625E-3,7.6545E-2,-5.9248198E-2,-1.3850157E-3,2.4680067E-2,6.922459E-2,9.403324E-2,6.451968E-2,-2.7050782E-2,-9.6367784E-2,-9.598677E-3,4.562627E-2,9.9859424E-2,4.548663E-2,-1.1555278E-3,3.9361548E-2],"categories":[],"categories_nodes":[],"categories_segments":[],"categories_sizes":[],"default_left":[0,0,0,0,0,0,0,0,0,0,0,0,0,0,0,0,0,0,0,0,0,0,0,0,0,0,0,0,0,0,0,0,0,0,0,0,0,0,0,0,0,0,0,0,0,0,0,0,0,0,0,0,0,0,0,0,0,0,0,0,0,0,0],"id":3,"left_children":[1,3,5,7,9,11,13,15,17,19,21,23,25,27,29,31,33,35,37,39,41,43,45,47,49,51,53,55,57,59,61,-1,-1,-1,-1,-1,-1,-1,-1,-1,-1,-1,-1,-1,-1,-1,-1,-1,-1,-1,-1,-1,-1,-1,-1,-1,-1,-1,-1,-1,-1,-1,-1],"loss_changes":[2.8841167E3,4.7873633E2,5.132067E2,1.06548584E2,1.5771274E2,2.7141602E2,1.8260986E2,5.3681526E1,8.769995E1,6.0887222E1,1.0883685E2,5.8856663E1,1.8832886E2,8.599927E1,8.85786E1,3.0210052E1,1.1609356E1,6.171985E1,4.827652E1,4.0743214E1,3.408609E1,4.5417786E1,5.904799E1,3.402642E1,3.834137E1,1.2295773E2,4.696399E1,4.178634E1,6.799596E1,3.212558E1,5.868376E1,0E0,0E0,0E0,0E0,0E0,0E0,0E0,0E0,0E0,0E0,0E0,0E0,0E0,0E0,0E0,0E0,0E0,0E0,0E0,0E0,0E0,0E0,0E0,0E0,0E0,0E0,0E0,0E0,0E0,0E0,0E0,0E0],"parents":[2147483647,0,0,1,1,2,2,3,3,4,4,5,5,6,6,7,7,8,8,9,9,10,10,11,11,12,12,13,13,14,14,15,15,16,16,17,17,18,18,19,19,20,20,21,21,22,22,23,23,24,24,25,25,26,26,27,27,28,28,29,29,30,30],"right_children":[2,4,6,8,10,12,14,16,18,20,22,24,26,28,30,32,34,36,38,40,42,44,46,48,50,52,54,56,58,60,62,-1,-1,-1,-1,-1,-1,-1,-1,-1,-1,-1,-1,-1,-1,-1,-1,-1,-1,-1,-1,-1,-1,-1,-1,-1,-1,-1,-1,-1,-1,-1,-1],"split_conditions":[1.198E1,9.43E0,1E0,3E0,4E0,1.6603E2,1.9075E4,1E0,6.2066E2,1.4575E4,2.7687E2,4E0,1.709E1,1.6212E2,1.37E4,5.8E1,3E0,1.947E1,1.1E1,2.8E1,1E0,1E0,1.28209E5,1.814E1,2.084E1,6.5049E2,3E0,6.24E4,2.484E1,5.995E3,1.845E1,-6.5443195E-2,1.4909838E-2,3.672838E-2,-1.3440825E-1,-1.1375479E-1,-7.470251E-2,-3.689972E-2,-9.6734874E-2,-2.5350943E-2,5.1336795E-2,1.764515E-2,8.319804E-2,-7.771235E-2,-1.3213434E-3,-7.4416497E-3,-4.494589E-2,2.0936625E-3,7.6545E-2,-5.9248198E-2,-1.3850157E-3,2.4680067E-2,6.922459E-2,9.403324E-2,6.451968E-2,-2.7050782E-2,-9.6367784E-2,-9.598677E-3,4.562627E-2,9.9859424E-2,4.548663E-2,-1.1555278E-3,3.9361548E-2],"split_indices":[72,72,116,54,54,1,0,120,1,0,1,54,72,1,69,29,32,3,54,42,120,134,18,3,3,1,54,2,72,35,72,0,0,0,0,0,0,0,0,0,0,0,0,0,0,0,0,0,0,0,0,0,0,0,0,0,0,0,0,0,0,0,0],"split_type":[0,0,0,0,0,0,0,0,0,0,0,0,0,0,0,0,0,0,0,0,0,0,0,0,0,0,0,0,0,0,0,0,0,0,0,0,0,0,0,0,0,0,0,0,0,0,0,0,0,0,0,0,0,0,0,0,0,0,0,0,0,0,0],"sum_hessian":[1.8801158E4,6.586756E3,1.2214401E4,3.0411462E3,3.5456096E3,6.9031235E3,5.3112783E3,5.315868E2,2.5095596E3,9.931189E2,2.5524907E3,7.443991E2,6.158724E3,3.0332175E3,2.2780608E3,4.4301172E2,8.8575066E1,1.9096274E3,5.999321E2,5.9042554E2,4.0269333E2,8.725068E2,1.6799839E3,2.8483228E2,4.5956683E2,3.1659631E3,2.9927612E3,3.562756E2,2.676942E3,7.2218256E2,1.5558782E3,3.902437E2,5.2767994E1,8.538903E1,3.1860318E0,1.3112211E3,5.984064E2,3.940893E2,2.0584283E2,5.1126038E2,7.9165184E1,2.9475714E2,1.0793618E2,7.860987E2,8.6408104E1,8.2207245E2,8.579115E2,1.9652206E2,8.831021E1,2.4591093E2,2.1365591E2,2.3203677E3,8.455956E2,7.1544635E2,2.2773147E3,2.0445282E2,1.5182278E2,2.4324944E3,2.4444748E2,1.3380586E2,5.883767E2,1.00083E3,5.5504816E2],"tree_param":{"num_deleted":"0","num_feature":"135","num_nodes":"63","size_leaf_vector":"1"}},{"base_weights":[-2.1092081E-4,-3.8369897E-1,3.3193776E-1,-7.543247E-1,-1.8824674E-1,4.9444592E-1,1.1512109E-1,-9.5728856E-1,-5.931365E-1,1.2510887E-1,-3.1096837E-1,-1.3722088E-2,5.5490196E-1,-3.4007236E-2,3.1020495E-1,-1.0392946E0,-1.9812697E-1,-3.4956503E-1,-8.1877655E-1,-6.269316E-2,3.81249E-1,-4.642545E-1,-6.1673284E-2,3.2405204E-1,-2.5375044E-1,7.4215525E-1,4.6018046E-1,-3.9084578E-1,3.0881038E-2,6.270629E-1,1.7891107E-1,-1.0768413E-1,6.141455E-3,-3.9346147E-2,6.1620392E-2,-5.098291E-2,2.6611264E-3,-5.483485E-2,-9.533696E-2,-1.0897617E-2,8.694875E-2,2.1836704E-2,8.073055E-2,-6.3242875E-2,-2.5010843E-2,2.6202193E-2,-2.1448642E-2,9.308888E-3,1.0980635E-1,-5.24979E-2,6.541577E-3,1.1559363E-1,6.839078E-2,3.0830026E-2,6.0413342E-2,-1.3794056E-2,-6.846316E-2,-4.3291464E-3,3.5169534E-2,9.0948895E-2,4.9957488E-2,1.9848628E-3,3.58371E-2],"categories":[],"categories_nodes":[],"categories_segments":[],"categories_sizes":[],"default_left":[0,0,0,0,0,0,0,0,0,0,0,0,0,0,0,0,0,0,0,0,0,0,0,0,0,0,0,0,0,0,0,0,0,0,0,0,0,0,0,0,0,0,0,0,0,0,0,0,0,0,0,0,0,0,0,0,0,0,0,0,0,0,0],"id":4,"left_children":[1,3,5,7,9,11,13,15,17,19,21,23,25,27,29,31,33,35,37,39,41,43,45,47,49,51,53,55,57,59,61,-1,-1,-1,-1,-1,-1,-1,-1,-1,-1,-1,-1,-1,-1,-1,-1,-1,-1,-1,-1,-1,-1,-1,-1,-1,-1,-1,-1,-1,-1,-1,-1],"loss_changes":[2.3817883E3,6.285454E2,3.5300085E2,9.7454956E1,2.1860277E2,1.759552E2,1.24937256E2,8.225952E1,9.1639404E1,7.699878E1,1.5604907E2,4.9528694E1,9.044031E1,5.6384617E1,7.72876E1,4.946338E1,2.098059E1,4.861068E1,3.1052917E1,3.9964893E1,4.681048E1,9.092285E1,7.703881E1,4.5268097E1,3.0946428E1,4.0608826E1,7.418384E1,2.7743576E1,4.905655E1,1.9156937E1,3.7582424E1,0E0,0E0,0E0,0E0,0E0,0E0,0E0,0E0,0E0,0E0,0E0,0E0,0E0,0E0,0E0,0E0,0E0,0E0,0E0,0E0,0E0,0E0,0E0,0E0,0E0,0E0,0E0,0E0,0E0,0E0,0E0,0E0],"parents":[2147483647,0,0,1,1,2,2,3,3,4,4,5,5,6,6,7,7,8,8,9,9,10,10,11,11,12,12,13,13,14,14,15,15,16,16,17,17,18,18,19,19,20,20,21,21,22,22,23,23,24,24,25,25,26,26,27,27,28,28,29,29,30,30],"right_children":[2,4,6,8,10,12,14,16,18,20,22,24,26,28,30,32,34,36,38,40,42,44,46,48,50,52,54,56,58,60,62,-1,-1,-1,-1,-1,-1,-1,-1,-1,-1,-1,-1,-1,-1,-1,-1,-1,-1,-1,-1,-1,-1,-1,-1,-1,-1,-1,-1,-1,-1,-1,-1],"split_conditions":[1.358E1,9.43E0,1E0,3.0887E2,4E0,1.6603E2,1.9075E4,1E0,1.33009E5,1.4575E4,4.8647E2,1.5485E4,4E0,1.7727E2,3.383E3,3.169E1,1E0,2.4E4,4E0,1.15E2,1E0,1.937E1,1E0,1.937E1,2.265E1,1.005E3,1.806E1,7E0,3.055E1,1.04E2,1.845E1,-1.0768413E-1,6.141455E-3,-3.9346147E-2,6.1620392E-2,-5.098291E-2,2.6611264E-3,-5.483485E-2,-9.533696E-2,-1.0897617E-2,8.694875E-2,2.1836704E-2,8.073055E-2,-6.3242875E-2,-2.5010843E-2,2.6202193E-2,-2.1448642E-2,9.308888E-3,1.0980635E-1,-5.24979E-2,6.541577E-3,1.1559363E-1,6.839078E-2,3.0830026E-2,6.0413342E-2,-1.3794056E-2,-6.846316E-2,-4.3291464E-3,3.5169534E-2,9.0948895E-2,4.9957488E-2,1.9848628E-3,3.58371E-2],"split_indices":[72,72,116,1,54,1,0,134,18,0,1,70,54,1,28,3,117,0,47,45,120,3,44,3,3,11,72,74,3,41,72,0,0,0,0,0,0,0,0,0,0,0,0,0,0,0,0,0,0,0,0,0,0,0,0,0,0,0,0,0,0,0,0],"split_type":[0,0,0,0,0,0,0,0,0,0,0,0,0,0,0,0,0,0,0,0,0,0,0,0,0,0,0,0,0,0,0,0,0,0,0,0,0,0,0,0,0,0,0,0,0,0,0,0,0,0,0,0,0,0,0,0,0,0,0,0,0,0,0],"sum_hessian":[1.8697016E4,8.677779E3,1.0019237E4,2.9952283E3,5.6825513E3,5.726121E3,4.2931157E3,1.3236208E3,1.6716073E3,1.5991881E3,4.083363E3,6.0888275E2,5.117239E3,2.4336116E3,1.8595044E3,1.1942471E3,1.2937367E2,8.0508856E2,8.665188E2,9.231151E2,6.76073E2,2.5280547E3,1.5553082E3,2.5279417E2,3.560886E2,1.7166959E3,3.4005427E3,3.7367053E2,2.059941E3,5.436679E2,1.3158364E3,1.1548744E3,3.93727E1,1.0476129E2,2.4612387E1,5.643154E2,2.4077313E2,2.8964005E2,5.768788E2,8.8029156E2,4.2823605E1,4.9018655E2,1.8588647E2,1.4149253E3,1.1131294E3,4.985481E2,1.0567601E3,1.9555986E2,5.7234325E1,1.9215216E2,1.6393643E2,2.0951187E2,1.5071841E3,1.6562391E3,1.7443035E3,2.0159619E2,1.7207434E2,1.673818E3,3.861229E2,1.6717935E2,3.764886E2,6.981495E2,6.1768695E2],"tree_param":{"num_deleted":"0","num_feature":"135","num_nodes":"63","size_leaf_vector":"1"}},{"base_weights":[-2.35436E-4,-5.164684E-1,2.041311E-1,-8.5748893E-1,-3.7681365E-1,-1.2696346E-2,3.5456017E-1,-1.0068402E0,-5.871243E-1,-6.6202205E-1,-2.373527E-1,1.9700842E-1,-1.9455685E-1,5.1075333E-1,1.7465891E-1,-1.1464036E0,-6.4242697E-1,-3.607262E-1,-1.0996456E0,-7.493132E-1,9.035365E-2,-4.2118642E-2,-4.809728E-1,7.440439E-2,5.491875E-1,-4.3845522E-1,-6.2472247E-2,2.2152711E-1,6.0757387E-1,-1.4348483E-2,3.0295736E-1,-1.16913095E-1,8.427942E-2,1.7475331E-2,-8.0199316E-2,-4.540616E-3,-7.147717E-2,-1.1777269E-1,1.5226535E-2,-8.660381E-2,-3.764462E-2,6.44961E-2,-3.7434183E-2,-1.6659914E-2,3.0018875E-2,-7.3107794E-2,-3.762614E-2,-3.244309E-2,1.5459666E-2,7.105721E-2,1.4049957E-3,-6.781404E-2,-2.376557E-2,1.53401885E-2,-1.9928431E-2,5.053869E-2,8.953972E-4,7.218345E-2,4.4671487E-2,-1.037089E-2,3.7992273E-2,6.726515E-2,2.522724E-2],"categories":[],"categories_nodes":[],"categories_segments":[],"categories_sizes":[],"default_left":[0,0,0,0,0,0,0,0,0,0,0,0,0,0,0,0,0,0,0,0,0,0,0,0,0,0,0,0,0,0,0,0,0,0,0,0,0,0,0,0,0,0,0,0,0,0,0,0,0,0,0,0,0,0,0,0,0,0,0,0,0,0,0],"id":5,"left_children":[1,3,5,7,9,11,13,15,17,19,21,23,25,27,29,31,33,35,37,39,41,43,45,47,49,51,53,55,57,59,61,-1,-1,-1,-1,-1,-1,-1,-1,-1,-1,-1,-1,-1,-1,-1,-1,-1,-1,-1,-1,-1,-1,-1,-1,-1,-1,-1,-1,-1,-1,-1,-1],"loss_changes":[1.9605559E3,2.5067798E2,4.3423615E2,6.120764E1,1.4863855E2,2.0803737E2,2.2077148E2,4.933191E1,6.3073273E1,8.071393E1,1.1955043E2,1.09355354E2,9.408671E1,1.1766565E2,8.861864E1,3.3109497E1,3.598503E1,4.2489082E1,1.6514038E1,4.7566467E1,3.337147E1,5.956242E1,2.9011688E1,6.0194614E1,5.647943E1,4.9225662E1,5.603553E1,6.3752575E1,5.7593994E1,5.2130993E1,4.0618546E1,0E0,0E0,0E0,0E0,0E0,0E0,0E0,0E0,0E0,0E0,0E0,0E0,0E0,0E0,0E0,0E0,0E0,0E0,0E0,0E0,0E0,0E0,0E0,0E0,0E0,0E0,0E0,0E0,0E0,0E0,0E0,0E0],"parents":[2147483647,0,0,1,1,2,2,3,3,4,4,5,5,6,6,7,7,8,8,9,9,10,10,11,11,12,12,13,13,14,14,15,15,16,16,17,17,18,18,19,19,20,20,21,21,22,22,23,23,24,24,25,25,26,26,27,27,28,28,29,29,30,30],"right_children":[2,4,6,8,10,12,14,16,18,20,22,24,26,28,30,32,34,36,38,40,42,44,46,48,50,52,54,56,58,60,62,-1,-1,-1,-1,-1,-1,-1,-1,-1,-1,-1,-1,-1,-1,-1,-1,-1,-1,-1,-1,-1,-1,-1,-1,-1,-1,-1,-1,-1,-1,-1,-1],"split_conditions":[1.09E1,7.34E0,1.504E1,2.91E1,2.5604E2,5.5363E4,7.0649E4,5.5341E2,2.3614E4,1E0,1.35195E5,5.4682E2,1.12E4,2.6154E2,1.4575E4,1.71E2,3E0,7E0,7E0,4.92E1,1E0,2.4E4,1.4575E4,1.6003E2,1.587E4,1.833E1,4E0,4E0,4.189E3,3.197E1,1.542E3,-1.16913095E-1,8.427942E-2,1.7475331E-2,-8.0199316E-2,-4.540616E-3,-7.147717E-2,-1.1777269E-1,1.5226535E-2,-8.660381E-2,-3.764462E-2,6.44961E-2,-3.7434183E-2,-1.6659914E-2,3.0018875E-2,-7.3107794E-2,-3.762614E-2,-3.244309E-2,1.5459666E-2,7.105721E-2,1.4049957E-3,-6.781404E-2,-2.376557E-2,1.53401885E-2,-1.9928431E-2,5.053869E-2,8.953972E-4,7.218345E-2,4.4671487E-2,-1.037089E-2,3.7992273E-2,6.726515E-2,2.522724E-2],"split_indices":[72,72,72,37,1,18,18,1,35,134,18,1,0,1,0,45,54,54,50,37,116,0,0,1,11,3,47,54,28,3,28,0,0,0,0,0,0,0,0,0,0,0,0,0,0,0,0,0,0,0,0,0,0,0,0,0,0,0,0,0,0,0,0],"split_type":[0,0,0,0,0,0,0,0,0,0,0,0,0,0,0,0,0,0,0,0,0,0,0,0,0,0,0,0,0,0,0,0,0,0,0,0,0,0,0,0,0,0,0,0,0,0,0,0,0,0,0,0,0,0,0,0,0,0,0,0,0,0,0],"sum_hessian":[1.8581336E4,5.26935E3,1.3311986E4,1.5294567E3,3.7398936E3,5.452994E3,7.8589927E3,9.834617E2,5.45995E2,1.2269463E3,2.5129473E3,2.5325767E3,2.9204172E3,4.205698E3,3.6532942E3,7.095657E2,2.73896E2,3.7988898E2,1.6610602E2,1.0993976E3,1.2754873E2,1.3956578E3,1.1172896E3,1.8794838E3,6.53093E2,1.0251415E3,1.8952758E3,1.0556138E3,3.1500845E3,1.4775208E3,2.1757734E3,7.0195776E2,7.607879E0,4.472948E1,2.2916652E2,2.0153026E2,1.7835872E2,1.5641005E2,9.695972E0,8.3627997E2,2.631176E2,5.7972023E1,6.95767E1,1.0238477E3,3.718101E2,3.2796274E2,7.8932684E2,3.141277E2,1.5653561E3,5.0151907E2,1.5157396E2,4.662378E2,5.589037E2,7.351577E2,1.160118E3,4.5142517E2,6.041886E2,1.839776E3,1.3103083E3,1.2051206E3,2.7240012E2,2.6085275E2,1.9149208E3],"tree_param":{"num_deleted":"0","num_feature":"135","num_nodes":"63","size_leaf_vector":"1"}},{"base_weights":[-3.0345714E-4,-3.8913846E-1,2.2552629E-1,-6.999243E-1,-2.3916918E-1,3.6128318E-1,2.9962515E-2,-8.235601E-1,-4.1309947E-1,-6.6957526E-2,-4.3083453E-1,1.1703094E-1,4.6825117E-1,-9.620729E-2,2.308437E-1,-8.8843256E-1,-2.7222696E-1,-5.9684783E-1,8.332618E-2,-3.0959353E-1,8.993685E-2,-6.886948E-1,-3.3959237E-1,-3.687871E-2,3.2352588E-1,6.463018E-1,3.623368E-1,-2.027156E-1,1.3545471E-1,4.2503738E-1,1.06400125E-1,-7.1884595E-2,-1.0830132E-1,-6.419696E-2,2.2575071E-2,-1.1401505E-2,-8.3987385E-2,1.0333498E-1,-6.4956965E-3,-4.247137E-2,5.1472884E-2,2.5111644E-2,-1.46630285E-2,-8.953759E-2,-4.3972265E-2,2.1135011E-4,-4.289708E-2,2.2599999E-2,-3.7081257E-2,1.8872852E-2,6.8445645E-2,9.3418516E-2,5.611795E-2,1.9128004E-2,4.6972815E-2,-3.8809907E-2,-4.821893E-3,6.734314E-2,1.8594649E-3,-5.751979E-2,4.700539E-2,-1.6957551E-2,2.1200918E-2],"categories":[],"categories_nodes":[],"categories_segments":[],"categories_sizes":[],"default_left":[0,0,0,0,0,0,0,0,0,0,0,0,0,0,0,0,0,0,0,0,0,0,0,0,0,0,0,0,0,0,0,0,0,0,0,0,0,0,0,0,0,0,0,0,0,0,0,0,0,0,0,0,0,0,0,0,0,0,0,0,0,0,0],"id":6,"left_children":[1,3,5,7,9,11,13,15,17,19,21,23,25,27,29,31,33,35,37,39,41,43,45,47,49,51,53,55,57,59,61,-1,-1,-1,-1,-1,-1,-1,-1,-1,-1,-1,-1,-1,-1,-1,-1,-1,-1,-1,-1,-1,-1,-1,-1,-1,-1,-1,-1,-1,-1,-1,-1],"loss_changes":[1.6212588E3,3.1599646E2,3.10076E2,7.7937744E1,1.5104526E2,1.8006409E2,1.2134434E2,5.48916E1,6.0882545E1,9.185027E1,5.0726776E1,6.6783615E1,9.0171265E1,7.258986E1,4.4588387E1,4.4718384E1,3.029064E1,5.7032776E1,2.5570627E1,9.012599E1,5.5920586E1,2.8686829E1,4.8923203E1,1.0583268E2,4.3527145E1,4.326184E1,5.517041E1,5.7693687E1,5.8255714E1,3.2734467E1,3.2881706E1,0E0,0E0,0E0,0E0,0E0,0E0,0E0,0E0,0E0,0E0,0E0,0E0,0E0,0E0,0E0,0E0,0E0,0E0,0E0,0E0,0E0,0E0,0E0,0E0,0E0,0E0,0E0,0E0,0E0,0E0,0E0,0E0],"parents":[2147483647,0,0,1,1,2,2,3,3,4,4,5,5,6,6,7,7,8,8,9,9,10,10,11,11,12,12,13,13,14,14,15,15,16,16,17,17,18,18,19,19,20,20,21,21,22,22,23,23,24,24,25,25,26,26,27,27,28,28,29,29,30,30],"right_children":[2,4,6,8,10,12,14,16,18,20,22,24,26,28,30,32,34,36,38,40,42,44,46,48,50,52,54,56,58,60,62,-1,-1,-1,-1,-1,-1,-1,-1,-1,-1,-1,-1,-1,-1,-1,-1,-1,-1,-1,-1,-1,-1,-1,-1,-1,-1,-1,-1,-1,-1,-1,-1],"split_conditions":[1.199E1,7.96E0,9.9833E4,1.9075E4,7E0,9.6E3,1.845E1,1E0,1E0,3.0509E2,8E3,1.969E1,1.5E1,6.4108E2,2E0,9.353E3,2.7E1,2.4383E4,1E0,1E0,7.7175E4,1.937E1,2E0,1.5134E4,1.271E4,2E0,1.601E1,1.853E1,6.224E3,1.3311E2,3.6894E2,-7.1884595E-2,-1.0830132E-1,-6.419696E-2,2.2575071E-2,-1.1401505E-2,-8.3987385E-2,1.0333498E-1,-6.4956965E-3,-4.247137E-2,5.1472884E-2,2.5111644E-2,-1.46630285E-2,-8.953759E-2,-4.3972265E-2,2.1135011E-4,-4.289708E-2,2.2599999E-2,-3.7081257E-2,1.8872852E-2,6.8445645E-2,9.3418516E-2,5.611795E-2,1.9128004E-2,4.6972815E-2,-3.8809907E-2,-4.821893E-3,6.734314E-2,1.8594649E-3,-5.751979E-2,4.700539E-2,-1.6957551E-2,2.1200918E-2],"split_indices":[72,72,18,0,54,0,72,134,118,1,0,3,12,1,44,35,45,70,47,134,18,3,47,70,11,47,72,3,11,1,1,0,0,0,0,0,0,0,0,0,0,0,0,0,0,0,0,0,0,0,0,0,0,0,0,0,0,0,0,0,0,0,0],"split_type":[0,0,0,0,0,0,0,0,0,0,0,0,0,0,0,0,0,0,0,0,0,0,0,0,0,0,0,0,0,0,0,0,0,0,0,0,0,0,0,0,0,0,0,0,0,0,0,0,0,0,0,0,0,0,0,0,0,0,0,0,0,0,0],"sum_hessian":[1.8461154E4,6.78242E3,1.1678734E4,2.2063882E3,4.5760312E3,6.892934E3,4.7858003E3,1.5404891E3,6.6589905E2,2.411049E3,2.1649824E3,2.0999565E3,4.7929775E3,2.9398533E3,1.8459471E3,1.3777637E3,1.6272546E2,4.858594E2,1.8003964E2,9.464295E2,1.4646195E3,5.641331E2,1.6008494E3,1.2036472E3,8.963092E2,1.7858002E3,3.0071772E3,2.0140184E3,9.258348E2,7.199901E2,1.125957E3,7.3867035E2,6.390934E2,9.322089E1,6.950457E1,1.631633E2,3.226961E2,2.3501429E1,1.5653821E2,8.308785E2,1.1555098E2,8.7107275E2,5.935468E2,3.0682764E2,2.5730548E2,3.3211288E2,1.2687365E3,6.7365625E2,5.29991E2,6.536954E2,2.4261386E2,4.0525513E2,1.380545E3,1.160875E3,1.8463024E3,9.148094E2,1.099209E3,1.6437157E2,7.6146326E2,3.0501045E1,6.894891E2,3.1145715E2,8.144999E2],"tree_param":{"num_deleted":"0","num_feature":"135","num_nodes":"63","size_leaf_vector":"1"}},{"base_weights":[-3.5026856E-4,-2.9299253E-1,2.5080353E-1,-5.9058225E-1,-1.4262153E-1,1.1568838E-1,4.2710826E-1,-3.9120367E-1,-7.449455E-1,1.9670469E-1,-2.2537668E-1,7.3960912E-3,2.6494464E-1,-1.0298483E-2,4.9131417E-1,-4.872951E-1,1.1582452E-1,-8.3819E-1,-3.7231073E-1,2.701879E-2,4.0525386E-1,-3.1925854E-1,6.937144E-2,2.329971E-1,-7.0419505E-2,5.34414E-1,1.487991E-1,3.2785043E-1,-2.474444E-1,4.4478253E-1,7.890994E-1,-7.154378E-2,-2.9156644E-2,2.8642252E-2,-5.4362632E-2,-7.0236675E-2,-1.02041684E-1,-6.444814E-2,-3.6135435E-3,-5.807065E-3,6.460412E-2,6.0151707E-2,7.1312673E-3,-4.611661E-2,-1.2986525E-2,4.714258E-2,-1.1235E-2,3.5929784E-2,-3.5150906E-3,-2.5163976E-2,4.3325257E-3,7.573111E-2,3.7990462E-2,2.204795E-2,-1.31344665E-2,-3.9938986E-3,6.3880384E-2,-4.7515787E-2,6.5980307E-3,7.8856304E-2,4.0152382E-2,7.984155E-2,-1.439117E-1],"categories":[],"categories_nodes":[],"categories_segments":[],"categories_sizes":[],"default_left":[0,0,0,0,0,0,0,0,0,0,0,0,0,0,0,0,0,0,0,0,0,0,0,0,0,0,0,0,0,0,0,0,0,0,0,0,0,0,0,0,0,0,0,0,0,0,0,0,0,0,0,0,0,0,0,0,0,0,0,0,0,0,0],"id":7,"left_children":[1,3,5,7,9,11,13,15,17,19,21,23,25,27,29,31,33,35,37,39,41,43,45,47,49,51,53,55,57,59,61,-1,-1,-1,-1,-1,-1,-1,-1,-1,-1,-1,-1,-1,-1,-1,-1,-1,-1,-1,-1,-1,-1,-1,-1,-1,-1,-1,-1,-1,-1,-1,-1],"loss_changes":[1.3480688E3,3.7898712E2,2.3507855E2,8.721442E1,1.581077E2,9.034025E1,1.20263855E2,6.0608017E1,5.5331238E1,3.9062504E1,1.25254684E2,5.689903E1,7.347435E1,4.4112473E1,5.138916E1,4.6454987E1,2.2523064E1,3.0966736E1,2.9468056E1,3.216081E1,3.24178E1,9.219559E1,7.998982E1,2.8164093E1,4.9687305E1,2.4077194E1,3.3035255E1,2.5960293E1,2.310647E1,4.7743286E1,1.1597137E1,0E0,0E0,0E0,0E0,0E0,0E0,0E0,0E0,0E0,0E0,0E0,0E0,0E0,0E0,0E0,0E0,0E0,0E0,0E0,0E0,0E0,0E0,0E0,0E0,0E0,0E0,0E0,0E0,0E0,0E0,0E0,0E0],"parents":[2147483647,0,0,1,1,2,2,3,3,4,4,5,5,6,6,7,7,8,8,9,9,10,10,11,11,12,12,13,13,14,14,15,15,16,16,17,17,18,18,19,19,20,20,21,21,22,22,23,23,24,24,25,25,26,26,27,27,28,28,29,29,30,30],"right_children":[2,4,6,8,10,12,14,16,18,20,22,24,26,28,30,32,34,36,38,40,42,44,46,48,50,52,54,56,58,60,62,-1,-1,-1,-1,-1,-1,-1,-1,-1,-1,-1,-1,-1,-1,-1,-1,-1,-1,-1,-1,-1,-1,-1,-1,-1,-1,-1,-1,-1,-1,-1,-1],"split_conditions":[1.358E1,9.43E0,1E0,6E0,3E0,1.88E4,1.7453E2,1E0,2.421E1,1.25E4,6.5049E2,7.0015E4,3.383E3,1.5485E4,2.484E1,3.0745E2,7.415E3,2.6521E4,4E0,6E0,1.2466E4,1.937E1,7.707E3,7E0,1.853E1,1.8E1,1E1,4.33E1,2.322E1,8E0,4.59378E5,-7.154378E-2,-2.9156644E-2,2.8642252E-2,-5.4362632E-2,-7.0236675E-2,-1.02041684E-1,-6.444814E-2,-3.6135435E-3,-5.807065E-3,6.460412E-2,6.0151707E-2,7.1312673E-3,-4.611661E-2,-1.2986525E-2,4.714258E-2,-1.1235E-2,3.5929784E-2,-3.5150906E-3,-2.5163976E-2,4.3325257E-3,7.573111E-2,3.7990462E-2,2.204795E-2,-1.31344665E-2,-3.9938986E-3,6.3880384E-2,-4.7515787E-2,6.5980307E-3,7.8856304E-2,4.0152382E-2,7.984155E-2,-1.439117E-1],"split_indices":[72,72,118,54,54,0,1,120,3,0,1,67,28,70,72,1,28,36,50,50,11,3,11,74,3,12,43,37,3,12,67,0,0,0,0,0,0,0,0,0,0,0,0,0,0,0,0,0,0,0,0,0,0,0,0,0,0,0,0,0,0,0,0],"split_type":[0,0,0,0,0,0,0,0,0,0,0,0,0,0,0,0,0,0,0,0,0,0,0,0,0,0,0,0,0,0,0,0,0,0,0,0,0,0,0,0,0,0,0,0,0,0,0,0,0,0,0,0,0,0,0,0,0,0,0,0,0,0,0],"sum_hessian":[1.833952E4,8.470083E3,9.869436E3,2.8422463E3,5.627837E3,5.58834E3,4.2810957E3,1.2418212E3,1.6004252E3,1.1031489E3,4.524688E3,3.2392007E3,2.3491394E3,5.480834E2,3.7330122E3,1.044002E3,1.9781921E2,1.2791051E3,3.2132007E2,6.08871E2,4.9427792E2,3.4315903E3,1.0930978E3,8.302286E2,2.4089722E3,7.06466E2,1.6426735E3,2.2577126E2,3.2231213E2,3.2306824E3,5.0232968E2,4.8085672E2,5.631453E2,1.576113E2,4.0207912E1,7.3564484E2,5.4346027E2,1.7705641E2,1.4426366E2,5.3608777E2,7.278324E1,3.1080878E2,1.8346915E2,1.9609017E3,1.4706885E3,3.3977017E2,7.5332764E2,5.64162E2,2.660666E2,9.284832E2,1.4804889E3,2.8762842E2,4.1883755E2,1.308166E3,3.3450742E2,1.0383219E2,1.21939064E2,1.8638281E2,1.3592932E2,3.5916217E2,2.8715203E3,5.0087723E2,1.4524529E0],"tree_param":{"num_deleted":"0","num_feature":"135","num_nodes":"63","size_leaf_vector":"1"}},{"base_weights":[-3.6727535E-4,-4.4674668E-1,1.368967E-1,-7.081348E-1,-3.3255768E-1,-2.9198628E-2,2.705027E-1,-3.9502499E-1,-8.311996E-1,-4.2943048E-1,1.2006865E-2,1.8476431E-1,-1.5396205E-1,1.50107E-1,4.2452055E-1,-6.1587733E-1,7.253108E-2,-3.9125776E-1,-9.2223877E-1,-4.910496E-1,2.5288269E-2,3.4475416E-1,-2.8624725E-1,2.9056197E-1,-1.3900751E-1,-5.9173274E-1,-1.1008707E-1,-5.1677203E-1,1.7292143E-1,1.5930732E-1,5.107656E-1,-1.07681565E-1,-4.1363984E-2,-3.8173992E-2,4.6581842E-2,-6.842896E-2,2.9050652E-2,-9.87598E-2,-4.7326595E-2,-5.9980243E-2,-1.3865577E-2,3.378184E-2,-7.699715E-2,1.18712E-1,2.2677649E-2,4.3967664E-3,-5.233222E-2,1.3247708E-2,5.037588E-2,-2.2802344E-2,3.6462847E-2,-7.67013E-2,-1.4250599E-2,1.5920935E-2,-1.8703004E-2,-3.236949E-2,-1.7353909E-1,2.9321808E-2,4.9928557E-3,-1.4156812E-3,4.3033406E-2,6.30267E-2,3.5572197E-2],"categories":[],"categories_nodes":[],"categories_segments":[],"categories_sizes":[],"default_left":[0,0,0,0,0,0,0,0,0,0,0,0,0,0,0,0,0,0,0,0,0,0,0,0,0,0,0,0,0,0,0,0,0,0,0,0,0,0,0,0,0,0,0,0,0,0,0,0,0,0,0,0,0,0,0,0,0,0,0,0,0,0,0],"id":8,"left_children":[1,3,5,7,9,11,13,15,17,19,21,23,25,27,29,31,33,35,37,39,41,43,45,47,49,51,53,55,57,59,61,-1,-1,-1,-1,-1,-1,-1,-1,-1,-1,-1,-1,-1,-1,-1,-1,-1,-1,-1,-1,-1,-1,-1,-1,-1,-1,-1,-1,-1,-1,-1,-1],"loss_changes":[1.1162905E3,1.27654236E2,3.092201E2,4.983496E1,9.96051E1,1.6587231E2,1.4313177E2,3.816986E1,3.703247E1,6.527307E1,6.518133E1,7.843988E1,7.532024E1,6.6056076E1,7.740265E1,2.2940315E1,2.1499678E1,3.252508E1,2.2210327E1,7.852756E1,6.9580215E1,3.0580849E1,2.7138422E1,5.8084152E1,2.5384632E1,2.8024849E1,7.397185E1,3.32431E1,6.2025078E1,3.915535E1,4.7129578E1,0E0,0E0,0E0,0E0,0E0,0E0,0E0,0E0,0E0,0E0,0E0,0E0,0E0,0E0,0E0,0E0,0E0,0E0,0E0,0E0,0E0,0E0,0E0,0E0,0E0,0E0,0E0,0E0,0E0,0E0,0E0,0E0],"parents":[2147483647,0,0,1,1,2,2,3,3,4,4,5,5,6,6,7,7,8,8,9,9,10,10,11,11,12,12,13,13,14,14,15,15,16,16,17,17,18,18,19,19,20,20,21,21,22,22,23,23,24,24,25,25,26,26,27,27,28,28,29,29,30,30],"right_children":[2,4,6,8,10,12,14,16,18,20,22,24,26,28,30,32,34,36,38,40,42,44,46,48,50,52,54,56,58,60,62,-1,-1,-1,-1,-1,-1,-1,-1,-1,-1,-1,-1,-1,-1,-1,-1,-1,-1,-1,-1,-1,-1,-1,-1,-1,-1,-1,-1,-1,-1,-1,-1],"split_conditions":[1.041E1,7.21E0,1.504E1,7.25E2,2.4E4,5E0,1E0,1E0,3E0,1E0,1.4214E5,9.9833E4,1.5375E2,1.0169E2,2.6154E2,4E0,1.29E1,1.9075E4,1E0,5.25E1,5E0,1E0,5.373E3,1.4E4,5E0,2.522E1,2E0,2.02E4,2E0,2.073E1,4.268E3,-1.07681565E-1,-4.1363984E-2,-3.8173992E-2,4.6581842E-2,-6.842896E-2,2.9050652E-2,-9.87598E-2,-4.7326595E-2,-5.9980243E-2,-1.3865577E-2,3.378184E-2,-7.699715E-2,1.18712E-1,2.2677649E-2,4.3967664E-3,-5.233222E-2,1.3247708E-2,5.037588E-2,-2.2802344E-2,3.6462847E-2,-7.67013E-2,-1.4250599E-2,1.5920935E-2,-1.8703004E-2,-3.236949E-2,-1.7353909E-1,2.9321808E-2,4.9928557E-3,-1.4156812E-3,4.3033406E-2,6.30267E-2,3.5572197E-2],"split_indices":[72,72,72,5,0,54,118,118,54,134,18,18,1,1,1,57,3,0,134,37,34,47,28,0,33,3,47,69,44,3,28,0,0,0,0,0,0,0,0,0,0,0,0,0,0,0,0,0,0,0,0,0,0,0,0,0,0,0,0,0,0,0,0],"split_type":[0,0,0,0,0,0,0,0,0,0,0,0,0,0,0,0,0,0,0,0,0,0,0,0,0,0,0,0,0,0,0,0,0,0,0,0,0,0,0,0,0,0,0,0,0,0,0,0,0,0,0,0,0,0,0,0,0,0,0,0,0,0,0],"sum_hessian":[1.8216666E4,4.2837505E3,1.3932916E4,1.3008334E3,2.982917E3,6.211603E3,7.721313E3,3.682125E2,9.3262085E2,2.328128E3,6.5478906E2,2.2877488E3,3.923854E3,4.3347866E3,3.3865264E3,2.4986865E2,1.18343864E2,1.6081053E2,7.718103E2,2.0502217E3,2.7790625E2,3.0942407E2,3.45365E2,1.7243818E3,5.63367E2,3.563017E2,3.5675522E3,1.4267464E2,4.192112E3,8.317252E2,2.5548013E3,7.4879425E1,1.7498921E2,5.4928005E1,6.341586E1,1.1246695E2,4.8343586E1,6.7268463E2,9.91257E1,1.5661785E3,4.8404312E2,1.9991615E2,7.79901E1,3.6899292E1,2.7252478E2,1.4467116E2,2.0069383E2,9.911029E2,7.332789E2,4.792147E2,8.415229E1,2.5578972E2,1.0051198E2,7.9256085E2,2.7749915E3,1.242536E2,1.8421036E1,2.118586E3,2.0735261E3,5.0771942E2,3.240058E2,1.4410408E3,1.1137604E3],"tree_param":{"num_deleted":"0","num_feature":"135","num_nodes":"63","size_leaf_vector":"1"}},{"base_weights":[-4.3000362E-4,-3.6481822E-1,1.3941403E-1,-6.3965577E-1,-2.5876454E-1,2.4024572E-2,2.969409E-1,-7.8726196E-1,-3.8143367E-1,-4.9076828E-1,-1.4890847E-1,-1.2535186E-1,1.3541143E-1,1.9249552E-1,5.2385163E-1,-9.252126E-1,-4.4865522E-1,-1.8406174E-1,-9.196798E-1,-2.0088185E-2,-5.88619E-1,8.983746E-3,-3.4914866E-1,3.1624366E-2,-2.79832E-1,-4.8177713E-1,1.5569443E-1,9.122282E-2,4.2797962E-1,7.188355E-1,3.4989768E-1,-9.485606E-2,8.9870565E-2,1.5564488E-2,-6.014849E-2,5.6682265E-4,-6.610851E-2,-1.2491139E-1,-4.6398163E-2,8.029987E-3,-1.2924598E-1,-7.1478985E-2,-2.4454542E-2,-5.761722E-3,5.0591327E-2,-4.7378972E-2,-1.7329425E-2,2.2230012E-2,-1.1180782E-2,-8.440855E-3,-4.3318197E-2,-3.0762298E-2,-1.6063277E-1,2.6601642E-2,4.3281517E-3,1.576179E-2,-3.304449E-2,9.972E-2,3.7852358E-2,5.9200294E-2,9.38113E-2,5.945418E-2,2.3131387E-2],"categories":[],"categories_nodes":[],"categories_segments":[],"categories_sizes":[],"default_left":[0,0,0,0,0,0,0,0,0,0,0,0,0,0,0,0,0,0,0,0,0,0,0,0,0,0,0,0,0,0,0,0,0,0,0,0,0,0,0,0,0,0,0,0,0,0,0,0,0,0,0,0,0,0,0,0,0,0,0,0,0,0,0],"id":9,"left_children":[1,3,5,7,9,11,13,15,17,19,21,23,25,27,29,31,33,35,37,39,41,43,45,47,49,51,53,55,57,59,61,-1,-1,-1,-1,-1,-1,-1,-1,-1,-1,-1,-1,-1,-1,-1,-1,-1,-1,-1,-1,-1,-1,-1,-1,-1,-1,-1,-1,-1,-1,-1,-1],"loss_changes":[9.221517E2,1.4612262E2,2.3770355E2,5.2937378E1,9.226967E1,1.2562914E2,1.3093854E2,4.1054688E1,5.4006462E1,5.3590973E1,7.778821E1,7.822197E1,5.4218918E1,9.029527E1,5.884201E1,2.7674927E1,2.4007496E1,3.388779E1,1.992369E1,2.5822088E1,4.1652863E1,4.558823E1,2.3693176E1,4.3800686E1,4.8682297E1,2.6505232E1,5.192984E1,7.424437E1,3.1683136E1,2.2264435E1,2.6631378E1,0E0,0E0,0E0,0E0,0E0,0E0,0E0,0E0,0E0,0E0,0E0,0E0,0E0,0E0,0E0,0E0,0E0,0E0,0E0,0E0,0E0,0E0,0E0,0E0,0E0,0E0,0E0,0E0,0E0,0E0,0E0,0E0],"parents":[2147483647,0,0,1,1,2,2,3,3,4,4,5,5,6,6,7,7,8,8,9,9,10,10,11,11,12,12,13,13,14,14,15,15,16,16,17,17,18,18,19,19,20,20,21,21,22,22,23,23,24,24,25,25,26,26,27,27,28,28,29,29,30,30],"right_children":[2,4,6,8,10,12,14,16,18,20,22,24,26,28,30,32,34,36,38,40,42,44,46,48,50,52,54,56,58,60,62,-1,-1,-1,-1,-1,-1,-1,-1,-1,-1,-1,-1,-1,-1,-1,-1,-1,-1,-1,-1,-1,-1,-1,-1,-1,-1,-1,-1,-1,-1,-1,-1],"split_conditions":[1.09E1,7.34E0,1E0,2.91E1,2.5604E2,1.504E1,1.95E4,5.5341E2,2.5158E4,3.283E4,1.35195E5,2E0,9.829E1,1.903E1,4.107E3,1.71E2,6.6E4,1E1,1.8E1,9.6E1,4.92E1,1E0,3E0,1.8E1,4E0,2.02E4,2E0,1.4E1,1E0,8.759E2,4E0,-9.485606E-2,8.9870565E-2,1.5564488E-2,-6.014849E-2,5.6682265E-4,-6.610851E-2,-1.2491139E-1,-4.6398163E-2,8.029987E-3,-1.2924598E-1,-7.1478985E-2,-2.4454542E-2,-5.761722E-3,5.0591327E-2,-4.7378972E-2,-1.7329425E-2,2.2230012E-2,-1.1180782E-2,-8.440855E-3,-4.3318197E-2,-3.0762298E-2,-1.6063277E-1,2.6601642E-2,4.3281517E-3,1.576179E-2,-3.304449E-2,9.972E-2,3.7852358E-2,5.9200294E-2,9.38113E-2,5.945418E-2,2.3131387E-2],"split_indices":[72,72,118,37,1,72,0,1,35,2,18,22,1,72,28,45,2,54,23,25,37,134,33,12,47,69,44,54,54,1,47,0,0,0,0,0,0,0,0,0,0,0,0,0,0,0,0,0,0,0,0,0,0,0,0,0,0,0,0,0,0,0,0],"split_type":[0,0,0,0,0,0,0,0,0,0,0,0,0,0,0,0,0,0,0,0,0,0,0,0,0,0,0,0,0,0,0,0,0,0,0,0,0,0,0,0,0,0,0,0,0,0,0,0,0,0,0,0,0,0,0,0,0,0,0,0,0,0,0],"sum_hessian":[1.8094482E4,5.0178867E3,1.3076596E4,1.3957573E3,3.6221294E3,7.5484556E3,5.5281396E3,8.8679456E2,5.0896277E2,1.162851E3,2.4592786E3,3.2243218E3,4.324134E3,3.7869036E3,1.7412362E3,6.288602E2,2.5793433E2,3.7338608E2,1.3557669E2,2.0034755E2,9.6250336E2,1.3755741E3,1.0837043E3,1.5996351E3,1.6246868E3,1.3686084E2,4.187273E3,2.64904E3,1.1378634E3,8.195149E2,9.217214E2,6.213858E2,7.474418E0,5.2061363E1,2.0587297E2,2.6784305E2,1.05543045E2,7.7679436E1,5.7897247E1,1.8656479E2,1.3782771E1,7.0346674E2,2.5903662E2,1.2137811E3,1.6179294E2,6.3320844E2,4.5049594E2,6.864856E2,9.131495E2,7.1502985E2,9.096569E2,1.196108E2,1.7250044E1,2.1126008E3,2.074672E3,2.2892112E3,3.5982907E2,8.942719E1,1.0484362E3,5.215465E2,2.9796835E2,2.9960602E2,6.2211536E2],"tree_param":{"num_deleted":"0","num_feature":"135","num_nodes":"63","size_leaf_vector":"1"}},{"base_weights":[-4.8455258E-4,-2.2488794E-1,1.9023038E-1,-4.6256927E-1,-1.10273264E-1,2.9788363E-1,5.1347822E-2,1.8333744E-2,-5.184731E-1,3.1344904E-4,-2.8728476E-1,-5.015408E-2,3.4103644E-1,-2.3615243E-1,1.0870977E-1,2.4296866E-1,-3.8066378E-1,-5.9575707E-1,-1.5348661E-1,-8.1483E-2,3.8745958E-1,-3.8040397E-1,4.799947E-3,2.4166241E-1,-2.108578E-1,2.7653995E-1,5.2999353E-1,7.786815E-2,-3.6503702E-1,2.8892204E-1,2.9102068E-2,-2.6874617E-2,5.5531986E-2,-6.188611E-2,4.026826E-2,-5.069017E-2,-8.5211694E-2,3.3747219E-3,-5.1983126E-2,-5.3923037E-2,-1.5315181E-3,4.9890246E-2,1.204694E-3,-3.0663893E-2,-6.7840256E-2,4.662782E-2,-1.5536216E-2,4.636145E-3,9.1338396E-2,-3.421537E-2,1.5475345E-2,7.5173564E-2,2.4596518E-2,6.552296E-2,4.0826846E-2,2.0815102E-2,-6.1644305E-2,-7.789754E-2,-2.392473E-2,4.7978427E-2,1.1201928E-2,-7.5831614E-3,2.1037621E-2],"categories":[],"categories_nodes":[],"categories_segments":[],"categories_sizes":[],"default_left":[0,0,0,0,0,0,0,0,0,0,0,0,0,0,0,0,0,0,0,0,0,0,0,0,0,0,0,0,0,0,0,0,0,0,0,0,0,0,0,0,0,0,0,0,0,0,0,0,0,0,0,0,0,0,0,0,0,0,0,0,0,0,0],"id":10,"left_children":[1,3,5,7,9,11,13,15,17,19,21,23,25,27,29,31,33,35,37,39,41,43,45,47,49,51,53,55,57,59,61,-1,-1,-1,-1,-1,-1,-1,-1,-1,-1,-1,-1,-1,-1,-1,-1,-1,-1,-1,-1,-1,-1,-1,-1,-1,-1,-1,-1,-1,-1,-1,-1],"loss_changes":[7.695612E2,2.2499799E2,1.453168E2,7.225702E1,1.09128E2,8.225519E1,7.004525E1,2.5262943E1,6.781891E1,1.087198E2,5.8305588E1,2.8418413E1,5.9226135E1,2.8623325E1,5.0781033E1,2.896494E1,1.9196724E1,4.481775E1,2.8966518E1,8.583925E1,2.5047874E1,3.552211E1,3.844625E1,2.8200424E1,1.8803816E1,5.261554E1,1.8614655E1,1.8800653E1,2.5905792E1,3.6566925E1,4.6745678E1,0E0,0E0,0E0,0E0,0E0,0E0,0E0,0E0,0E0,0E0,0E0,0E0,0E0,0E0,0E0,0E0,0E0,0E0,0E0,0E0,0E0,0E0,0E0,0E0,0E0,0E0,0E0,0E0,0E0,0E0,0E0,0E0],"parents":[2147483647,0,0,1,1,2,2,3,3,4,4,5,5,6,6,7,7,8,8,9,9,10,10,11,11,12,12,13,13,14,14,15,15,16,16,17,17,18,18,19,19,20,20,21,21,22,22,23,23,24,24,25,25,26,26,27,27,28,28,29,29,30,30],"right_children":[2,4,6,8,10,12,14,16,18,20,22,24,26,28,30,32,34,36,38,40,42,44,46,48,50,52,54,56,58,60,62,-1,-1,-1,-1,-1,-1,-1,-1,-1,-1,-1,-1,-1,-1,-1,-1,-1,-1,-1,-1,-1,-1,-1,-1,-1,-1,-1,-1,-1,-1,-1,-1],"split_conditions":[1.358E1,9.43E0,1E0,2E0,1.33009E5,1.6603E2,7.7E3,2.1808E4,2.406E1,1E0,7.077E2,8.078E3,2.145E1,4.5E4,1.05E4,2.2085E2,1E0,4.91E4,1.2E1,1.4946E2,1E1,4E0,7.707E3,1.928E1,6E0,1E0,3.732E3,3E0,3.27E1,2E0,2.522E1,-2.6874617E-2,5.5531986E-2,-6.188611E-2,4.026826E-2,-5.069017E-2,-8.5211694E-2,3.3747219E-3,-5.1983126E-2,-5.3923037E-2,-1.5315181E-3,4.9890246E-2,1.204694E-3,-3.0663893E-2,-6.7840256E-2,4.662782E-2,-1.5536216E-2,4.636145E-3,9.1338396E-2,-3.421537E-2,1.5475345E-2,7.5173564E-2,2.4596518E-2,6.552296E-2,4.0826846E-2,2.0815102E-2,-6.1644305E-2,-7.789754E-2,-2.392473E-2,4.7978427E-2,1.1201928E-2,-7.5831614E-3,2.1037621E-2],"split_indices":[72,72,116,54,18,1,0,18,3,120,1,24,72,2,69,1,120,69,54,1,74,32,11,3,51,54,28,32,73,44,3,0,0,0,0,0,0,0,0,0,0,0,0,0,0,0,0,0,0,0,0,0,0,0,0,0,0,0,0,0,0,0,0],"split_type":[0,0,0,0,0,0,0,0,0,0,0,0,0,0,0,0,0,0,0,0,0,0,0,0,0,0,0,0,0,0,0,0,0,0,0,0,0,0,0,0,0,0,0,0,0,0,0,0,0,0,0,0,0,0,0,0,0,0,0,0,0,0,0],"sum_hessian":[1.797963E4,8.260175E3,9.719456E3,2.686347E3,5.5738276E3,5.474677E3,4.244779E3,2.7983008E2,2.4065168E3,3.4312046E3,2.1426233E3,6.0390155E2,4.870775E3,7.0552814E2,3.5392507E3,1.7928435E2,1.0054573E2,1.9854716E3,4.2104532E2,2.83336E3,5.9784436E2,1.624436E3,5.1818713E2,2.1428494E2,3.896166E2,3.6331426E3,1.2376324E3,2.054226E2,5.0010556E2,1.0836052E3,2.4556455E3,6.800825E1,1.112761E2,7.726211E1,2.3283623E1,1.4766396E3,5.088319E2,2.7923828E2,1.4180705E2,3.5693604E2,2.476424E3,4.6074216E2,1.3710222E2,1.3037432E3,3.2069293E2,1.3301555E2,3.851716E2,1.6684445E2,4.7440487E1,2.867169E2,1.0289972E2,2.1820445E2,3.4149382E3,6.0785834E2,6.297742E2,1.7355615E2,3.1866455E1,1.1534503E2,3.8476053E2,5.204135E2,5.631917E2,1.5556895E3,8.999562E2],"tree_param":{"num_deleted":"0","num_feature":"135","num_nodes":"63","size_leaf_vector":"1"}},{"base_weights":[-4.8566962E-4,-3.4583044E-1,1.02754526E-1,-5.2797663E-1,-2.2192968E-1,8.168657E-3,2.4867822E-1,-5.968444E-1,3.0900626E-2,-1.0777329E-1,-5.36771E-1,1.7809586E-1,-8.9912266E-2,3.2955453E-1,6.9596805E-2,-2.704213E-1,-7.215842E-1,-4.7283554E-1,3.2885313E-1,9.824292E-3,-3.67976E-1,-2.0852077E-1,-6.766909E-1,2.763574E-1,-1.5597788E-2,-2.983616E-1,-8.2884375E-3,4.9008876E-1,2.509859E-1,-1.891714E-1,1.5174145E-1,-4.248959E-2,3.745478E-2,8.7084314E-5,-7.811317E-2,7.722926E-2,-6.506983E-2,7.870368E-2,-3.429775E-2,-9.885411E-3,3.780059E-2,3.803187E-2,-4.6985555E-2,-4.560178E-2,2.953063E-2,-1.9754319E-2,-7.844077E-2,2.1695407E-2,7.3830195E-2,-6.415447E-2,3.2128636E-3,-5.38459E-2,-7.2349906E-3,2.346848E-2,-1.0472855E-2,5.252648E-2,-2.7599682E-3,-2.5657147E-2,2.7976617E-2,-2.8234456E-2,5.5787604E-2,1.0621373E-2,7.742238E-2],"categories":[],"categories_nodes":[],"categories_segments":[],"categories_sizes":[],"default_left":[0,0,0,0,0,0,0,0,0,0,0,0,0,0,0,0,0,0,0,0,0,0,0,0,0,0,0,0,0,0,0,0,0,0,0,0,0,0,0,0,0,0,0,0,0,0,0,0,0,0,0,0,0,0,0,0,0,0,0,0,0,0,0],"id":11,"left_children":[1,3,5,7,9,11,13,15,17,19,21,23,25,27,29,31,33,35,37,39,41,43,45,47,49,51,53,55,57,59,61,-1,-1,-1,-1,-1,-1,-1,-1,-1,-1,-1,-1,-1,-1,-1,-1,-1,-1,-1,-1,-1,-1,-1,-1,-1,-1,-1,-1,-1,-1,-1,-1],"loss_changes":[6.370079E2,9.268143E1,1.8984486E2,6.4062195E1,8.796133E1,1.3912212E2,7.832263E1,6.0127014E1,2.7696701E1,5.5038048E1,2.9777893E1,5.8145256E1,9.004793E1,4.6874573E1,3.5828316E1,4.1127792E1,4.6086853E1,1.5696716E1,3.5943413E1,4.9641796E1,4.2860252E1,2.4591625E1,2.3395203E1,5.545514E1,3.0763626E1,8.077525E1,8.9169106E1,2.2292053E1,3.6646225E1,2.8434883E1,3.6162693E1,0E0,0E0,0E0,0E0,0E0,0E0,0E0,0E0,0E0,0E0,0E0,0E0,0E0,0E0,0E0,0E0,0E0,0E0,0E0,0E0,0E0,0E0,0E0,0E0,0E0,0E0,0E0,0E0,0E0,0E0,0E0,0E0],"parents":[2147483647,0,0,1,1,2,2,3,3,4,4,5,5,6,6,7,7,8,8,9,9,10,10,11,11,12,12,13,13,14,14,15,15,16,16,17,17,18,18,19,19,20,20,21,21,22,22,23,23,24,24,25,25,26,26,27,27,28,28,29,29,30,30],"right_children":[2,4,6,8,10,12,14,16,18,20,22,24,26,28,30,32,34,36,38,40,42,44,46,48,50,52,54,56,58,60,62,-1,-1,-1,-1,-1,-1,-1,-1,-1,-1,-1,-1,-1,-1,-1,-1,-1,-1,-1,-1,-1,-1,-1,-1,-1,-1,-1,-1,-1,-1,-1,-1],"split_conditions":[1.041E1,3.0887E2,1.709E1,1E0,1.1E1,5E0,2E0,7.05E2,5.448E3,3.0406E4,1.41E2,1E0,9.5E3,3E0,1.485E1,2.084E1,2.7E4,9.2E1,1.3408E4,2.154E1,1E0,7.4328E2,6.3E4,8.3357E2,4.5E3,1.98E1,1.18E4,6E0,1.0169E2,4.13E2,9E0,-4.248959E-2,3.745478E-2,8.7084314E-5,-7.811317E-2,7.722926E-2,-6.506983E-2,7.870368E-2,-3.429775E-2,-9.885411E-3,3.780059E-2,3.803187E-2,-4.6985555E-2,-4.560178E-2,2.953063E-2,-1.9754319E-2,-7.844077E-2,2.1695407E-2,7.3830195E-2,-6.415447E-2,3.2128636E-3,-5.38459E-2,-7.2349906E-3,2.346848E-2,-1.0472855E-2,5.252648E-2,-2.7599682E-3,-2.5657147E-2,2.7976617E-2,-2.8234456E-2,5.5787604E-2,1.0621373E-2,7.742238E-2],"split_indices":[72,1,72,134,54,54,44,5,71,36,41,116,0,47,3,3,2,63,35,3,47,1,2,1,0,3,69,32,1,17,33,0,0,0,0,0,0,0,0,0,0,0,0,0,0,0,0,0,0,0,0,0,0,0,0,0,0,0,0,0,0,0,0],"split_type":[0,0,0,0,0,0,0,0,0,0,0,0,0,0,0,0,0,0,0,0,0,0,0,0,0,0,0,0,0,0,0,0,0,0,0,0,0,0,0,0,0,0,0,0,0,0,0,0,0,0,0,0,0,0,0,0,0,0,0,0,0,0,0],"sum_hessian":[1.7864654E4,4.1109443E3,1.375371E4,1.662964E3,2.4479802E3,8.345391E3,5.408319E3,1.4804653E3,1.8249861E2,1.7975573E3,6.504229E2,3.0538015E3,5.2915894E3,3.7251404E3,1.6831785E3,4.1020248E2,1.070263E3,6.760858E1,1.1489002E2,1.2386958E3,5.588614E2,1.9513316E2,4.5528976E2,2.0257192E3,1.0280823E3,1.4882559E3,3.8033335E3,1.2223511E3,2.5027893E3,4.0525626E2,1.2779222E3,3.312153E2,7.898717E1,8.157281E1,9.8869006E2,8.032813E0,5.957577E1,6.820394E1,4.6686077E1,9.5695667E2,2.8173917E2,6.6642944E1,4.9221844E2,1.3091711E2,6.421605E1,8.4086914E1,3.7120285E2,1.7962072E3,2.295121E2,7.195308E1,9.561292E2,7.2097015E2,7.6728564E2,1.080263E3,2.7230706E3,1.1445651E3,7.778591E1,1.3387679E2,2.3689126E3,3.6086993E2,4.4386322E1,1.1919172E3,8.600498E1],"tree_param":{"num_deleted":"0","num_feature":"135","num_nodes":"63","size_leaf_vector":"1"}},{"base_weights":[-5.131636E-4,-1.8831532E-1,1.5818779E-1,-5.21929E-1,-1.2445846E-1,2.8634238E-1,6.2332008E-2,-2.794095E-1,-6.798159E-1,-7.814326E-3,-2.6812562E-1,6.1544126E-1,2.485729E-1,-6.053572E-2,2.016468E-1,-4.5667255E-1,1.8225913E-1,-8.3401036E-1,-3.9925152E-1,-8.1097305E-2,2.9315045E-1,-1.021769E0,-2.3551199E-1,1.6797951E-1,7.5391597E-1,1.8977168E-1,4.5355043E-1,-2.3651163E-1,1.2951657E-1,1.0044373E-1,3.1938508E-1,-6.68883E-2,1.4765617E-3,3.3870902E-2,-1.0027709E-1,-6.443165E-2,-1.07515134E-1,-6.0868543E-3,-7.271733E-2,2.3333519E-4,-2.7292041E-2,5.030417E-2,1.2473603E-4,6.6872954E-2,-1.0747804E-1,-6.05837E-2,-1.873796E-2,3.2900408E-2,-8.967374E-2,8.2038745E-2,1.4514084E-2,2.3187809E-2,-8.973989E-3,4.812851E-2,-9.1600105E-2,-1.5201347E-2,-5.8517385E-2,3.3871274E-2,-4.6656476E-3,-6.4055747E-3,2.4355179E-2,2.3988001E-2,5.0605424E-2],"categories":[],"categories_nodes":[],"categories_segments":[],"categories_sizes":[],"default_left":[0,0,0,0,0,0,0,0,0,0,0,0,0,0,0,0,0,0,0,0,0,0,0,0,0,0,0,0,0,0,0,0,0,0,0,0,0,0,0,0,0,0,0,0,0,0,0,0,0,0,0,0,0,0,0,0,0,0,0,0,0,0,0],"id":12,"left_children":[1,3,5,7,9,11,13,15,17,19,21,23,25,27,29,31,33,35,37,39,41,43,45,47,49,51,53,55,57,59,61,-1,-1,-1,-1,-1,-1,-1,-1,-1,-1,-1,-1,-1,-1,-1,-1,-1,-1,-1,-1,-1,-1,-1,-1,-1,-1,-1,-1,-1,-1,-1,-1],"loss_changes":[5.2932874E2,1.7322333E2,1.1822948E2,4.9837555E1,1.1443332E2,5.1041992E1,9.429682E1,4.2383076E1,3.3871277E1,8.3169914E1,7.496854E1,2.6104797E1,4.4465775E1,9.794349E1,3.0728188E1,3.740278E1,2.7058495E1,2.2604523E1,3.1284176E1,4.8531555E1,4.5239902E1,1.2066208E1,5.218869E1,1.7668713E1,1.2951935E1,3.3846542E1,3.1711884E1,4.4705605E1,5.1913082E1,3.273108E1,1.7581535E1,0E0,0E0,0E0,0E0,0E0,0E0,0E0,0E0,0E0,0E0,0E0,0E0,0E0,0E0,0E0,0E0,0E0,0E0,0E0,0E0,0E0,0E0,0E0,0E0,0E0,0E0,0E0,0E0,0E0,0E0,0E0,0E0],"parents":[2147483647,0,0,1,1,2,2,3,3,4,4,5,5,6,6,7,7,8,8,9,9,10,10,11,11,12,12,13,13,14,14,15,15,16,16,17,17,18,18,19,19,20,20,21,21,22,22,23,23,24,24,25,25,26,26,27,27,28,28,29,29,30,30],"right_children":[2,4,6,8,10,12,14,16,18,20,22,24,26,28,30,32,34,36,38,40,42,44,46,48,50,52,54,56,58,60,62,-1,-1,-1,-1,-1,-1,-1,-1,-1,-1,-1,-1,-1,-1,-1,-1,-1,-1,-1,-1,-1,-1,-1,-1,-1,-1,-1,-1,-1,-1,-1,-1],"split_conditions":[1.358E1,7.34E0,6E0,5.995E3,2E0,1.078E3,2.292E1,2.85E1,1.95E4,1E0,3E3,1.8273E2,2.185E1,1.6E4,1E0,4.6124E2,1.3E1,2.1004E4,2.9933E4,1.33009E5,4.107E3,1E0,9.03E0,6.4071E4,1E0,2.60332E5,5.4379E4,1.0792E4,4.228E3,2.959E1,7E0,-6.68883E-2,1.4765617E-3,3.3870902E-2,-1.0027709E-1,-6.443165E-2,-1.07515134E-1,-6.0868543E-3,-7.271733E-2,2.3333519E-4,-2.7292041E-2,5.030417E-2,1.2473603E-4,6.6872954E-2,-1.0747804E-1,-6.05837E-2,-1.873796E-2,3.2900408E-2,-8.967374E-2,8.2038745E-2,1.4514084E-2,2.3187809E-2,-8.973989E-3,4.812851E-2,-9.1600105E-2,-1.5201347E-2,-5.8517385E-2,3.3871274E-2,-4.6656476E-3,-6.4055747E-3,2.4355179E-2,2.3988001E-2,5.0605424E-2],"split_indices":[72,72,54,35,22,11,3,73,0,120,0,1,72,0,7,1,54,35,36,18,28,42,3,67,65,67,35,36,28,3,14,0,0,0,0,0,0,0,0,0,0,0,0,0,0,0,0,0,0,0,0,0,0,0,0,0,0,0,0,0,0,0,0],"split_type":[0,0,0,0,0,0,0,0,0,0,0,0,0,0,0,0,0,0,0,0,0,0,0,0,0,0,0,0,0,0,0,0,0,0,0,0,0,0,0,0,0,0,0,0,0,0,0,0,0,0,0,0,0,0,0,0,0,0,0,0,0,0,0],"sum_hessian":[1.77581E4,8.1332534E3,9.624846E3,1.3055204E3,6.827733E3,4.117696E3,5.50715E3,5.1588043E2,7.8964E2,3.7688433E3,3.05889E3,4.2234656E2,3.6953494E3,2.926611E3,2.580539E3,3.727641E2,1.4311632E2,5.0830807E2,2.8133194E2,3.0314382E3,7.37405E2,1.25623474E2,2.9332664E3,1.0033641E2,3.2201016E2,2.8730833E3,8.22266E2,1.5194531E3,1.4071581E3,1.3887115E3,1.1918274E3,2.5676608E2,1.15998024E2,1.2705629E2,1.6060032E1,2.865585E2,2.2174959E2,1.3904095E2,1.4229097E2,2.113284E3,9.181542E2,4.2854144E2,3.0886356E2,3.4664328E0,1.22157036E2,3.3606152E2,2.5972048E3,8.775552E1,1.2580887E1,2.89998E2,3.2012157E1,2.4970857E3,3.759976E2,8.0658057E2,1.5685426E1,1.2242037E3,2.952494E2,6.42866E2,7.6429205E2,6.4632635E2,7.423852E2,8.374363E2,3.5439114E2],"tree_param":{"num_deleted":"0","num_feature":"135","num_nodes":"63","size_leaf_vector":"1"}},{"base_weights":[-5.4106023E-4,-2.9375017E-1,8.562825E-2,-3.716564E-1,-2.5451327E-2,-6.574449E-3,2.1458128E-1,-2.6283762E-1,-6.2077934E-1,3.3446467E-1,-2.019469E-1,-8.4332906E-2,1.5794392E-1,1.2546395E-1,4.1556183E-1,-4.2868406E-1,-7.408586E-2,-7.5247747E-1,-3.7408632E-1,1.1137773E0,2.065931E-1,2.5999603E-1,-3.0306426E-1,-1.7275845E-1,6.6165455E-2,2.617602E-1,-5.4782387E-3,1.72674E-1,-1.6134177E-1,5.312945E-1,1.7495726E-1,-4.7484692E-2,9.342169E-2,-2.1582296E-2,1.3081655E-2,-8.583439E-2,-4.1460138E-2,-2.208971E-2,-8.264371E-2,-2.7665937E-2,1.335739E-1,4.4728886E-2,-3.2646455E-2,-5.064672E-2,5.8611143E-2,1.2881035E-2,-4.519521E-2,-2.3036048E-2,1.606887E-2,1.9390231E-2,-7.3803435E-3,2.2167621E-2,7.710978E-2,-2.2685915E-2,1.722674E-2,7.2650947E-3,3.441493E-2,2.179719E-2,-3.314128E-2,6.08084E-2,2.9809708E-2,1.9942869E-2,-1.294497E-1],"categories":[],"categories_nodes":[],"categories_segments":[],"categories_sizes":[],"default_left":[0,0,0,0,0,0,0,0,0,0,0,0,0,0,0,0,0,0,0,0,0,0,0,0,0,0,0,0,0,0,0,0,0,0,0,0,0,0,0,0,0,0,0,0,0,0,0,0,0,0,0,0,0,0,0,0,0,0,0,0,0,0,0],"id":13,"left_children":[1,3,5,7,9,11,13,15,17,19,21,23,25,27,29,31,33,35,37,39,41,43,45,47,49,51,53,55,57,59,61,-1,-1,-1,-1,-1,-1,-1,-1,-1,-1,-1,-1,-1,-1,-1,-1,-1,-1,-1,-1,-1,-1,-1,-1,-1,-1,-1,-1,-1,-1,-1,-1],"loss_changes":[4.4633182E2,8.385901E1,1.6233484E2,8.413156E1,5.7492085E1,1.01868034E2,1.01900085E2,6.776819E1,3.040683E1,2.9447811E1,2.8440075E1,7.1970146E1,4.3361546E1,5.344369E1,4.8587097E1,7.296481E1,2.9482649E1,2.1636414E1,2.2736568E1,1.3254799E1,3.312867E1,2.7686329E1,3.2118294E1,6.546241E1,3.5807198E1,3.1737717E1,3.9145496E1,5.8082474E1,3.6075882E1,2.0947662E1,2.0729195E1,0E0,0E0,0E0,0E0,0E0,0E0,0E0,0E0,0E0,0E0,0E0,0E0,0E0,0E0,0E0,0E0,0E0,0E0,0E0,0E0,0E0,0E0,0E0,0E0,0E0,0E0,0E0,0E0,0E0,0E0,0E0,0E0],"parents":[2147483647,0,0,1,1,2,2,3,3,4,4,5,5,6,6,7,7,8,8,9,9,10,10,11,11,12,12,13,13,14,14,15,15,16,16,17,17,18,18,19,19,20,20,21,21,22,22,23,23,24,24,25,25,26,26,27,27,28,28,29,29,30,30],"right_children":[2,4,6,8,10,12,14,16,18,20,22,24,26,28,30,32,34,36,38,40,42,44,46,48,50,52,54,56,58,60,62,-1,-1,-1,-1,-1,-1,-1,-1,-1,-1,-1,-1,-1,-1,-1,-1,-1,-1,-1,-1,-1,-1,-1,-1,-1,-1,-1,-1,-1,-1,-1,-1],"split_conditions":[1.041E1,2.4E4,1E0,8.2E4,6.19E3,1E0,1.95E4,2.88E1,6E0,1E0,1.32E2,1.88E4,2E0,1.4E1,6.65E3,3E1,7E0,4.88E1,1.3E1,1E0,5.31E4,7.2E2,7.1E2,1E0,1.6012E4,8E0,2.292E1,2.061E1,6.75E2,1E1,2.4E2,-4.7484692E-2,9.342169E-2,-2.1582296E-2,1.3081655E-2,-8.583439E-2,-4.1460138E-2,-2.208971E-2,-8.264371E-2,-2.7665937E-2,1.335739E-1,4.4728886E-2,-3.2646455E-2,-5.064672E-2,5.8611143E-2,1.2881035E-2,-4.519521E-2,-2.3036048E-2,1.606887E-2,1.9390231E-2,-7.3803435E-3,2.2167621E-2,7.710978E-2,-2.2685915E-2,1.722674E-2,7.2650947E-3,3.441493E-2,2.179719E-2,-3.314128E-2,6.08084E-2,2.9809708E-2,1.9942869E-2,-1.294497E-1],"split_indices":[72,0,118,2,35,120,0,37,51,47,41,0,32,54,28,43,53,37,54,7,69,5,5,134,11,33,3,3,5,74,40,0,0,0,0,0,0,0,0,0,0,0,0,0,0,0,0,0,0,0,0,0,0,0,0,0,0,0,0,0,0,0,0],"split_type":[0,0,0,0,0,0,0,0,0,0,0,0,0,0,0,0,0,0,0,0,0,0,0,0,0,0,0,0,0,0,0,0,0,0,0,0,0,0,0,0,0,0,0,0,0,0,0,0,0,0,0,0,0,0,0,0,0,0,0,0,0,0,0],"sum_hessian":[1.766358E4,4.0114329E3,1.3652148E4,3.108445E3,9.029878E2,7.9609434E3,5.6912046E3,2.1648691E3,9.4357574E2,2.9681567E2,6.0617206E2,5.406219E3,2.5547244E3,3.944006E3,1.7471984E3,1.1516781E3,1.01319116E3,6.1382983E2,3.2974594E2,4.0750694E1,2.56065E2,1.08577446E2,4.9759464E2,3.4052888E3,2.0009303E3,1.5619019E3,9.928226E2,3.386899E3,5.5710724E2,1.17892E3,5.6827826E2,1.1145778E3,3.7100296E1,5.988769E2,4.1431427E2,4.662117E2,1.4761813E2,2.4743878E2,8.230717E1,5.5757904E0,3.5174904E1,1.7652028E2,7.954471E1,3.224338E1,7.633407E1,1.27601E2,3.6999362E2,2.903949E3,5.013397E2,1.0459769E3,9.549533E2,1.4492811E3,1.12620735E2,4.4201712E2,5.508054E2,2.1400264E3,1.2468726E3,1.7237448E2,3.8473276E2,8.8567053E2,2.9324954E2,5.5981964E2,8.458621E0],"tree_param":{"num_deleted":"0","num_feature":"135","num_nodes":"63","size_leaf_vector":"1"}},{"base_weights":[-5.321508E-4,-1.6005701E-1,1.3347818E-1,9.9071875E-2,-2.2261971E-1,2.4767517E-1,4.8652343E-2,4.775883E-2,6.831809E-1,-5.8203673E-1,-1.684648E-1,5.70275E-1,2.1253407E-1,-5.8757346E-2,1.7078045E-1,-5.2242976E-1,1.0248253E-1,-3.4384552E-1,8.324015E-1,-3.1743798E-1,-7.1105933E-1,-3.8340154E-1,-8.506221E-2,8.978902E-1,4.5443672E-1,1.616696E-1,4.5497534E-1,-1.5401338E-1,2.0098178E-1,3.6608446E-1,1.17111534E-1,-1.0341809E-1,-2.6117254E-2,3.83483E-3,4.5550685E-2,-1.5753794E-1,7.9687156E-2,9.429776E-2,-2.593677E-3,-4.3666515E-2,4.1879576E-2,-7.909773E-2,-2.268731E-2,-5.207103E-2,-1.7488223E-2,8.515271E-3,-1.8471032E-2,9.576888E-2,-6.241703E-2,1.4482352E-2,5.860094E-2,6.3541704E-3,2.8972868E-2,7.068398E-2,2.942327E-2,-4.6795127E-3,-3.7176486E-2,4.3735493E-2,-3.7106796E-4,4.7809E-2,1.0256243E-2,1.657956E-2,-1.2946017E-2],"categories":[],"categories_nodes":[],"categories_segments":[],"categories_sizes":[],"default_left":[0,0,0,0,0,0,0,0,0,0,0,0,0,0,0,0,0,0,0,0,0,0,0,0,0,0,0,0,0,0,0,0,0,0,0,0,0,0,0,0,0,0,0,0,0,0,0,0,0,0,0,0,0,0,0,0,0,0,0,0,0,0,0],"id":14,"left_children":[1,3,5,7,9,11,13,15,17,19,21,23,25,27,29,31,33,35,37,39,41,43,45,47,49,51,53,55,57,59,61,-1,-1,-1,-1,-1,-1,-1,-1,-1,-1,-1,-1,-1,-1,-1,-1,-1,-1,-1,-1,-1,-1,-1,-1,-1,-1,-1,-1,-1,-1,-1,-1],"loss_changes":[3.7572592E2,1.3010304E2,9.251222E1,4.6759483E1,1.2571216E2,4.602661E1,7.191887E1,4.4866302E1,1.9595566E1,2.8655212E1,1.0068974E2,1.4744644E1,4.521382E1,7.221234E1,2.6847054E1,1.6566605E1,2.9670372E1,2.4704472E1,1.0493637E1,2.4682259E1,2.1794403E1,4.487349E1,6.869734E1,9.997414E0,1.2014004E1,3.8146706E1,2.5553589E1,4.9831467E1,3.7898727E1,1.6259438E1,2.419622E1,0E0,0E0,0E0,0E0,0E0,0E0,0E0,0E0,0E0,0E0,0E0,0E0,0E0,0E0,0E0,0E0,0E0,0E0,0E0,0E0,0E0,0E0,0E0,0E0,0E0,0E0,0E0,0E0,0E0,0E0,0E0,0E0],"parents":[2147483647,0,0,1,1,2,2,3,3,4,4,5,5,6,6,7,7,8,8,9,9,10,10,11,11,12,12,13,13,14,14,15,15,16,16,17,17,18,18,19,19,20,20,21,21,22,22,23,23,24,24,25,25,26,26,27,27,28,28,29,29,30,30],"right_children":[2,4,6,8,10,12,14,16,18,20,22,24,26,28,30,32,34,36,38,40,42,44,46,48,50,52,54,56,58,60,62,-1,-1,-1,-1,-1,-1,-1,-1,-1,-1,-1,-1,-1,-1,-1,-1,-1,-1,-1,-1,-1,-1,-1,-1,-1,-1,-1,-1,-1,-1,-1,-1],"split_conditions":[1.358E1,3E0,6E0,7.3E1,6.83E0,1E0,2.292E1,1.2043E2,5.9E1,7.3E2,2.5604E2,1.854E3,7.8434E2,6.938E2,2E0,4.99E0,6E0,1.31E2,1E0,2.446E1,1E0,1.937E1,4E0,1E0,9.5E3,1.853E1,1.88E1,1E1,4.556E3,1.6945E4,1E0,-1.0341809E-1,-2.6117254E-2,3.83483E-3,4.5550685E-2,-1.5753794E-1,7.9687156E-2,9.429776E-2,-2.593677E-3,-4.3666515E-2,4.1879576E-2,-7.909773E-2,-2.268731E-2,-5.207103E-2,-1.7488223E-2,8.515271E-3,-1.8471032E-2,9.576888E-2,-6.241703E-2,1.4482352E-2,5.860094E-2,6.3541704E-3,2.8972868E-2,7.068398E-2,2.942327E-2,-4.6795127E-3,-3.7176486E-2,4.3735493E-2,-3.7106796E-4,4.7809E-2,1.0256243E-2,1.657956E-2,-1.2946017E-2],"split_indices":[72,54,54,45,72,54,3,1,25,5,1,11,1,1,47,3,50,45,86,3,134,3,47,65,0,3,64,74,28,35,121,0,0,0,0,0,0,0,0,0,0,0,0,0,0,0,0,0,0,0,0,0,0,0,0,0,0,0,0,0,0,0,0],"split_type":[0,0,0,0,0,0,0,0,0,0,0,0,0,0,0,0,0,0,0,0,0,0,0,0,0,0,0,0,0,0,0,0,0,0,0,0,0,0,0,0,0,0,0,0,0,0,0,0,0,0,0,0,0,0,0,0,0,0,0,0,0,0,0],"sum_hessian":[1.7573373E4,8.022845E3,9.550527E3,1.5601724E3,6.462673E3,4.069727E3,5.4808003E3,1.4351763E3,1.2499617E2,8.449742E2,5.6176987E3,3.982757E2,3.6714514E3,2.916396E3,2.564404E3,1.24930244E2,1.310246E3,1.5691747E1,1.0930442E2,2.7810287E2,5.668713E2,1.5694564E3,4.0482422E3,1.0227348E2,2.960022E2,3.0361335E3,6.3531775E2,2.1341357E3,7.822602E2,5.515313E2,2.0128728E3,4.1223366E1,8.370688E1,1.1097461E3,2.0049991E2,7.3622823E0,8.329465E0,9.6742836E1,1.2561584E1,2.3969336E2,3.8409523E1,4.8601743E2,8.085386E1,9.454114E2,6.240451E2,1.4948849E3,2.5533572E3,9.8764046E1,3.5094392E0,8.8901764E1,2.0710043E2,1.7197987E3,1.316335E3,2.4618225E2,3.891355E2,1.430828E3,7.033078E2,3.6250864E2,4.1975156E2,3.864592E2,1.6507211E2,1.6812483E3,3.3162454E2],"tree_param":{"num_deleted":"0","num_feature":"135","num_nodes":"63","size_leaf_vector":"1"}},{"base_weights":[-5.1364E-4,-2.962156E-1,5.996296E-2,-1.964558E-1,-5.360248E-1,1.647507E-1,-3.3848293E-2,-3.032374E-1,5.7409726E-2,-3.403373E-1,-6.6679615E-1,-1.260471E-2,2.6187703E-1,-8.454802E-2,2.0139419E-1,-3.801457E-1,2.3211573E-1,2.5423777E-1,-1.9006886E-1,-4.7398403E-1,2.8567916E-1,1.9942087E-1,-6.8501896E-1,1.04162835E-1,-2.4419782E-1,4.9353558E-1,1.9454953E-1,-1.5823585E-1,7.4011706E-2,4.7256437E-1,9.306851E-2,-5.647347E-2,-1.5875462E-2,4.125149E-2,-7.4973844E-2,3.5569083E-2,-3.354271E-2,6.2180974E-2,-3.3815727E-2,6.765085E-2,-5.3393513E-2,4.2780865E-2,-1.2118498E-1,-2.7924642E-2,-7.856558E-2,-3.968164E-3,2.8565703E-2,-4.954244E-2,-3.887792E-3,8.924178E-2,4.4148486E-2,1.1989865E-2,4.134515E-2,-7.776574E-4,-2.6692891E-2,1.35151E-2,-1.2564405E-2,7.7583075E-2,2.4270426E-2,-6.364648E-3,2.8710803E-2],"categories":[],"categories_nodes":[],"categories_segments":[],"categories_sizes":[],"default_left":[0,0,0,0,0,0,0,0,0,0,0,0,0,0,0,0,0,0,0,0,0,0,0,0,0,0,0,0,0,0,0,0,0,0,0,0,0,0,0,0,0,0,0,0,0,0,0,0,0,0,0,0,0,0,0,0,0,0,0,0,0],"id":15,"left_children":[1,3,5,7,9,11,13,15,17,19,21,23,25,27,29,31,33,35,37,39,41,-1,43,45,47,49,51,53,55,57,59,-1,-1,-1,-1,-1,-1,-1,-1,-1,-1,-1,-1,-1,-1,-1,-1,-1,-1,-1,-1,-1,-1,-1,-1,-1,-1,-1,-1,-1,-1],"loss_changes":[3.1273685E2,7.093063E1,1.427271E2,5.6905563E1,2.2081665E1,1.1814252E2,9.1391716E1,6.09162E1,3.0355639E1,2.9522552E1,2.6654678E1,6.5678474E1,6.902167E1,7.36628E1,3.9867676E1,5.2716736E1,3.328984E1,2.0877232E1,3.3418045E1,2.035167E1,1.3803788E1,0E0,2.0962418E1,4.216623E1,4.197173E1,2.0311127E1,5.608612E1,7.038374E1,2.443921E1,2.683036E1,2.9579247E1,0E0,0E0,0E0,0E0,0E0,0E0,0E0,0E0,0E0,0E0,0E0,0E0,0E0,0E0,0E0,0E0,0E0,0E0,0E0,0E0,0E0,0E0,0E0,0E0,0E0,0E0,0E0,0E0,0E0,0E0],"parents":[2147483647,0,0,1,1,2,2,3,3,4,4,5,5,6,6,7,7,8,8,9,9,10,10,11,11,12,12,13,13,14,14,15,15,16,16,17,17,18,18,19,19,20,20,22,22,23,23,24,24,25,25,26,26,27,27,28,28,29,29,30,30],"right_children":[2,4,6,8,10,12,14,16,18,20,22,24,26,28,30,32,34,36,38,40,42,-1,44,46,48,50,52,54,56,58,60,-1,-1,-1,-1,-1,-1,-1,-1,-1,-1,-1,-1,-1,-1,-1,-1,-1,-1,-1,-1,-1,-1,-1,-1,-1,-1,-1,-1,-1,-1],"split_conditions":[9.58E0,1E1,9.2746E4,1.9075E4,9.041E3,9.6E3,8.4948E2,1E0,2.9933E4,2.0303E4,3.7E1,2.0023E4,1.17E4,2.552E1,4.073E3,2.88E1,3E0,4.2E1,1E0,6E1,4.7597E4,1.9942087E-1,1.31E2,1.515E1,1.969E1,1E0,2.5E4,6E0,3.8E1,4.595E3,1E0,-5.647347E-2,-1.5875462E-2,4.125149E-2,-7.4973844E-2,3.5569083E-2,-3.354271E-2,6.2180974E-2,-3.3815727E-2,6.765085E-2,-5.3393513E-2,4.2780865E-2,-1.2118498E-1,-2.7924642E-2,-7.856558E-2,-3.968164E-3,2.8565703E-2,-4.954244E-2,-3.887792E-3,8.924178E-2,4.4148486E-2,1.1989865E-2,4.134515E-2,-7.776574E-4,-2.6692891E-2,1.35151E-2,-1.2564405E-2,7.7583075E-2,2.4270426E-2,-6.364648E-3,2.8710803E-2],"split_indices":[72,54,67,0,35,0,1,134,36,11,36,24,30,3,28,37,62,8,47,41,11,0,41,3,3,47,0,42,12,71,7,0,0,0,0,0,0,0,0,0,0,0,0,0,0,0,0,0,0,0,0,0,0,0,0,0,0,0,0,0,0],"split_type":[0,0,0,0,0,0,0,0,0,0,0,0,0,0,0,0,0,0,0,0,0,0,0,0,0,0,0,0,0,0,0,0,0,0,0,0,0,0,0,0,0,0,0,0,0,0,0,0,0,0,0,0,0,0,0,0,0,0,0,0,0],"sum_hessian":[1.7485898E4,2.96832E3,1.4517578E4,2.0975613E3,8.707589E2,6.857242E3,7.6603364E3,1.4763715E3,6.2118976E2,3.5024756E2,5.2051135E2,2.426767E3,4.430475E3,6.3026274E3,1.357709E3,1.2911727E3,1.8519865E2,3.459872E2,2.7520258E2,2.88829E2,6.1418533E1,2.8027463E0,5.177086E2,1.613701E3,8.1306604E2,9.962557E2,3.4342192E3,4.3029224E3,1.9997051E3,3.8659314E2,9.711158E2,7.0326306E2,5.879097E2,1.569429E2,2.825575E1,2.9553635E2,5.045085E1,4.196039E1,2.3324219E2,1.37958145E1,2.750332E2,5.6747036E1,4.6714997E0,1.0363245E2,4.1407614E2,9.0065894E2,7.130422E2,3.650199E2,4.4804614E2,1.1313317E2,8.831225E2,2.5620469E3,8.721724E2,1.805171E3,2.4977515E3,1.531153E3,4.6855203E2,1.6565746E2,2.2093568E2,5.375989E2,4.335169E2],"tree_param":{"num_deleted":"0","num_feature":"135","num_nodes":"61","size_leaf_vector":"1"}},{"base_weights":[-4.9683376E-4,-1.680772E-1,9.2129804E-2,1.19383074E-1,-2.2203732E-1,4.7144707E-2,2.8274384E-1,2.2505365E-2,4.6452934E-1,-6.209482E-1,-1.7658244E-1,-2.4740343E-1,7.694873E-2,-5.9568065E-1,3.0260167E-1,6.879429E-1,-5.065117E-2,-1.3002655E-1,5.14333E-1,2.4269438E-1,-7.1416366E-1,-2.6811993E-1,-8.663512E-3,-5.843096E-2,-4.2039168E-1,1.4935791E-1,-6.377606E-2,3.7956722E-3,-1.2337663E0,3.2266527E-1,-4.2984107E-1,4.188913E-3,9.5905945E-2,-1.0758183E-2,1.0156806E-1,3.283186E-2,9.8784916E-2,4.787272E-2,-9.5486335E-2,-7.71106E-2,2.1429572E-2,-3.251819E-2,4.3520327E-3,2.9398838E-2,-8.905539E-3,1.4395455E-2,-3.1407095E-2,-6.209295E-2,-4.7509368E-3,5.3029597E-2,1.2280482E-2,8.482936E-3,-1.9155262E-2,7.122161E-2,-1.3110155E-1,1.9724062E-2,-1.5286426E-1,5.7392176E-2,2.7164428E-2,-1.8583857E-1,-1.7586779E-2],"categories":[],"categories_nodes":[],"categories_segments":[],"categories_sizes":[],"default_left":[0,0,0,0,0,0,0,0,0,0,0,0,0,0,0,0,0,0,0,0,0,0,0,0,0,0,0,0,0,0,0,0,0,0,0,0,0,0,0,0,0,0,0,0,0,0,0,0,0,0,0,0,0,0,0,0,0,0,0,0,0],"id":16,"left_children":[1,3,5,7,9,11,13,15,17,19,21,23,25,27,29,31,33,-1,35,37,39,41,43,45,47,49,51,53,55,57,59,-1,-1,-1,-1,-1,-1,-1,-1,-1,-1,-1,-1,-1,-1,-1,-1,-1,-1,-1,-1,-1,-1,-1,-1,-1,-1,-1,-1,-1,-1],"loss_changes":[2.7009018E2,9.610304E1,9.6076546E1,3.274363E1,9.445752E1,7.9621025E1,3.7500458E1,3.732142E1,1.9534286E1,4.308963E1,7.19836E1,2.7220615E1,8.392396E1,1.822518E1,3.0893997E1,1.3259975E1,4.2057907E1,0E0,1.812569E1,1.5347537E1,2.5616776E1,5.3913025E1,4.025254E1,2.0713396E1,3.2495575E1,5.4937576E1,5.315459E1,2.4738073E1,1.003915E1,2.5965073E1,2.0073763E1,0E0,0E0,0E0,0E0,0E0,0E0,0E0,0E0,0E0,0E0,0E0,0E0,0E0,0E0,0E0,0E0,0E0,0E0,0E0,0E0,0E0,0E0,0E0,0E0,0E0,0E0,0E0,0E0,0E0,0E0],"parents":[2147483647,0,0,1,1,2,2,3,3,4,4,5,5,6,6,7,7,8,8,9,9,10,10,11,11,12,12,13,13,14,14,15,15,16,16,18,18,19,19,20,20,21,21,22,22,23,23,24,24,25,25,26,26,27,27,28,28,29,29,30,30],"right_children":[2,4,6,8,10,12,14,16,18,20,22,24,26,28,30,32,34,-1,36,38,40,42,44,46,48,50,52,54,56,58,60,-1,-1,-1,-1,-1,-1,-1,-1,-1,-1,-1,-1,-1,-1,-1,-1,-1,-1,-1,-1,-1,-1,-1,-1,-1,-1,-1,-1,-1,-1],"split_conditions":[1.199E1,4.03E4,2.185E1,4E0,1.5375E2,1.6212E2,4.307E1,4.5E3,2.5E3,8.48E1,6E0,4.5E4,1.89349E5,4E0,5.2534E4,4.575E3,1.4E2,-1.3002655E-1,1.88E2,1E0,1.1808E4,1E0,2E0,1.5485E4,6E0,4.582E3,7E0,5.3E3,2E0,3E0,4.94E2,4.188913E-3,9.5905945E-2,-1.0758183E-2,1.0156806E-1,3.283186E-2,9.8784916E-2,4.787272E-2,-9.5486335E-2,-7.71106E-2,2.1429572E-2,-3.251819E-2,4.3520327E-3,2.9398838E-2,-8.905539E-3,1.4395455E-2,-3.1407095E-2,-6.209295E-2,-4.7509368E-3,5.3029597E-2,1.2280482E-2,8.482936E-3,-1.9155262E-2,7.122161E-2,-1.3110155E-1,1.9724062E-2,-1.5286426E-1,5.7392176E-2,2.7164428E-2,-1.8583857E-1,-1.7586779E-2],"split_indices":[72,67,72,50,1,1,1,30,0,63,51,2,67,55,35,0,45,0,41,121,71,134,47,70,51,68,42,35,53,54,36,0,0,0,0,0,0,0,0,0,0,0,0,0,0,0,0,0,0,0,0,0,0,0,0,0,0,0,0,0,0],"split_type":[0,0,0,0,0,0,0,0,0,0,0,0,0,0,0,0,0,0,0,0,0,0,0,0,0,0,0,0,0,0,0,0,0,0,0,0,0,0,0,0,0,0,0,0,0,0,0,0,0,0,0,0,0,0,0,0,0,0,0,0,0],"sum_hessian":[1.7398023E4,6.1929346E3,1.1205089E4,9.785766E2,5.214358E3,9.066607E3,2.1384807E3,7.6493524E2,2.1364136E2,5.320898E2,4.682268E3,8.324403E2,8.234167E3,4.6633133E1,2.0918477E3,7.4933205E1,6.90002E2,5.1745105E0,2.0846686E2,5.1679058E1,4.8041074E2,3.0299548E3,1.6523132E3,3.9847916E2,4.3396115E2,5.4366875E3,2.7974797E3,2.4556528E1,2.2076607E1,2.0366187E3,5.5229073E1,2.249161E1,5.2441597E1,6.55884E2,3.4118053E1,1.5088649E2,5.7580357E1,4.3671806E1,8.007254E0,4.5280948E2,2.7601278E1,2.5609893E3,4.6896545E2,3.4622406E2,1.3060892E3,2.2264896E2,1.7583022E2,2.817627E2,1.5219846E2,3.5303143E2,5.0836562E3,1.2934825E3,1.5039971E3,1.625607E1,8.300459E0,3.828477E0,1.8248129E1,3.4202823E2,1.6945903E3,7.383159E0,4.7845913E1],"tree_param":{"num_deleted":"0","num_feature":"135","num_nodes":"61","size_leaf_vector":"1"}},{"base_weights":[-4.998337E-4,-1.2527004E-1,1.035733E-1,-1.7917384E-1,1.12354375E-1,2.7056247E-1,5.434165E-2,-3.378002E-1,-9.6784756E-2,4.023559E-1,-1.9560598E-2,4.6923137E-1,1.753948E-1,1.302777E-1,-5.906945E-2,-1.1083217E-1,-4.8185116E-1,-1.9585781E-1,6.681998E-2,4.5381328E-1,-7.0172316E-1,1.1708895E-1,-2.211038E-1,5.3986925E-1,-1.3730383E-1,9.1424316E-2,3.7804216E-1,3.289417E-1,7.485936E-2,-2.1614222E-1,5.4756865E-2,-5.7054598E-2,-1.0786132E-4,-1.8284865E-2,-5.728824E-2,2.078191E-2,-2.4152454E-2,-9.217586E-3,2.1782907E-2,3.890946E-2,1.08597174E-1,1.4802548E-2,-1.3853376E-1,1.54967625E-2,-8.562042E-2,-6.4787135E-2,-9.876073E-3,7.68102E-2,4.3342654E-2,1.9483373E-2,-1.6154227E-1,-2.1585723E-2,1.9010123E-2,4.3643553E-2,-2.6706478E-2,2.2897951E-2,5.2013982E-2,8.6562885E-3,-8.785593E-2,-4.0530473E-2,-1.6389232E-3,-3.9715488E-2,9.109454E-3],"categories":[],"categories_nodes":[],"categories_segments":[],"categories_sizes":[],"default_left":[0,0,0,0,0,0,0,0,0,0,0,0,0,0,0,0,0,0,0,0,0,0,0,0,0,0,0,0,0,0,0,0,0,0,0,0,0,0,0,0,0,0,0,0,0,0,0,0,0,0,0,0,0,0,0,0,0,0,0,0,0,0,0],"id":17,"left_children":[1,3,5,7,9,11,13,15,17,19,21,23,25,27,29,31,33,35,37,39,41,43,45,47,49,51,53,55,57,59,61,-1,-1,-1,-1,-1,-1,-1,-1,-1,-1,-1,-1,-1,-1,-1,-1,-1,-1,-1,-1,-1,-1,-1,-1,-1,-1,-1,-1,-1,-1,-1,-1],"loss_changes":[2.2492603E2,1.00922424E2,7.76271E1,8.3888535E1,5.5753E1,4.056935E1,6.2832603E1,7.170178E1,6.8538704E1,2.6204865E1,2.7636496E1,2.9884262E1,2.472982E1,4.8084618E1,5.2331284E1,4.3057976E1,3.6430267E1,4.859577E1,3.8322445E1,1.741362E1,1.2219835E1,2.2183102E1,2.110428E1,1.4811813E1,3.633774E1,3.128067E1,1.6165752E1,1.8091324E1,3.82147E1,4.6461407E1,2.7912016E1,0E0,0E0,0E0,0E0,0E0,0E0,0E0,0E0,0E0,0E0,0E0,0E0,0E0,0E0,0E0,0E0,0E0,0E0,0E0,0E0,0E0,0E0,0E0,0E0,0E0,0E0,0E0,0E0,0E0,0E0,0E0,0E0],"parents":[2147483647,0,0,1,1,2,2,3,3,4,4,5,5,6,6,7,7,8,8,9,9,10,10,11,11,12,12,13,13,14,14,15,15,16,16,17,17,18,18,19,19,20,20,21,21,22,22,23,23,24,24,25,25,26,26,27,27,28,28,29,29,30,30],"right_children":[2,4,6,8,10,12,14,16,18,20,22,24,26,28,30,32,34,36,38,40,42,44,46,48,50,52,54,56,58,60,62,-1,-1,-1,-1,-1,-1,-1,-1,-1,-1,-1,-1,-1,-1,-1,-1,-1,-1,-1,-1,-1,-1,-1,-1,-1,-1,-1,-1,-1,-1,-1,-1],"split_conditions":[1.358E1,1E0,2E0,2.27E1,4.1063E4,9E0,7E0,1.9E1,1E0,1.2E1,2E0,2.99207E5,2.582E1,3E0,1.875E1,1.5375E2,2E0,2E0,1E0,9.1E1,5E0,2.72E5,6E0,1.854E3,1.7E1,2.9735E2,4E0,1E0,7.7E1,1.56E4,1.6603E2,-5.7054598E-2,-1.0786132E-4,-1.8284865E-2,-5.728824E-2,2.078191E-2,-2.4152454E-2,-9.217586E-3,2.1782907E-2,3.890946E-2,1.08597174E-1,1.4802548E-2,-1.3853376E-1,1.54967625E-2,-8.562042E-2,-6.4787135E-2,-9.876073E-3,7.68102E-2,4.3342654E-2,1.9483373E-2,-1.6154227E-1,-2.1585723E-2,1.9010123E-2,4.3643553E-2,-2.6706478E-2,2.2897951E-2,5.2013982E-2,8.6562885E-3,-8.785593E-2,-4.0530473E-2,-1.6389232E-3,-3.9715488E-2,9.109454E-3],"split_indices":[72,120,47,37,18,56,74,12,118,54,32,67,3,54,3,1,47,43,119,45,74,2,45,11,48,1,19,75,8,0,1,0,0,0,0,0,0,0,0,0,0,0,0,0,0,0,0,0,0,0,0,0,0,0,0,0,0,0,0,0,0,0,0],"split_type":[0,0,0,0,0,0,0,0,0,0,0,0,0,0,0,0,0,0,0,0,0,0,0,0,0,0,0,0,0,0,0,0,0,0,0,0,0,0,0,0,0,0,0,0,0,0,0,0,0,0,0,0,0,0,0,0,0,0,0,0,0,0,0],"sum_hessian":[1.7319688E4,7.876537E3,9.443151E3,6.4203594E3,1.4561776E3,2.1491018E3,7.2940493E3,2.1936855E3,4.2266743E3,4.5464255E2,1.0015351E3,6.947772E2,1.4543247E3,4.368744E3,2.925305E3,8.5240204E2,1.3412834E3,2.6323948E3,1.5942793E3,4.3495953E2,1.9683012E1,5.971064E2,4.044287E2,6.224014E2,7.2375755E1,1.029277E3,4.2504773E2,9.517979E2,3.4169465E3,1.2287762E3,1.6965287E3,1.6347446E2,6.889276E2,3.137487E2,1.0275348E3,2.6716898E2,2.3652258E3,7.767925E2,8.174868E2,3.9603052E2,3.8929012E1,9.124505E0,1.0558506E1,5.75548E2,2.1558428E1,8.915058E1,3.1527814E2,1.9597624E2,4.2642523E2,5.980548E1,1.2570276E1,2.4989917E2,7.7937775E2,3.900637E2,3.4984047E1,6.264664E2,3.253315E2,3.3764092E3,4.0537292E1,6.3058984E2,5.9818634E2,1.2552416E2,1.5710045E3],"tree_param":{"num_deleted":"0","num_feature":"135","num_nodes":"63","size_leaf_vector":"1"}},{"base_weights":[-4.862645E-4,-2.382112E-1,4.6995167E-2,-1.4917898E-1,-4.5774087E-1,-1.09479085E-1,9.300642E-2,-2.2669813E-1,1.4507264E-1,-3.082406E-1,-6.280398E-1,-1.2205671E-2,-3.120662E-1,2.0565161E-1,9.23999E-3,-3.4395432E-1,3.873486E-2,2.9667723E-1,-2.7425125E-1,-3.8368362E-1,4.2471606E-1,-8.3119106E-1,-3.5492095E-1,-3.6578216E-2,7.288706E-1,-3.518125E-1,4.5202416E-1,4.023578E-1,1.4987126E-1,1.01292245E-1,-7.9715334E-2,1.9840111E-3,-5.032022E-2,1.3723239E-2,-6.7992635E-2,4.039406E-3,5.4980338E-2,-7.9069726E-2,3.3118553E-2,-6.932748E-2,-1.4933871E-2,1.1264016E-1,-7.27735E-2,-8.744751E-2,7.200764E-2,1.846086E-2,-6.27888E-2,-1.0657268E-2,1.7592406E-2,9.751158E-2,-2.2121388E-2,-4.7773555E-2,-1.2591146E-2,9.947342E-2,-1.627602E-2,5.522274E-2,2.8312609E-2,8.792635E-3,3.5686493E-2,2.757149E-2,2.9616696E-3,2.1280678E-2,-1.1864138E-2],"categories":[],"categories_nodes":[],"categories_segments":[],"categories_sizes":[],"default_left":[0,0,0,0,0,0,0,0,0,0,0,0,0,0,0,0,0,0,0,0,0,0,0,0,0,0,0,0,0,0,0,0,0,0,0,0,0,0,0,0,0,0,0,0,0,0,0,0,0,0,0,0,0,0,0,0,0,0,0,0,0,0,0],"id":18,"left_children":[1,3,5,7,9,11,13,15,17,19,21,23,25,27,29,31,33,35,37,39,41,43,45,47,49,51,53,55,57,59,61,-1,-1,-1,-1,-1,-1,-1,-1,-1,-1,-1,-1,-1,-1,-1,-1,-1,-1,-1,-1,-1,-1,-1,-1,-1,-1,-1,-1,-1,-1,-1,-1],"loss_changes":[1.947049E2,5.6060196E1,1.0352466E2,4.6670567E1,2.0890182E1,6.438809E1,1.0484287E2,5.039216E1,2.722234E1,2.4656742E1,2.1131302E1,3.991871E1,3.2349342E1,5.193474E1,5.219809E1,6.5058136E1,3.526415E1,2.0350714E1,3.5872025E1,2.907225E1,3.4631996E1,1.5448868E1,2.4631655E1,3.183799E1,1.6679585E1,2.8616348E1,1.7794445E1,1.8540344E1,4.7326546E1,3.915621E1,3.6939373E1,0E0,0E0,0E0,0E0,0E0,0E0,0E0,0E0,0E0,0E0,0E0,0E0,0E0,0E0,0E0,0E0,0E0,0E0,0E0,0E0,0E0,0E0,0E0,0E0,0E0,0E0,0E0,0E0,0E0,0E0,0E0,0E0],"parents":[2147483647,0,0,1,1,2,2,3,3,4,4,5,5,6,6,7,7,8,8,9,9,10,10,11,11,12,12,13,13,14,14,15,15,16,16,17,17,18,18,19,19,20,20,21,21,22,22,23,23,24,24,25,25,26,26,27,27,28,28,29,29,30,30],"right_children":[2,4,6,8,10,12,14,16,18,20,22,24,26,28,30,32,34,36,38,40,42,44,46,48,50,52,54,56,58,60,62,-1,-1,-1,-1,-1,-1,-1,-1,-1,-1,-1,-1,-1,-1,-1,-1,-1,-1,-1,-1,-1,-1,-1,-1,-1,-1,-1,-1,-1,-1,-1,-1],"split_conditions":[9.58E0,1E1,8E3,2.084E1,8.574985E4,6.2E4,9.155E4,1.9075E4,2.9422E4,1.1E1,6.2066E2,3E1,1.1808E4,1.13E4,5E0,4.6032E4,1.372E4,2.3E4,7E0,2.8187E2,1.6E1,1E0,3E0,8.753E3,7.452E3,1.98E1,8.1E4,5E0,2.5E4,1.26E2,4.4E4,1.9840111E-3,-5.032022E-2,1.3723239E-2,-6.7992635E-2,4.039406E-3,5.4980338E-2,-7.9069726E-2,3.3118553E-2,-6.932748E-2,-1.4933871E-2,1.1264016E-1,-7.27735E-2,-8.744751E-2,7.200764E-2,1.846086E-2,-6.27888E-2,-1.0657268E-2,1.7592406E-2,9.751158E-2,-2.2121388E-2,-4.7773555E-2,-1.2591146E-2,9.947342E-2,-1.627602E-2,5.522274E-2,2.8312609E-2,8.792635E-3,3.5686493E-2,2.757149E-2,2.9616696E-3,2.1280678E-2,-1.1864138E-2],"split_indices":[72,54,0,3,2,2,67,0,36,34,1,43,71,30,47,67,28,69,51,1,54,126,47,11,11,3,2,47,0,41,2,0,0,0,0,0,0,0,0,0,0,0,0,0,0,0,0,0,0,0,0,0,0,0,0,0,0,0,0,0,0,0,0],"split_type":[0,0,0,0,0,0,0,0,0,0,0,0,0,0,0,0,0,0,0,0,0,0,0,0,0,0,0,0,0,0,0,0,0,0,0,0,0,0,0,0,0,0,0,0,0,0,0,0,0,0,0,0,0,0,0,0,0,0,0,0,0,0,0],"sum_hessian":[1.724758E4,2.870725E3,1.4376855E4,2.0436031E3,8.271219E2,3.266573E3,1.1110282E4,1.6176664E3,4.259367E2,4.4195392E2,3.8516797E2,2.2076277E3,1.0589454E3,4.7377383E3,6.3725444E3,1.1218073E3,4.9585913E2,3.1304813E2,1.12888596E2,4.011411E2,4.0812813E1,2.1970422E2,1.6546375E2,2.1382554E3,6.937238E1,1.0070979E3,5.1847477E1,1.0453076E3,3.6924304E3,3.1316887E3,3.2408555E3,3.4181717E2,7.799901E2,4.3680148E2,5.9057644E1,1.561302E2,1.5691791E2,6.075648E1,5.213212E1,1.7198059E2,2.2916052E2,2.5381527E1,1.5431285E1,2.1416481E2,5.5394154E0,5.5698082E1,1.0976566E2,1.6088329E3,5.2942236E2,5.5072273E1,1.4300111E1,6.4592694E2,3.61171E2,2.7209694E1,2.4637783E1,4.615392E2,5.837684E2,2.8430457E3,8.493849E2,9.1126825E2,2.2204204E3,3.8008902E2,2.8607666E3],"tree_param":{"num_deleted":"0","num_feature":"135","num_nodes":"63","size_leaf_vector":"1"}},{"base_weights":[-5.000193E-4,-8.501841E-2,1.12736054E-1,-2.497936E-2,-2.565027E-1,7.49834E-2,3.1312957E-1,-3.3190483E-1,1.1748288E-2,-8.602274E-2,-3.7255502E-1,2.7331346E-1,4.0807754E-2,4.453183E-1,1.9008121E-1,-8.5793715E-3,-4.901853E-1,-7.732999E-2,1.5158162E-1,-3.518632E-1,1.0470867E-2,-6.0161784E-2,-4.4080755E-1,2.902991E-1,-1.6525185E0,-3.297084E-2,1.4393418E-1,7.129525E-1,3.5689294E-1,2.6143792E-1,-2.6098678E-1,-2.388986E-2,5.1274505E-2,-6.4672746E-2,-2.2601986E-2,-4.3763444E-2,-4.0745526E-3,9.557841E-3,4.9657356E-2,-4.4527344E-2,6.007749E-2,2.7014542E-2,-1.2270666E-2,3.716074E-2,-2.0756282E-2,-5.1689774E-2,-1.1243002E-2,-8.252353E-2,3.172723E-2,-2.3002751E-1,6.0166884E-2,-1.4085081E-2,8.751812E-3,3.34496E-2,8.494555E-3,7.56894E-2,-1.002595E-1,-9.080238E-2,3.9239943E-2,1.6391134E-2,5.9272777E-2,-5.575482E-2,4.0884268E-2],"categories":[],"categories_nodes":[],"categories_segments":[],"categories_sizes":[],"default_left":[0,0,0,0,0,0,0,0,0,0,0,0,0,0,0,0,0,0,0,0,0,0,0,0,0,0,0,0,0,0,0,0,0,0,0,0,0,0,0,0,0,0,0,0,0,0,0,0,0,0,0,0,0,0,0,0,0,0,0,0,0,0,0],"id":19,"left_children":[1,3,5,7,9,11,13,15,17,19,21,23,25,27,29,31,33,35,37,39,41,43,45,47,49,51,53,55,57,59,61,-1,-1,-1,-1,-1,-1,-1,-1,-1,-1,-1,-1,-1,-1,-1,-1,-1,-1,-1,-1,-1,-1,-1,-1,-1,-1,-1,-1,-1,-1,-1,-1],"loss_changes":[1.6437343E2,1.0124756E2,5.5509613E1,8.212893E1,5.042267E1,4.1864185E1,1.8837791E1,3.9843994E1,8.10722E1,2.6532684E1,3.231862E1,3.0179413E1,4.0110367E1,1.3000565E1,1.951692E1,3.0971346E1,2.1470154E1,5.239144E1,4.888649E1,2.4778378E1,2.6307316E1,1.746248E1,3.1045883E1,2.7367737E1,1.3192711E1,3.996426E1,2.4685188E1,1.1168884E1,1.935445E1,1.6775314E1,1.6722061E1,0E0,0E0,0E0,0E0,0E0,0E0,0E0,0E0,0E0,0E0,0E0,0E0,0E0,0E0,0E0,0E0,0E0,0E0,0E0,0E0,0E0,0E0,0E0,0E0,0E0,0E0,0E0,0E0,0E0,0E0,0E0,0E0],"parents":[2147483647,0,0,1,1,2,2,3,3,4,4,5,5,6,6,7,7,8,8,9,9,10,10,11,11,12,12,13,13,14,14,15,15,16,16,17,17,18,18,19,19,20,20,21,21,22,22,23,23,24,24,25,25,26,26,27,27,28,28,29,29,30,30],"right_children":[2,4,6,8,10,12,14,16,18,20,22,24,26,28,30,32,34,36,38,40,42,44,46,48,50,52,54,56,58,60,62,-1,-1,-1,-1,-1,-1,-1,-1,-1,-1,-1,-1,-1,-1,-1,-1,-1,-1,-1,-1,-1,-1,-1,-1,-1,-1,-1,-1,-1,-1,-1,-1],"split_conditions":[1.504E1,1.1E1,2.484E1,1.5375E2,4E0,1.904E3,1E0,1E0,1E0,8.6E3,6.8E2,2.2E1,2.292E1,1E0,3.7E1,2.06E2,1.833E1,6.72E0,2.945E4,6.3E1,7.2E4,1.429E3,2.959E1,5.501E1,3.9203E4,1.6E4,4.3797E4,3.39E2,4.307E1,2E0,1.5E1,-2.388986E-2,5.1274505E-2,-6.4672746E-2,-2.2601986E-2,-4.3763444E-2,-4.0745526E-3,9.557841E-3,4.9657356E-2,-4.4527344E-2,6.007749E-2,2.7014542E-2,-1.2270666E-2,3.716074E-2,-2.0756282E-2,-5.1689774E-2,-1.1243002E-2,-8.252353E-2,3.172723E-2,-2.3002751E-1,6.0166884E-2,-1.4085081E-2,8.751812E-3,3.34496E-2,8.494555E-3,7.56894E-2,-1.002595E-1,-9.080238E-2,3.9239943E-2,1.6391134E-2,5.9272777E-2,-5.575482E-2,4.0884268E-2],"split_indices":[72,54,72,1,47,35,44,22,118,0,5,53,3,22,45,41,3,72,0,14,2,36,3,1,18,0,18,41,1,7,54,0,0,0,0,0,0,0,0,0,0,0,0,0,0,0,0,0,0,0,0,0,0,0,0,0,0,0,0,0,0,0,0],"split_type":[0,0,0,0,0,0,0,0,0,0,0,0,0,0,0,0,0,0,0,0,0,0,0,0,0,0,0,0,0,0,0,0,0,0,0,0,0,0,0,0,0,0,0,0,0,0,0,0,0,0,0,0,0,0,0,0,0,0,0,0,0,0,0],"sum_hessian":[1.7172951E4,9.833537E3,7.3394146E3,7.284335E3,2.5492021E3,6.1770737E3,1.1623408E3,7.7764844E2,6.5066865E3,1.0331923E3,1.5160099E3,9.0692975E2,5.270144E3,5.590953E2,6.0324554E2,2.559217E2,5.2172675E2,3.9749583E3,2.531728E3,2.7444586E2,7.587464E2,2.7216888E2,1.243841E3,8.998425E2,7.087246E0,3.0726165E3,2.1975276E3,1.3709416E2,4.2200113E2,5.2121265E2,8.203285E1,1.7787773E2,7.804398E1,3.266868E2,1.9503995E2,3.6539365E2,3.6095647E3,2.1792441E3,3.5248386E2,2.5042336E2,2.4022493E1,2.5686768E2,5.018787E2,6.888091E1,2.0328798E2,1.0093782E3,2.3446278E2,2.0545475E1,8.7929706E2,5.4893866E0,1.5978595E0,1.6210436E3,1.4515729E3,5.1834674E2,1.6791808E3,1.3421523E2,2.8789394E0,1.0851281E1,4.1114984E2,4.0382703E2,1.1738564E2,5.6975185E1,2.5057669E1],"tree_param":{"num_deleted":"0","num_feature":"135","num_nodes":"63","size_leaf_vector":"1"}},{"base_weights":[-4.8339902E-4,-5.6116458E-2,1.5530914E-1,-2.5334182E-1,-1.0710898E-2,1.6656405E-1,-1.0353736E0,-2.6919034E-1,8.745447E-1,4.6112813E-2,-1.3702026E-1,3.8010085E-1,1.0866969E-1,1.06990874E-1,-1.1853282E0,-1.46628E-1,-3.9837658E-1,1.4766673E0,-2.2125396E-1,3.340383E-2,7.628903E-1,-2.078306E-1,7.6545514E-2,-1.1209996E-1,4.233342E-1,2.4496166E-2,2.32467E-1,-1.5484979E0,-3.5945368E-1,2.8504275E-3,-3.6865152E-2,-5.030631E-2,-1.0652714E-2,-8.0745764E-2,1.6736762E-1,-1.2401929E-1,1.103123E-1,3.0443503E-2,3.776628E-4,-1.2320234E-3,9.0110414E-2,-2.9298628E-2,-5.56368E-3,1.0153549E-2,-9.743913E-2,4.705214E-2,-5.260831E-2,4.732365E-2,-7.6101692E-3,-3.7573088E-2,6.8597323E-3,1.1935915E-2,3.8857423E-2,7.595073E-2,-1.6826048E-1,-1.7844507E-1,2.3868477E-2],"categories":[],"categories_nodes":[],"categories_segments":[],"categories_sizes":[],"default_left":[0,0,0,0,0,0,0,0,0,0,0,0,0,0,0,0,0,0,0,0,0,0,0,0,0,0,0,0,0,0,0,0,0,0,0,0,0,0,0,0,0,0,0,0,0,0,0,0,0,0,0,0,0,0,0,0,0],"id":20,"left_children":[1,3,5,7,9,11,13,15,17,19,21,23,25,-1,27,29,31,33,35,37,39,41,43,45,47,49,51,53,55,-1,-1,-1,-1,-1,-1,-1,-1,-1,-1,-1,-1,-1,-1,-1,-1,-1,-1,-1,-1,-1,-1,-1,-1,-1,-1,-1,-1],"loss_changes":[1.4823453E2,1.1285478E2,6.0481667E1,4.2392227E1,7.353973E1,5.5084145E1,1.4615749E1,3.677733E1,2.2044178E1,6.435135E1,4.809375E1,2.0277573E1,3.6563587E1,0E0,1.1423546E1,4.649262E1,3.453337E1,1.0969059E1,1.8293148E1,5.576577E1,1.3197838E1,3.0930428E1,2.0908522E1,1.8953035E1,2.1822021E1,3.691735E1,2.5031013E1,9.7714E0,1.1934319E1,0E0,0E0,0E0,0E0,0E0,0E0,0E0,0E0,0E0,0E0,0E0,0E0,0E0,0E0,0E0,0E0,0E0,0E0,0E0,0E0,0E0,0E0,0E0,0E0,0E0,0E0,0E0,0E0],"parents":[2147483647,0,0,1,1,2,2,3,3,4,4,5,5,6,6,7,7,8,8,9,9,10,10,11,11,12,12,14,14,15,15,16,16,17,17,18,18,19,19,20,20,21,21,22,22,23,23,24,24,25,25,26,26,27,27,28,28],"right_children":[2,4,6,8,10,12,14,16,18,20,22,24,26,-1,28,30,32,34,36,38,40,42,44,46,48,50,52,54,56,-1,-1,-1,-1,-1,-1,-1,-1,-1,-1,-1,-1,-1,-1,-1,-1,-1,-1,-1,-1,-1,-1,-1,-1,-1,-1,-1,-1],"split_conditions":[1E0,9.58E0,3.2E5,1.71E2,1.89349E5,2.6205E4,9.4E3,8.225E3,7E0,1E0,7.077E2,3.5E3,2.537E1,1.06990874E-1,6E0,1E0,4.84E1,2.02E2,6.0797E2,1E0,7.498E3,2E0,2.48E2,2E4,6.416E3,1.97E2,7E0,3.2E1,1E0,2.8504275E-3,-3.6865152E-2,-5.030631E-2,-1.0652714E-2,-8.0745764E-2,1.6736762E-1,-1.2401929E-1,1.103123E-1,3.0443503E-2,3.776628E-4,-1.2320234E-3,9.0110414E-2,-2.9298628E-2,-5.56368E-3,1.0153549E-2,-9.743913E-2,4.705214E-2,-5.260831E-2,4.732365E-2,-7.6101692E-3,-3.7573088E-2,6.8597323E-3,1.1935915E-2,3.8857423E-2,7.595073E-2,-1.6826048E-1,-1.7844507E-1,2.3868477E-2],"split_indices":[120,72,2,45,67,18,30,35,74,130,1,0,3,0,48,122,37,41,1,47,18,19,40,2,28,1,51,40,116,0,0,0,0,0,0,0,0,0,0,0,0,0,0,0,0,0,0,0,0,0,0,0,0,0,0,0,0],"split_type":[0,0,0,0,0,0,0,0,0,0,0,0,0,0,0,0,0,0,0,0,0,0,0,0,0,0,0,0,0,0,0,0,0,0,0,0,0,0,0,0,0,0,0,0,0,0,0,0,0,0,0,0,0,0,0,0,0],"sum_hessian":[1.7100896E4,1.2601557E4,4.4993394E3,2.3573782E3,1.0244179E4,4.4580596E3,4.1279648E1,2.3254631E3,3.191496E1,7.065987E3,3.178192E3,9.496858E2,3.508374E3,2.3368373E0,3.894281E1,1.1944205E3,1.1310426E3,2.0372854E1,1.1542108E1,6.9439126E3,1.2207402E2,2.3868347E3,7.9135724E2,7.655331E1,8.731325E2,2.0891177E3,1.4192563E3,2.6440777E1,1.2502034E1,6.682087E2,5.262118E2,8.3191187E2,2.9913077E2,1.3716254E0,1.9001228E1,6.5592027E0,4.9829044E0,6.8334656E2,6.260566E3,1.8609325E1,1.0346469E2,1.5298986E3,8.5693616E2,7.738592E2,1.7498026E1,3.1743023E1,4.481028E1,7.938642E2,7.9268326E1,2.0660602E2,1.8825116E3,8.2399414E2,5.952622E2,1.1958869E0,2.524489E1,3.1098437E0,9.39219E0],"tree_param":{"num_deleted":"0","num_feature":"135","num_nodes":"57","size_leaf_vector":"1"}},{"base_weights":[-4.679281E-4,-5.9310075E-2,1.256682E-1,2.3418413E-2,-1.6721508E-1,2.0836842E-1,1.6293956E-2,-1.0277258E-2,2.993016E-1,-4.657756E-2,-2.7745238E-1,2.8707936E-1,6.550652E-2,1.5958999E-1,-9.8776035E-2,-4.4114552E-2,3.3359864E-1,4.7207648E-1,1.5029182E-1,-1.2885863E-1,1.5509745E-1,-3.3040363E-1,5.26359E-2,3.158131E-1,-1.8201432E-1,2.4094293E-3,4.292094E-1,3.1433392E-1,-2.9415399E-2,-1.4659588E-1,3.6013985E-1,3.969902E-3,-2.329676E-2,2.8273545E-3,5.392301E-2,5.2468266E-2,-9.109623E-2,3.811657E-2,-1.2301249E-4,-2.648513E-2,3.5410807E-3,7.282012E-2,8.824128E-3,-2.8495505E-2,-6.7631744E-2,1.8907692E-2,-4.4107698E-2,1.9095467E-2,4.195436E-2,7.541483E-2,-3.7842717E-2,-8.366871E-3,3.2418232E-2,4.99403E-2,-8.4481105E-2,3.763992E-2,-2.0998972E-2,7.1107717E-3,-4.3096554E-2,-1.1978485E-2,-9.934429E-2,4.5484122E-2,-7.699702E-2],"categories":[],"categories_nodes":[],"categories_segments":[],"categories_sizes":[],"default_left":[0,0,0,0,0,0,0,0,0,0,0,0,0,0,0,0,0,0,0,0,0,0,0,0,0,0,0,0,0,0,0,0,0,0,0,0,0,0,0,0,0,0,0,0,0,0,0,0,0,0,0,0,0,0,0,0,0,0,0,0,0,0,0],"id":21,"left_children":[1,3,5,7,9,11,13,15,17,19,21,23,25,27,29,31,33,35,37,39,41,43,45,47,49,51,53,55,57,59,61,-1,-1,-1,-1,-1,-1,-1,-1,-1,-1,-1,-1,-1,-1,-1,-1,-1,-1,-1,-1,-1,-1,-1,-1,-1,-1,-1,-1,-1,-1,-1,-1],"loss_changes":[1.2650199E2,1.037531E2,4.903756E1,6.1165905E1,6.706279E1,3.469661E1,3.8525658E1,6.8250336E1,1.8366737E1,4.0002956E1,4.6078384E1,2.6883575E1,2.5196507E1,3.044262E1,2.849237E1,8.453004E1,3.2975777E1,2.4572556E1,1.350348E1,3.8250877E1,2.6704535E1,3.551219E1,2.4681757E1,2.4213715E1,2.1524303E1,2.5970905E1,1.4937857E1,1.8700249E1,1.8975306E1,2.6544355E1,1.346954E1,0E0,0E0,0E0,0E0,0E0,0E0,0E0,0E0,0E0,0E0,0E0,0E0,0E0,0E0,0E0,0E0,0E0,0E0,0E0,0E0,0E0,0E0,0E0,0E0,0E0,0E0,0E0,0E0,0E0,0E0,0E0,0E0],"parents":[2147483647,0,0,1,1,2,2,3,3,4,4,5,5,6,6,7,7,8,8,9,9,10,10,11,11,12,12,13,13,14,14,15,15,16,16,17,17,18,18,19,19,20,20,21,21,22,22,23,23,24,24,25,25,26,26,27,27,28,28,29,29,30,30],"right_children":[2,4,6,8,10,12,14,16,18,20,22,24,26,28,30,32,34,36,38,40,42,44,46,48,50,52,54,56,58,60,62,-1,-1,-1,-1,-1,-1,-1,-1,-1,-1,-1,-1,-1,-1,-1,-1,-1,-1,-1,-1,-1,-1,-1,-1,-1,-1,-1,-1,-1,-1,-1,-1],"split_conditions":[1E0,1E0,1.86695E5,8.8108E2,5E0,8E0,7E0,1E0,4.919E3,6.2066E2,3.169E1,1.1843E4,7.7E1,7.05E2,7E0,1.1868E4,6E0,7E0,9.79E1,1.947E1,2.208E3,5E0,3.5E1,4.5775E2,1E0,7.6348E2,9.9E1,2.6E1,9.59E4,1.1E1,9E0,3.969902E-3,-2.329676E-2,2.8273545E-3,5.392301E-2,5.2468266E-2,-9.109623E-2,3.811657E-2,-1.2301249E-4,-2.648513E-2,3.5410807E-3,7.282012E-2,8.824128E-3,-2.8495505E-2,-6.7631744E-2,1.8907692E-2,-4.4107698E-2,1.9095467E-2,4.195436E-2,7.541483E-2,-3.7842717E-2,-8.366871E-3,3.2418232E-2,4.99403E-2,-8.4481105E-2,3.763992E-2,-2.0998972E-2,7.1107717E-3,-4.3096554E-2,-1.1978485E-2,-9.934429E-2,4.5484122E-2,-7.699702E-2],"split_indices":[75,116,67,1,47,74,42,134,28,1,3,28,29,5,33,36,74,32,63,3,11,32,12,1,74,1,37,45,30,34,32,0,0,0,0,0,0,0,0,0,0,0,0,0,0,0,0,0,0,0,0,0,0,0,0,0,0,0,0,0,0,0,0],"split_type":[0,0,0,0,0,0,0,0,0,0,0,0,0,0,0,0,0,0,0,0,0,0,0,0,0,0,0,0,0,0,0,0,0,0,0,0,0,0,0,0,0,0,0,0,0,0,0,0,0,0,0,0,0,0,0,0,0,0,0,0,0,0,0],"sum_hessian":[1.7041912E4,1.1621189E4,5.420722E3,6.578429E3,5.04276E3,3.0862427E3,2.3344795E3,5.8632676E3,7.1516187E2,2.4084788E3,2.6342812E3,1.9892432E3,1.0969994E3,1.0395485E3,1.294931E3,5.3388027E3,5.2446497E2,3.3016812E2,3.8499374E2,1.7108379E3,6.9764087E2,2.2701184E3,3.64163E2,1.8747355E3,1.1450776E2,9.3567944E2,1.6131996E2,5.712155E2,4.6833298E2,1.1733468E3,1.21584236E2,3.6982827E3,1.6405198E3,2.1152563E2,3.1293936E2,3.186677E2,1.1500421E1,1.5195082E2,2.3304292E2,9.356418E2,7.7519604E2,7.184866E1,6.257922E2,2.0081034E3,2.6201483E2,2.857978E2,7.83652E1,8.5201825E2,1.02271716E3,1.936565E1,9.5142105E1,7.387854E2,1.9689406E2,1.5347224E2,7.847714E0,5.110085E2,6.020701E1,3.7522336E2,9.310962E1,1.1384452E3,3.4901535E1,1.1273477E2,8.849463E0],"tree_param":{"num_deleted":"0","num_feature":"135","num_nodes":"63","size_leaf_vector":"1"}},{"base_weights":[-4.1483945E-4,-4.9238876E-2,1.364235E-1,-3.5874343E-1,-2.614515E-2,1.4658043E-1,-9.517607E-1,-6.777394E-2,-5.1338977E-1,1.22109905E-1,-7.326276E-2,3.364726E-1,9.5684454E-2,9.963832E-2,-1.0919209E0,1.3761748E-1,-4.5503995E-1,-3.929768E-1,-8.600761E-1,8.159005E-2,4.8598436E-1,-1.3742748E-1,6.7712225E-2,2.3516113E-1,5.3936493E-1,1.3565894E-2,1.9447912E-1,-1.200337E0,1.0467936E-1,-1.5578716E-2,7.311576E-2,9.738052E-2,-5.6426425E-2,-4.42418E-2,6.552478E-2,-1.09597705E-1,-3.8397588E-2,2.7444712E-3,3.595565E-2,5.6310553E-2,-5.345271E-2,-3.0246107E-2,-5.4290113E-3,1.7200394E-2,-1.1442047E-2,1.567447E-2,7.995888E-2,6.2622E-2,6.8937205E-3,-1.4633869E-2,1.2504542E-2,9.535113E-3,3.3548903E-2,-5.493391E-3,-1.4569448E-1],"categories":[],"categories_nodes":[],"categories_segments":[],"categories_sizes":[],"default_left":[0,0,0,0,0,0,0,0,0,0,0,0,0,0,0,0,0,0,0,0,0,0,0,0,0,0,0,0,0,0,0,0,0,0,0,0,0,0,0,0,0,0,0,0,0,0,0,0,0,0,0,0,0,0,0],"id":22,"left_children":[1,3,5,7,9,11,13,15,17,19,21,23,25,-1,27,29,31,33,35,37,39,41,43,45,47,49,51,53,-1,-1,-1,-1,-1,-1,-1,-1,-1,-1,-1,-1,-1,-1,-1,-1,-1,-1,-1,-1,-1,-1,-1,-1,-1,-1,-1],"loss_changes":[1.1346468E2,8.945784E1,4.950164E1,3.906951E1,8.138242E1,4.274082E1,1.2401573E1,2.4143047E1,2.3343994E1,4.1387684E1,7.997522E1,1.909378E1,2.832432E1,0E0,1.0329655E1,3.4698086E1,1.6959757E1,2.2206543E1,1.5909485E1,3.805934E1,2.244268E1,8.33423E1,5.2555553E1,2.755635E1,1.2649292E1,3.4026928E1,2.2120441E1,1.1003086E1,0E0,0E0,0E0,0E0,0E0,0E0,0E0,0E0,0E0,0E0,0E0,0E0,0E0,0E0,0E0,0E0,0E0,0E0,0E0,0E0,0E0,0E0,0E0,0E0,0E0,0E0,0E0],"parents":[2147483647,0,0,1,1,2,2,3,3,4,4,5,5,6,6,7,7,8,8,9,9,10,10,11,11,12,12,14,14,15,15,16,16,17,17,18,18,19,19,20,20,21,21,22,22,23,23,24,24,25,25,26,26,27,27],"right_children":[2,4,6,8,10,12,14,16,18,20,22,24,26,-1,28,30,32,34,36,38,40,42,44,46,48,50,52,54,-1,-1,-1,-1,-1,-1,-1,-1,-1,-1,-1,-1,-1,-1,-1,-1,-1,-1,-1,-1,-1,-1,-1,-1,-1,-1,-1],"split_conditions":[1E0,7.21E0,3.2E5,7.3E2,1E0,2.6205E4,9.4E3,2.4E1,2.2136E4,2E0,1.95E4,5.752E3,2.406E1,9.963832E-2,6E0,1.5E1,1E0,1.3269E4,2E1,1E0,3.6E1,1.485E1,1.61E4,8.2E4,3.9E1,1.6E4,7E0,6.75E2,1.0467936E-1,-1.5578716E-2,7.311576E-2,9.738052E-2,-5.6426425E-2,-4.42418E-2,6.552478E-2,-1.09597705E-1,-3.8397588E-2,2.7444712E-3,3.595565E-2,5.6310553E-2,-5.345271E-2,-3.0246107E-2,-5.4290113E-3,1.7200394E-2,-1.1442047E-2,1.567447E-2,7.995888E-2,6.2622E-2,6.8937205E-3,-1.4633869E-2,1.2504542E-2,9.535113E-3,3.3548903E-2,-5.493391E-3,-1.4569448E-1],"split_indices":[120,72,2,5,22,18,30,8,35,7,0,71,3,0,19,58,34,71,23,134,12,3,36,2,8,0,51,5,0,0,0,0,0,0,0,0,0,0,0,0,0,0,0,0,0,0,0,0,0,0,0,0,0,0,0],"split_type":[0,0,0,0,0,0,0,0,0,0,0,0,0,0,0,0,0,0,0,0,0,0,0,0,0,0,0,0,0,0,0,0,0,0,0,0,0,0,0,0,0,0,0,0,0,0,0,0,0,0,0,0,0,0,0],"sum_hessian":[1.6981182E4,1.2516076E4,4.4651064E3,8.680357E2,1.164804E4,4.424673E3,4.043387E1,3.017419E2,5.662938E2,2.808749E3,8.839291E3,9.3406793E2,3.4906047E3,2.3037791E0,3.813009E1,1.9759143E2,1.04150475E2,4.2189313E2,1.4440068E2,2.5284172E3,2.8033194E2,6.0745063E3,2.7647844E3,6.244277E2,3.0964026E2,1.9068009E3,1.5838038E3,3.670803E1,1.4220555E0,1.3272101E2,6.487044E1,6.834011E0,9.731646E1,4.0344205E2,1.8451063E1,9.5687096E1,4.8713585E1,2.11712E3,4.1129703E2,2.6105215E2,1.9279783E1,2.0340784E3,4.040428E3,1.7581177E3,1.0066668E3,5.493796E2,7.504807E1,2.6110184E2,4.853841E1,7.831498E2,1.1236511E3,9.3099994E2,6.5280383E2,6.94082E0,2.9767212E1],"tree_param":{"num_deleted":"0","num_feature":"135","num_nodes":"55","size_leaf_vector":"1"}},{"base_weights":[-3.9111997E-4,1.5540788E-1,-4.1251626E-2,-8.485641E-2,2.137259E-1,2.6870806E-2,-1.3870202E-1,1.8070662E-2,-5.513667E-1,9.128801E-2,3.3219686E-1,-2.759721E-2,1.5400553E-1,-2.0413183E-1,1.5160818E-1,-8.766136E-2,5.156394E-1,-1.0028752E0,-3.4324166E-1,2.650963E-1,-5.7571266E-2,5.690047E-1,2.2180736E-1,-1.10946715E-1,6.251368E-2,2.4987607E-1,2.325536E-2,3.722866E-2,-2.6419285E-1,3.7830886E-1,-6.9416195E-2,2.7249385E-2,-2.369339E-2,5.9011485E-2,-1.3334215E-1,-1.2557499E-1,1.5744597E-2,1.512285E-2,-6.537449E-2,-6.322648E-2,3.0746514E-2,-1.605357E-2,2.5971055E-2,5.3062864E-2,1.3517652E-1,2.381981E-2,-1.1183782E-1,5.181577E-4,-2.6567731E-2,1.003938E-2,-3.405386E-2,2.590218E-2,-1.2794745E-1,-2.371618E-2,1.18101295E-2,-6.835142E-2,9.606631E-3,-3.9557528E-2,-1.4706716E-2,4.8453927E-2,-3.1334575E-2,-1.4064878E-2,5.8048654E-2],"categories":[],"categories_nodes":[],"categories_segments":[],"categories_sizes":[],"default_left":[0,0,0,0,0,0,0,0,0,0,0,0,0,0,0,0,0,0,0,0,0,0,0,0,0,0,0,0,0,0,0,0,0,0,0,0,0,0,0,0,0,0,0,0,0,0,0,0,0,0,0,0,0,0,0,0,0,0,0,0,0,0,0],"id":23,"left_children":[1,3,5,7,9,11,13,15,17,19,21,23,25,27,29,31,33,35,37,39,41,43,45,47,49,51,53,55,57,59,61,-1,-1,-1,-1,-1,-1,-1,-1,-1,-1,-1,-1,-1,-1,-1,-1,-1,-1,-1,-1,-1,-1,-1,-1,-1,-1,-1,-1,-1,-1,-1,-1],"loss_changes":[1.0778693E2,4.9310387E1,8.905105E1,3.3036892E1,4.103575E1,5.4679836E1,1.0486419E2,2.9741201E1,1.1341675E1,3.607236E1,3.7477234E1,4.1528767E1,2.9680912E1,6.530646E1,5.0917427E1,2.5138567E1,1.4429947E1,1.1557735E1,1.3401265E1,2.4645542E1,2.4592575E1,1.3002213E1,2.1854362E1,5.1612328E1,4.0601486E1,1.9441818E1,2.4801455E1,3.816433E1,5.544629E1,3.7002922E1,2.3928482E1,0E0,0E0,0E0,0E0,0E0,0E0,0E0,0E0,0E0,0E0,0E0,0E0,0E0,0E0,0E0,0E0,0E0,0E0,0E0,0E0,0E0,0E0,0E0,0E0,0E0,0E0,0E0,0E0,0E0,0E0,0E0,0E0],"parents":[2147483647,0,0,1,1,2,2,3,3,4,4,5,5,6,6,7,7,8,8,9,9,10,10,11,11,12,12,13,13,14,14,15,15,16,16,17,17,18,18,19,19,20,20,21,21,22,22,23,23,24,24,25,25,26,26,27,27,28,28,29,29,30,30],"right_children":[2,4,6,8,10,12,14,16,18,20,22,24,26,28,30,32,34,36,38,40,42,44,46,48,50,52,54,56,58,60,62,-1,-1,-1,-1,-1,-1,-1,-1,-1,-1,-1,-1,-1,-1,-1,-1,-1,-1,-1,-1,-1,-1,-1,-1,-1,-1,-1,-1,-1,-1,-1,-1],"split_conditions":[2E0,1E0,7.05E2,3.50907E5,1.4575E4,1E0,1E0,2.959E1,3E0,6.078E3,4.4591E4,1.824E1,1.6E1,1.3E1,4.9E1,9.3E1,4.4E1,2.799E1,9E0,9.93E0,2.506E1,1.184E5,2.58E2,1.9E1,4.3E1,2.402E4,1.3E1,6.72E0,1.4575E4,4.827E4,6.524E1,2.7249385E-2,-2.369339E-2,5.9011485E-2,-1.3334215E-1,-1.2557499E-1,1.5744597E-2,1.512285E-2,-6.537449E-2,-6.322648E-2,3.0746514E-2,-1.605357E-2,2.5971055E-2,5.3062864E-2,1.3517652E-1,2.381981E-2,-1.1183782E-1,5.181577E-4,-2.6567731E-2,1.003938E-2,-3.405386E-2,2.590218E-2,-1.2794745E-1,-2.371618E-2,1.18101295E-2,-6.835142E-2,9.606631E-3,-3.9557528E-2,-1.4706716E-2,4.8453927E-2,-3.1334575E-2,-1.4064878E-2,5.8048654E-2],"split_indices":[47,7,5,67,0,75,134,3,33,36,18,3,45,12,29,41,42,3,45,72,3,30,40,12,12,28,3,72,0,36,3,0,0,0,0,0,0,0,0,0,0,0,0,0,0,0,0,0,0,0,0,0,0,0,0,0,0,0,0,0,0,0,0],"split_type":[0,0,0,0,0,0,0,0,0,0,0,0,0,0,0,0,0,0,0,0,0,0,0,0,0,0,0,0,0,0,0,0,0,0,0,0,0,0,0,0,0,0,0,0,0,0,0,0,0,0,0,0,0,0,0,0,0,0,0,0,0,0,0],"sum_hessian":[1.692958E4,3.5169248E3,1.3412656E4,6.868241E2,2.8301006E3,7.894648E3,5.5180083E3,5.634666E2,1.2335749E2,1.3926201E3,1.4374805E3,5.5273584E3,2.3672898E3,4.5033457E3,1.0146625E3,4.653952E2,9.807141E1,3.771644E1,8.564105E1,6.4211035E2,7.5050977E2,4.557182E2,9.817623E2,2.8712856E3,2.6560728E3,1.3652963E3,1.00199347E3,8.974091E2,3.6059365E3,5.0054794E2,5.141145E2,1.3612823E2,3.2926697E2,9.492878E1,3.142628E0,3.09E1,6.8164387E0,3.323228E1,5.240877E1,2.8322573E1,6.137878E2,5.670005E2,1.8350926E2,4.3601953E2,1.9698656E1,9.707126E2,1.1049739E1,1.6408E3,1.2304856E3,2.4285784E3,2.2749448E2,1.3580057E3,7.2904243E0,2.671054E2,7.3488806E2,6.6929276E1,8.3047986E2,1.698413E3,1.9075236E3,4.3416458E2,6.638336E1,4.640373E2,5.007722E1],"tree_param":{"num_deleted":"0","num_feature":"135","num_nodes":"63","size_leaf_vector":"1"}},{"base_weights":[-3.83425E-4,1.5460816E-1,-3.5784252E-2,1.2916142E-1,4.8998356E-1,-1.0187658E-1,8.5144036E-2,1.2122689E-1,1.0190282E0,5.1771784E-1,-1.5817389E-1,-1.641731E-1,9.384846E-2,2.1334247E-1,2.7412742E-2,7.306186E-2,2.8699476E-1,1.3362072E0,-4.2068848E-1,6.580512E-1,1.2799303E-1,-1.0531088E-1,-4.261815E-1,2.4056363E-1,-9.008277E-2,-1.4869468E-1,2.6461676E-1,1.4388905E-2,5.7226056E-1,3.511479E-2,3.635623E-3,3.2574233E-2,-4.880632E-2,1.6439116E-1,6.405866E-2,-1.7444432E-1,4.2651635E-2,6.8959706E-2,-8.926665E-2,-6.775483E-2,4.428004E-2,4.243636E-2,-1.2600976E-2,-5.2484196E-2,2.3836503E-2,1.242622E-2,4.237641E-2,1.3466339E-2,-2.7221745E-2,8.644346E-3,-5.88274E-2,1.1590282E-2,3.47213E-2,2.5851603E-3,-5.838294E-2,6.602812E-2,-1.23418175E-1],"categories":[],"categories_nodes":[],"categories_segments":[],"categories_sizes":[],"default_left":[0,0,0,0,0,0,0,0,0,0,0,0,0,0,0,0,0,0,0,0,0,0,0,0,0,0,0,0,0,0,0,0,0,0,0,0,0,0,0,0,0,0,0,0,0,0,0,0,0,0,0,0,0,0,0,0,0],"id":24,"left_children":[1,3,5,7,9,11,13,15,17,19,-1,21,23,25,27,29,31,33,35,37,39,41,43,45,47,49,51,53,55,-1,-1,-1,-1,-1,-1,-1,-1,-1,-1,-1,-1,-1,-1,-1,-1,-1,-1,-1,-1,-1,-1,-1,-1,-1,-1,-1,-1],"loss_changes":[9.2598076E1,2.6716537E1,1.0981253E2,2.0479454E1,1.3513786E1,1.0833561E2,3.5931248E1,2.3080093E1,1.2276697E1,1.1881031E1,0E0,1.038909E2,5.7920048E1,2.8024117E1,2.3757206E1,2.2885052E1,1.9711601E1,3.4978714E0,6.790953E0,8.472649E0,1.5303193E1,6.040098E1,8.116017E1,2.5382729E1,3.903659E1,1.9447903E1,1.618438E1,2.2451605E1,1.324291E1,0E0,0E0,0E0,0E0,0E0,0E0,0E0,0E0,0E0,0E0,0E0,0E0,0E0,0E0,0E0,0E0,0E0,0E0,0E0,0E0,0E0,0E0,0E0,0E0,0E0,0E0,0E0,0E0],"parents":[2147483647,0,0,1,1,2,2,